{"learner":{"attributes":{"scikit_learn":"{\"_estimator_type\": \"classifier\"}"},"feature_names":["rs79437808","rs2180439","rs9282858","rs6047844","rs1160312","rs201563","rs13405699","rs11684254","rs2095921","rs7801037","rs12565727","rs78311490","rs9287638","rs74333950","rs2073963","rs10502861","rs6945541","rs7177657","rs62385385","rs7642536","rs4679956","rs12203592","rs34800162","rs7534070","rs76972608","rs9300169","rs12083887","rs227808","rs9357047","rs3781458","rs6546334","rs11694173","rs11593840","rs62060349","rs12702271","rs11037975","rs78003935","rs7974517","rs246180","rs1262557","rs9314998","rs4690116","rs1819008","rs182973285","rs74321310","rs79593277","rs141577316","rs148541866","rs6113492","rs183207557","rs191648835","rs9380830","rs191212334","rs79206101","rs115182912","rs77767830","rs180807105","rs10843026","rs145945174","rs144149795","rs71421546","rs188468174","rs6952233","rs17053607","rs77096234","rs6461387","rs7542354","rs71530654","rs4906800","rs17185996","rs192913879","rs55908337","rs75520281","rs142756290","rs145562694","rs13021718","rs12606816","rs79806428","rs17643057","rs11249243","rs1422798","rs78472887","rs12997617","rs72809171","rs939963","rs12902958","rs186127900","rs2416699","rs7349332","rs6788232","rs4718886","rs141173114","rs733626","rs10935316","rs76712439","rs16862069","rs79472072","rs139092879","rs77775907","rs113923480","rs2149150","rs8085664","rs7173477","rs6072223","rs4714811","rs143916866","rs117769774","rs1907352","rs2064251","rs7680591","rs72787555","rs72787520","rs72787535","rs118013985","rs78448052","rs80226387","rs17270216","rs2421326","rs246185","rs12702262","rs7997640","rs7736883","rs17833789","rs7976269","rs34769088","rs201593","rs16863765","rs9803723","rs11578119","rs55869381"],"feature_types":["int","int","int","int","int","int","int","int","int","int","int","int","int","int","int","int","int","int","int","int","int","int","int","int","int","int","int","int","int","int","int","int","int","int","int","int","int","int","int","int","int","int","int","int","int","int","int","int","int","int","int","int","int","int","int","int","int","int","int","int","int","int","int","int","int","int","int","int","int","int","int","int","int","int","int","int","int","int","int","int","int","int","int","int","int","int","int","int","int","int","int","int","int","int","int","int","int","int","int","int","int","int","int","int","int","int","int","int","int","int","int","int","int","int","int","int","int","int","int","int","int","int","int","int","int","int","int","int","int","int"],"gradient_booster":{"model":{"cats":{"enc":[],"feature_segments":[],"sorted_idx":[]},"gbtree_model_param":{"num_parallel_tree":"1","num_trees":"300"},"iteration_indptr":[0,1,2,3,4,5,6,7,8,9,10,11,12,13,14,15,16,17,18,19,20,21,22,23,24,25,26,27,28,29,30,31,32,33,34,35,36,37,38,39,40,41,42,43,44,45,46,47,48,49,50,51,52,53,54,55,56,57,58,59,60,61,62,63,64,65,66,67,68,69,70,71,72,73,74,75,76,77,78,79,80,81,82,83,84,85,86,87,88,89,90,91,92,93,94,95,96,97,98,99,100,101,102,103,104,105,106,107,108,109,110,111,112,113,114,115,116,117,118,119,120,121,122,123,124,125,126,127,128,129,130,131,132,133,134,135,136,137,138,139,140,141,142,143,144,145,146,147,148,149,150,151,152,153,154,155,156,157,158,159,160,161,162,163,164,165,166,167,168,169,170,171,172,173,174,175,176,177,178,179,180,181,182,183,184,185,186,187,188,189,190,191,192,193,194,195,196,197,198,199,200,201,202,203,204,205,206,207,208,209,210,211,212,213,214,215,216,217,218,219,220,221,222,223,224,225,226,227,228,229,230,231,232,233,234,235,236,237,238,239,240,241,242,243,244,245,246,247,248,249,250,251,252,253,254,255,256,257,258,259,260,261,262,263,264,265,266,267,268,269,270,271,272,273,274,275,276,277,278,279,280,281,282,283,284,285,286,287,288,289,290,291,292,293,294,295,296,297,298,299,300],"tree_info":[0,0,0,0,0,0,0,0,0,0,0,0,0,0,0,0,0,0,0,0,0,0,0,0,0,0,0,0,0,0,0,0,0,0,0,0,0,0,0,0,0,0,0,0,0,0,0,0,0,0,0,0,0,0,0,0,0,0,0,0,0,0,0,0,0,0,0,0,0,0,0,0,0,0,0,0,0,0,0,0,0,0,0,0,0,0,0,0,0,0,0,0,0,0,0,0,0,0,0,0,0,0,0,0,0,0,0,0,0,0,0,0,0,0,0,0,0,0,0,0,0,0,0,0,0,0,0,0,0,0,0,0,0,0,0,0,0,0,0,0,0,0,0,0,0,0,0,0,0,0,0,0,0,0,0,0,0,0,0,0,0,0,0,0,0,0,0,0,0,0,0,0,0,0,0,0,0,0,0,0,0,0,0,0,0,0,0,0,0,0,0,0,0,0,0,0,0,0,0,0,0,0,0,0,0,0,0,0,0,0,0,0,0,0,0,0,0,0,0,0,0,0,0,0,0,0,0,0,0,0,0,0,0,0,0,0,0,0,0,0,0,0,0,0,0,0,0,0,0,0,0,0,0,0,0,0,0,0,0,0,0,0,0,0,0,0,0,0,0,0,0,0,0,0,0,0,0,0,0,0,0,0,0,0,0,0,0,0,0,0,0,0,0,0,0,0,0,0,0,0],"trees":[{"base_weights":[-2.2544097E-2,-9.6937513E-1,5.263073E-1,-1.0990767E0,1.1313479E0,-5.5122757E-1,8.1612E-1,-1.3812609E-1,-2.5661325E-2,-1.3868719E-2,1.4944935E-1,-1.4460799E-1,5.366807E-3,-2.2488154E-2,1.0648238E-1],"categories":[],"categories_nodes":[],"categories_segments":[],"categories_sizes":[],"default_left":[0,0,0,0,0,0,0,0,0,0,0,0,0,0,0],"id":0,"left_children":[1,3,5,7,9,11,13,-1,-1,-1,-1,-1,-1,-1,-1],"loss_changes":[1.3343454E2,2.6913788E1,5.1218334E1,2.0861275E1,2.9613414E0,1.9052263E1,3.351275E1,0E0,0E0,0E0,0E0,0E0,0E0,0E0,0E0],"parents":[2147483647,0,0,1,1,2,2,3,3,4,4,5,5,6,6],"right_children":[2,4,6,8,10,12,14,-1,-1,-1,-1,-1,-1,-1,-1],"split_conditions":[1E0,2E0,1E0,1E0,2E0,2E0,1E0,-1.3812609E-1,-2.5661325E-2,-1.3868719E-2,1.4944935E-1,-1.4460799E-1,5.366807E-3,-2.2488154E-2,1.0648238E-1],"split_indices":[66,15,14,24,41,23,1,0,0,0,0,0,0,0,0],"split_type":[0,0,0,0,0,0,0,0,0,0,0,0,0,0,0],"sum_hessian":[2.547863E2,9.32145E1,1.6157181E2,8.8243065E1,4.9714403E0,3.4054363E1,1.2751744E2,6.562301E1,2.2620052E1,1.2428601E0,3.72858E0,1.3174316E1,2.0880049E1,2.460863E1,1.0290881E2],"tree_param":{"num_deleted":"0","num_feature":"130","num_nodes":"15","size_leaf_vector":"1"}},{"base_weights":[-1.2191225E-2,-8.532814E-1,4.8594758E-1,-1.1855828E0,4.3006312E-2,-4.343082E-1,7.4156195E-1,-1.2559567E-1,6.1457187E-2,-6.241479E-2,7.29228E-2,-1.5289855E-1,1.6428871E-2,4.4883363E-2,1.3875353E-1],"categories":[],"categories_nodes":[],"categories_segments":[],"categories_sizes":[],"default_left":[0,0,0,0,0,0,0,0,0,0,0,0,0,0,0],"id":1,"left_children":[1,3,5,7,9,11,13,-1,-1,-1,-1,-1,-1,-1,-1],"loss_changes":[1.0465969E2,2.772277E1,3.7229275E1,9.3628845E0,1.2401593E1,2.301374E1,2.2666206E1,0E0,0E0,0E0,0E0,0E0,0E0,0E0,0E0],"parents":[2147483647,0,0,1,1,2,2,3,3,4,4,5,5,6,6],"right_children":[2,4,6,8,10,12,14,-1,-1,-1,-1,-1,-1,-1,-1],"split_conditions":[1E0,2E0,1E0,1E0,1E0,1E0,2E0,-1.2559567E-1,6.1457187E-2,-6.241479E-2,7.29228E-2,-1.5289855E-1,1.6428871E-2,4.4883363E-2,1.3875353E-1],"split_indices":[66,14,67,0,15,22,14,0,0,0,0,0,0,0,0],"split_type":[0,0,0,0,0,0,0,0,0,0,0,0,0,0,0],"sum_hessian":[2.4780693E2,9.1908936E1,1.55898E2,6.681448E1,2.5094448E1,3.3737633E1,1.2216036E2,6.459169E1,2.222794E0,1.2769866E1,1.2324583E1,1.137728E1,2.2360353E1,8.5231705E1,3.6928654E1],"tree_param":{"num_deleted":"0","num_feature":"130","num_nodes":"15","size_leaf_vector":"1"}},{"base_weights":[1.9183578E-2,-7.7167517E-1,4.6310753E-1,-1.1210469E0,1.7770827E-1,1.6413075E-1,1.2559345E0,-5.495553E-2,-1.5388499E-1,-1.015714E-1,6.7497455E-2,-5.4168113E-2,5.9662815E-2,5.1111843E-2,1.5251184E-1],"categories":[],"categories_nodes":[],"categories_segments":[],"categories_sizes":[],"default_left":[0,0,0,0,0,0,0,0,0,0,0,0,0,0,0],"id":2,"left_children":[1,3,5,7,9,11,13,-1,-1,-1,-1,-1,-1,-1,-1],"loss_changes":[8.871472E1,3.0334766E1,3.8150448E1,1.5044876E1,1.5702012E1,3.6544247E1,8.0744705E0,0E0,0E0,0E0,0E0,0E0,0E0,0E0,0E0],"parents":[2147483647,0,0,1,1,2,2,3,3,4,4,5,5,6,6],"right_children":[2,4,6,8,10,12,14,-1,-1,-1,-1,-1,-1,-1,-1],"split_conditions":[1E0,2E0,2E0,2E0,1E0,1E0,1E0,-5.495553E-2,-1.5388499E-1,-1.015714E-1,6.7497455E-2,-5.4168113E-2,5.9662815E-2,5.1111843E-2,1.5251184E-1],"split_indices":[66,14,14,93,35,76,20,0,0,0,0,0,0,0,0],"split_type":[0,0,0,0,0,0,0,0,0,0,0,0,0,0,0],"sum_hessian":[2.5067216E2,8.985518E1,1.6081697E2,6.5551506E1,2.4303677E1,1.17655754E2,4.3161224E1,2.8661804E1,3.68897E1,6.8415613E0,1.7462114E1,4.460705E1,7.30487E1,1.2227425E1,3.0933802E1],"tree_param":{"num_deleted":"0","num_feature":"130","num_nodes":"15","size_leaf_vector":"1"}},{"base_weights":[8.119595E-5,-7.13037E-1,4.076043E-1,-1.0315145E0,1.14379935E-1,-6.000265E-1,6.366424E-1,-1.2556016E-1,-1.1730267E-3,-3.3495013E-2,1.0896208E-1,-9.714833E-2,6.907527E-2,5.1601306E-3,9.696295E-2],"categories":[],"categories_nodes":[],"categories_segments":[],"categories_sizes":[],"default_left":[0,0,0,0,0,0,0,0,0,0,0,0,0,0,0],"id":3,"left_children":[1,3,5,7,9,11,13,-1,-1,-1,-1,-1,-1,-1,-1],"loss_changes":[7.449686E1,2.4682781E1,3.802879E1,1.5390152E1,1.2112717E1,1.5403377E1,2.5937374E1,0E0,0E0,0E0,0E0,0E0,0E0,0E0,0E0],"parents":[2147483647,0,0,1,1,2,2,3,3,4,4,5,5,6,6],"right_children":[2,4,6,8,10,12,14,-1,-1,-1,-1,-1,-1,-1,-1],"split_conditions":[1E0,2E0,1E0,2E0,1E0,2E0,1E0,-1.2556016E-1,-1.1730267E-3,-3.3495013E-2,1.0896208E-1,-9.714833E-2,6.907527E-2,5.1601306E-3,9.696295E-2],"split_indices":[66,14,7,80,24,32,22,0,0,0,0,0,0,0,0],"split_type":[0,0,0,0,0,0,0,0,0,0,0,0,0,0,0],"sum_hessian":[2.5434451E2,9.2220184E1,1.6212433E2,6.641139E1,2.580879E1,2.9726353E1,1.3239796E2,5.42576E1,1.2153795E1,1.811779E1,7.6909995E0,2.3275549E1,6.4508047E0,4.8442307E1,8.3955666E1],"tree_param":{"num_deleted":"0","num_feature":"130","num_nodes":"15","size_leaf_vector":"1"}},{"base_weights":[4.21101E-4,-6.3730663E-1,4.140918E-1,-1.004605E0,-7.940912E-2,9.528033E-2,1.1973029E0,-1.272553E-1,-4.277357E-2,-5.0213993E-2,7.514047E-2,-8.554448E-2,3.352367E-2,3.5958283E-2,1.3868277E-1],"categories":[],"categories_nodes":[],"categories_segments":[],"categories_sizes":[],"default_left":[0,0,0,0,0,0,0,0,0,0,0,0,0,0,0],"id":4,"left_children":[1,3,5,7,9,11,13,-1,-1,-1,-1,-1,-1,-1,-1],"loss_changes":[6.571637E1,2.000401E1,3.7613815E1,8.577679E0,1.44241495E1,2.5032335E1,6.427574E0,0E0,0E0,0E0,0E0,0E0,0E0,0E0,0E0],"parents":[2147483647,0,0,1,1,2,2,3,3,4,4,5,5,6,6],"right_children":[2,4,6,8,10,12,14,-1,-1,-1,-1,-1,-1,-1,-1],"split_conditions":[1E0,1E0,2E0,2E0,2E0,1E0,1E0,-1.272553E-1,-4.277357E-2,-5.0213993E-2,7.514047E-2,-8.554448E-2,3.352367E-2,3.5958283E-2,1.3868277E-1],"split_indices":[10,22,14,25,14,7,120,0,0,0,0,0,0,0,0],"split_type":[0,0,0,0,0,0,0,0,0,0,0,0,0,0,0],"sum_hessian":[2.4710527E2,9.701039E1,1.5009488E2,5.80149E1,3.8995487E1,1.0747009E2,4.2624786E1,3.8791027E1,1.9223877E1,2.61073E1,1.2888189E1,2.1141375E1,8.632872E1,8.398742E0,3.4226048E1],"tree_param":{"num_deleted":"0","num_feature":"130","num_nodes":"15","size_leaf_vector":"1"}},{"base_weights":[-3.426417E-3,-5.0666183E-1,4.2855513E-1,-7.812829E-1,3.3870018E-1,-2.4652575E-1,7.604899E-1,-9.649299E-2,1.8144056E-2,-5.1137842E-2,8.347766E-2,-7.705712E-2,2.8661449E-2,1.0910722E-2,9.725433E-2],"categories":[],"categories_nodes":[],"categories_segments":[],"categories_sizes":[],"default_left":[0,0,0,0,0,0,0,0,0,0,0,0,0,0,0],"id":5,"left_children":[1,3,5,7,9,11,13,-1,-1,-1,-1,-1,-1,-1,-1],"loss_changes":[5.517579E1,2.7480988E1,3.0792534E1,1.5873341E1,1.284332E1,1.300985E1,1.2574646E1,0E0,0E0,0E0,0E0,0E0,0E0,0E0,0E0],"parents":[2147483647,0,0,1,1,2,2,3,3,4,4,5,5,6,6],"right_children":[2,4,6,8,10,12,14,-1,-1,-1,-1,-1,-1,-1,-1],"split_conditions":[1E0,2E0,2E0,2E0,1E0,1E0,1E0,-9.649299E-2,1.8144056E-2,-5.1137842E-2,8.347766E-2,-7.705712E-2,2.8661449E-2,1.0910722E-2,9.725433E-2],"split_indices":[22,9,41,37,18,8,65,0,0,0,0,0,0,0,0],"split_type":[0,0,0,0,0,0,0,0,0,0,0,0,0,0,0],"sum_hessian":[2.518132E2,1.1623397E2,1.3557924E2,8.779048E1,2.8443483E1,4.4774742E1,9.080449E1,7.372465E1,1.406584E1,1.0470443E1,1.7973042E1,2.2355377E1,2.2419365E1,2.2672853E1,6.813164E1],"tree_param":{"num_deleted":"0","num_feature":"130","num_nodes":"15","size_leaf_vector":"1"}},{"base_weights":[2.2682065E-2,-1.5619048E-1,1.0767816E0,-9.2930686E-1,1.3931586E-1,7.072201E-1,1.4705926E0,-1.0874736E-1,4.8657943E-2,-5.1575817E-2,3.3999264E-2,-2.209435E-3,1.1011966E-1,1.6641203E-1,6.7976974E-2],"categories":[],"categories_nodes":[],"categories_segments":[],"categories_sizes":[],"default_left":[0,0,0,0,0,0,0,0,0,0,0,0,0,0,0],"id":6,"left_children":[1,3,5,7,9,11,13,-1,-1,-1,-1,-1,-1,-1,-1],"loss_changes":[4.6285473E1,4.810154E1,4.142605E0,1.3561924E1,2.0259987E1,5.856391E0,1.365448E0,0E0,0E0,0E0,0E0,0E0,0E0,0E0,0E0],"parents":[2147483647,0,0,1,1,2,2,3,3,4,4,5,5,6,6],"right_children":[2,4,6,8,10,12,14,-1,-1,-1,-1,-1,-1,-1,-1],"split_conditions":[2E0,1E0,1E0,1E0,1E0,1E0,1E0,-1.0874736E-1,4.8657943E-2,-5.1575817E-2,3.3999264E-2,-2.209435E-3,1.1011966E-1,1.6641203E-1,6.7976974E-2],"split_indices":[22,9,80,11,7,42,92,0,0,0,0,0,0,0,0],"split_type":[0,0,0,0,0,0,0,0,0,0,0,0,0,0,0],"sum_hessian":[2.4358984E2,2.0897948E2,3.4610374E1,5.7196014E1,1.5178346E2,1.9297232E1,1.5313144E1,5.1657383E1,5.5386286E0,3.52256E1,1.1655785E2,7.099264E0,1.2197967E1,1.1415333E1,3.8978112E0],"tree_param":{"num_deleted":"0","num_feature":"130","num_nodes":"15","size_leaf_vector":"1"}},{"base_weights":[7.3098685E-3,-5.1972955E-1,4.1725883E-1,-8.496609E-1,2.7081552E-1,1.518048E-1,1.0680454E0,-1.1157055E-1,-4.6567302E-2,-1.8688994E-2,9.512659E-2,-4.13512E-2,4.926237E-2,3.1791445E-2,1.3422623E-1],"categories":[],"categories_nodes":[],"categories_segments":[],"categories_sizes":[],"default_left":[0,0,0,0,0,0,0,0,0,0,0,0,0,0,0],"id":7,"left_children":[1,3,5,7,9,11,13,-1,-1,-1,-1,-1,-1,-1,-1],"loss_changes":[5.251676E1,2.7969435E1,2.3455175E1,7.1706543E0,1.01672E1,1.913715E1,7.686493E0,0E0,0E0,0E0,0E0,0E0,0E0,0E0,0E0],"parents":[2147483647,0,0,1,1,2,2,3,3,4,4,5,5,6,6],"right_children":[2,4,6,8,10,12,14,-1,-1,-1,-1,-1,-1,-1,-1],"split_conditions":[1E0,2E0,2E0,2E0,1E0,1E0,1E0,-1.1157055E-1,-4.6567302E-2,-1.8688994E-2,9.512659E-2,-4.13512E-2,4.926237E-2,3.1791445E-2,1.3422623E-1],"split_indices":[8,67,14,109,88,101,20,0,0,0,0,0,0,0,0],"split_type":[0,0,0,0,0,0,0,0,0,0,0,0,0,0,0],"sum_hessian":[2.4106276E2,1.0535204E2,1.3571071E2,7.427771E1,3.107433E1,9.726845E1,3.844226E1,4.2751747E1,3.1525967E1,1.9011543E1,1.2062785E1,3.650472E1,6.076373E1,1.086901E1,2.7573252E1],"tree_param":{"num_deleted":"0","num_feature":"130","num_nodes":"15","size_leaf_vector":"1"}},{"base_weights":[3.4378197E-2,-6.543698E-1,2.8311935E-1,-9.112082E-1,7.062721E-1,-4.4859916E-2,7.245372E-1,-1.08900845E-1,2.3294536E-3,-6.035256E-2,1.3924517E-1,-4.7442395E-2,2.8208567E-2,6.2464722E-3,8.7919794E-2],"categories":[],"categories_nodes":[],"categories_segments":[],"categories_sizes":[],"default_left":[0,0,0,0,0,0,0,0,0,0,0,0,0,0,0],"id":8,"left_children":[1,3,5,7,9,11,13,-1,-1,-1,-1,-1,-1,-1,-1],"loss_changes":[4.138471E1,2.3047245E1,2.5711983E1,9.058437E0,1.0495798E1,1.4558071E1,7.6933746E0,0E0,0E0,0E0,0E0,0E0,0E0,0E0,0E0],"parents":[2147483647,0,0,1,1,2,2,3,3,4,4,5,5,6,6],"right_children":[2,4,6,8,10,12,14,-1,-1,-1,-1,-1,-1,-1,-1],"split_conditions":[1E0,2E0,1E0,2E0,1E0,1E0,2E0,-1.08900845E-1,2.3294536E-3,-6.035256E-2,1.3924517E-1,-4.7442395E-2,2.8208567E-2,6.2464722E-3,8.7919794E-2],"split_indices":[9,101,6,107,20,8,16,0,0,0,0,0,0,0,0],"split_type":[0,0,0,0,0,0,0,0,0,0,0,0,0,0,0],"sum_hessian":[2.3948245E2,6.3108482E1,1.7637398E2,5.3365395E1,9.743088E0,1.0170454E2,7.466943E1,4.46961E1,8.669297E0,3.3909006E0,6.3521867E0,4.375935E1,5.7945187E1,1.4405632E1,6.0263805E1],"tree_param":{"num_deleted":"0","num_feature":"130","num_nodes":"15","size_leaf_vector":"1"}},{"base_weights":[-1.67597E-2,-4.881491E-1,3.4502238E-1,-7.3312753E-1,1.5291539E-1,-2.9156533E-1,5.5322784E-1,-1.2161525E-1,-4.125402E-2,-1.3767059E-2,1.2894784E-1,-5.2226998E-2,1.1642402E-1,-1.8132435E-2,7.184013E-2],"categories":[],"categories_nodes":[],"categories_segments":[],"categories_sizes":[],"default_left":[0,0,0,0,0,0,0,0,0,0,0,0,0,0,0],"id":9,"left_children":[1,3,5,7,9,11,13,-1,-1,-1,-1,-1,-1,-1,-1],"loss_changes":[3.9728806E1,1.5996025E1,1.763416E1,1.0856606E1,9.686483E0,1.1740257E1,1.2224834E1,0E0,0E0,0E0,0E0,0E0,0E0,0E0,0E0],"parents":[2147483647,0,0,1,1,2,2,3,3,4,4,5,5,6,6],"right_children":[2,4,6,8,10,12,14,-1,-1,-1,-1,-1,-1,-1,-1],"split_conditions":[1E0,2E0,2E0,1E0,2E0,2E0,1E0,-1.2161525E-1,-4.125402E-2,-1.3767059E-2,1.2894784E-1,-5.2226998E-2,1.1642402E-1,-1.8132435E-2,7.184013E-2],"split_indices":[8,67,16,121,101,34,14,0,0,0,0,0,0,0,0],"split_type":[0,0,0,0,0,0,0,0,0,0,0,0,0,0,0],"sum_hessian":[2.3097098E2,1.001412E2,1.3082977E2,7.234966E1,2.7791538E1,3.2145283E1,9.8684494E1,2.774823E1,4.460143E1,2.2832743E1,4.958795E0,2.8301527E1,3.8437543E0,1.8098753E1,8.058575E1],"tree_param":{"num_deleted":"0","num_feature":"130","num_nodes":"15","size_leaf_vector":"1"}},{"base_weights":[9.782073E-3,-5.4247653E-1,2.1914837E-1,-8.111499E-1,3.058702E-1,-7.8970414E-1,3.307637E-1,-1.2903266E-1,-4.3255497E-2,-1.01855956E-1,6.085509E-2,-1.19241394E-1,4.245293E-2,4.0418133E-2,-1.0917175E-1],"categories":[],"categories_nodes":[],"categories_segments":[],"categories_sizes":[],"default_left":[0,0,0,0,0,0,0,0,0,0,0,0,0,0,0],"id":10,"left_children":[1,3,5,7,9,11,13,-1,-1,-1,-1,-1,-1,-1,-1],"loss_changes":[2.7435215E1,1.5116247E1,1.9631134E1,8.479092E0,7.2007394E0,9.029625E0,1.6690128E1,0E0,0E0,0E0,0E0,0E0,0E0,0E0,0E0],"parents":[2147483647,0,0,1,1,2,2,3,3,4,4,5,5,6,6],"right_children":[2,4,6,8,10,12,14,-1,-1,-1,-1,-1,-1,-1,-1],"split_conditions":[1E0,1E0,1E0,1E0,1E0,2E0,2E0,-1.2903266E-1,-4.3255497E-2,-1.01855956E-1,6.085509E-2,-1.19241394E-1,4.245293E-2,4.0418133E-2,-1.0917175E-1],"split_indices":[12,31,41,18,14,33,104,0,0,0,0,0,0,0,0],"split_type":[0,0,0,0,0,0,0,0,0,0,0,0,0,0,0],"sum_hessian":[2.3525072E2,6.42317E1,1.7101903E2,4.8815548E1,1.5416147E1,1.6430866E1,1.5458817E2,2.0482826E1,2.8332724E1,2.4277956E0,1.2988352E1,1.2352151E1,4.0787153E0,1.4768181E2,6.906346E0],"tree_param":{"num_deleted":"0","num_feature":"130","num_nodes":"15","size_leaf_vector":"1"}},{"base_weights":[1.5081187E-3,-4.026893E-1,3.455713E-1,-6.8458396E-1,3.539988E-1,6.738664E-2,8.870793E-1,-1.0934075E-1,-1.8711837E-2,-3.553056E-2,6.906485E-2,-3.258203E-2,4.444922E-2,3.4704998E-2,1.10584356E-1],"categories":[],"categories_nodes":[],"categories_segments":[],"categories_sizes":[],"default_left":[0,0,0,0,0,0,0,0,0,0,0,0,0,0,0],"id":11,"left_children":[1,3,5,7,9,11,13,-1,-1,-1,-1,-1,-1,-1,-1],"loss_changes":[3.1473228E1,2.2439936E1,1.8355572E1,1.5284458E1,7.1474266E0,1.2280411E1,4.5078735E0,0E0,0E0,0E0,0E0,0E0,0E0,0E0,0E0],"parents":[2147483647,0,0,1,1,2,2,3,3,4,4,5,5,6,6],"right_children":[2,4,6,8,10,12,14,-1,-1,-1,-1,-1,-1,-1,-1],"split_conditions":[1E0,2E0,2E0,2E0,2E0,1E0,1E0,-1.0934075E-1,-1.8711837E-2,-3.553056E-2,6.906485E-2,-3.258203E-2,4.444922E-2,3.4704998E-2,1.10584356E-1],"split_indices":[22,9,39,26,23,6,20,0,0,0,0,0,0,0,0],"split_type":[0,0,0,0,0,0,0,0,0,0,0,0,0,0,0],"sum_hessian":[2.2431238E2,1.0306437E2,1.2124802E2,7.515981E1,2.7904556E1,8.084209E1,4.040593E1,4.0597946E1,3.4561867E1,8.963493E0,1.8941063E1,3.9642723E1,4.1199364E1,1.2394922E1,2.8011007E1],"tree_param":{"num_deleted":"0","num_feature":"130","num_nodes":"15","size_leaf_vector":"1"}},{"base_weights":[-3.2480806E-2,-1.9876961E-1,6.8687475E-1,-9.754263E-1,8.689185E-3,-4.1187363E-4,1.0215968E0,-1.2319092E-1,1.6546113E-2,-3.4297567E-2,4.0351626E-2,-8.68568E-2,7.7071E-2,-6.761959E-2,1.1480736E-1],"categories":[],"categories_nodes":[],"categories_segments":[],"categories_sizes":[],"default_left":[0,0,0,0,0,0,0,0,0,0,0,0,0,0,0],"id":12,"left_children":[1,3,5,7,9,11,13,-1,-1,-1,-1,-1,-1,-1,-1],"loss_changes":[2.7836903E1,3.0439129E1,1.0054464E1,1.1856716E1,2.0971193E1,1.0920888E1,7.0874004E0,0E0,0E0,0E0,0E0,0E0,0E0,0E0,0E0],"parents":[2147483647,0,0,1,1,2,2,3,3,4,4,5,5,6,6],"right_children":[2,4,6,8,10,12,14,-1,-1,-1,-1,-1,-1,-1,-1],"split_conditions":[2E0,1E0,1E0,2E0,1E0,1E0,1E0,-1.2319092E-1,1.6546113E-2,-3.4297567E-2,4.0351626E-2,-8.68568E-2,7.7071E-2,-6.761959E-2,1.1480736E-1],"split_indices":[32,7,8,18,6,18,16,0,0,0,0,0,0,0,0],"split_type":[0,0,0,0,0,0,0,0,0,0,0,0,0,0,0],"sum_hessian":[2.3056822E2,1.8786447E2,4.2703743E1,3.8822853E1,1.4904163E2,1.4313181E1,2.8390562E1,3.1631905E1,7.1909485E0,7.889907E1,7.0142555E1,6.673525E0,7.6396565E0,1.6669832E0,2.6723577E1],"tree_param":{"num_deleted":"0","num_feature":"130","num_nodes":"15","size_leaf_vector":"1"}},{"base_weights":[2.5540782E-2,-1.8014991E-1,6.20149E-1,-4.146752E-1,3.4805557E-1,-1.8508366E-1,8.4681547E-1,-9.097984E-2,-1.4874359E-2,1.7179629E-2,1.1311629E-1,-5.4159053E-2,1.0140147E-1,-7.9250935E-4,9.92152E-2],"categories":[],"categories_nodes":[],"categories_segments":[],"categories_sizes":[],"default_left":[0,0,0,0,0,0,0,0,0,0,0,0,0,0,0],"id":13,"left_children":[1,3,5,7,9,11,13,-1,-1,-1,-1,-1,-1,-1,-1],"loss_changes":[2.7480383E1,2.0836151E1,1.0695152E1,1.5155497E1,6.9699235E0,6.3217454E0,5.6272087E0,0E0,0E0,0E0,0E0,0E0,0E0,0E0,0E0],"parents":[2147483647,0,0,1,1,2,2,3,3,4,4,5,5,6,6],"right_children":[2,4,6,8,10,12,14,-1,-1,-1,-1,-1,-1,-1,-1],"split_conditions":[2E0,2E0,1E0,2E0,2E0,2E0,1E0,-9.097984E-2,-1.4874359E-2,1.7179629E-2,1.1311629E-1,-5.4159053E-2,1.0140147E-1,-7.9250935E-4,9.92152E-2],"split_indices":[66,67,1,16,101,42,39,0,0,0,0,0,0,0,0],"split_type":[0,0,0,0,0,0,0,0,0,0,0,0,0,0,0],"sum_hessian":[2.2277318E2,1.6603448E2,5.673869E1,1.15130875E2,5.0903618E1,1.2503491E1,4.42352E1,3.9383595E1,7.574728E1,4.254672E1,8.356901E0,1.0060665E1,2.4428258E0,6.565895E0,3.7669304E1],"tree_param":{"num_deleted":"0","num_feature":"130","num_nodes":"15","size_leaf_vector":"1"}},{"base_weights":[-2.6698593E-2,-5.545339E-1,1.6336271E-1,-7.816679E-1,5.0986636E-1,-4.0839776E-1,3.9432347E-1,-9.110454E-2,3.0624134E-2,-5.2674677E-2,9.81878E-2,-6.572746E-2,4.579824E-2,-2.0582488E-2,5.6789994E-2],"categories":[],"categories_nodes":[],"categories_segments":[],"categories_sizes":[],"default_left":[0,0,0,0,0,0,0,0,0,0,0,0,0,0,0],"id":14,"left_children":[1,3,5,7,9,11,13,-1,-1,-1,-1,-1,-1,-1,-1],"loss_changes":[2.207866E1,1.44821415E1,2.1543644E1,7.0919228E0,5.826038E0,1.0452509E1,1.2184423E1,0E0,0E0,0E0,0E0,0E0,0E0,0E0,0E0],"parents":[2147483647,0,0,1,1,2,2,3,3,4,4,5,5,6,6],"right_children":[2,4,6,8,10,12,14,-1,-1,-1,-1,-1,-1,-1,-1],"split_conditions":[1E0,2E0,2E0,1E0,1E0,2E0,1E0,-9.110454E-2,3.0624134E-2,-5.2674677E-2,9.81878E-2,-6.572746E-2,4.579824E-2,-2.0582488E-2,5.6789994E-2],"split_indices":[9,101,16,11,20,107,12,0,0,0,0,0,0,0,0],"split_type":[0,0,0,0,0,0,0,0,0,0,0,0,0,0,0],"sum_hessian":[2.1817697E2,5.7254105E1,1.6092287E2,4.74041E1,9.850006E0,4.6080048E1,1.1484282E2,4.2511116E1,4.8929796E0,3.0455437E0,6.8044624E0,3.5984486E1,1.0095564E1,2.5722015E1,8.9120804E1],"tree_param":{"num_deleted":"0","num_feature":"130","num_nodes":"15","size_leaf_vector":"1"}},{"base_weights":[5.669968E-3,-3.881584E-1,3.278324E-1,-6.861576E-1,2.3144862E-1,-1.0098798E-1,5.404436E-1,-1.0999768E-1,-3.3915173E-2,-8.444353E-2,4.8723616E-2,-8.979109E-2,2.2094464E-2,-2.8954795E-2,6.764309E-2],"categories":[],"categories_nodes":[],"categories_segments":[],"categories_sizes":[],"default_left":[0,0,0,0,0,0,0,0,0,0,0,0,0,0,0],"id":15,"left_children":[1,3,5,7,9,11,13,-1,-1,-1,-1,-1,-1,-1,-1],"loss_changes":[2.798011E1,1.8481754E1,1.1113033E1,9.285294E0,9.486073E0,1.07290945E1,9.365925E0,0E0,0E0,0E0,0E0,0E0,0E0,0E0,0E0],"parents":[2147483647,0,0,1,1,2,2,3,3,4,4,5,5,6,6],"right_children":[2,4,6,8,10,12,14,-1,-1,-1,-1,-1,-1,-1,-1],"split_conditions":[1E0,2E0,1E0,1E0,1E0,1E0,1E0,-1.0999768E-1,-3.3915173E-2,-8.444353E-2,4.8723616E-2,-8.979109E-2,2.2094464E-2,-2.8954795E-2,6.764309E-2],"split_indices":[101,25,20,10,9,9,7,0,0,0,0,0,0,0,0],"split_type":[0,0,0,0,0,0,0,0,0,0,0,0,0,0,0],"sum_hessian":[2.1852696E2,9.823476E1,1.2029221E2,6.625979E1,3.1974964E1,4.004651E1,8.0245705E1,2.9230852E1,3.702894E1,5.699716E0,2.6275248E1,1.1007943E1,2.9038563E1,1.1137754E1,6.910795E1],"tree_param":{"num_deleted":"0","num_feature":"130","num_nodes":"15","size_leaf_vector":"1"}},{"base_weights":[5.7819612E-2,-7.689159E-2,7.863832E-1,-3.355599E-1,2.6190278E-1,1.7563574E-1,1.0423567E0,-5.9116263E-2,1.9750832E-2,-4.033373E-2,5.8016073E-2,-9.285526E-2,8.604255E-2,1.1131754E-1,-1.7752029E-2],"categories":[],"categories_nodes":[],"categories_segments":[],"categories_sizes":[],"default_left":[0,0,0,0,0,0,0,0,0,0,0,0,0,0,0],"id":16,"left_children":[1,3,5,7,9,11,13,-1,-1,-1,-1,-1,-1,-1,-1],"loss_changes":[2.1333138E1,1.6198273E1,5.118494E0,1.4380149E1,1.7203562E1,9.281242E0,2.244505E0,0E0,0E0,0E0,0E0,0E0,0E0,0E0,0E0],"parents":[2147483647,0,0,1,1,2,2,3,3,4,4,5,5,6,6],"right_children":[2,4,6,8,10,12,14,-1,-1,-1,-1,-1,-1,-1,-1],"split_conditions":[2E0,1E0,1E0,2E0,1E0,1E0,2E0,-5.9116263E-2,1.9750832E-2,-4.033373E-2,5.8016073E-2,-9.285526E-2,8.604255E-2,1.1131754E-1,-1.7752029E-2],"split_indices":[10,6,29,25,20,5,75,0,0,0,0,0,0,0,0],"split_type":[0,0,0,0,0,0,0,0,0,0,0,0,0,0,0],"sum_hessian":[2.1574588E2,1.8283434E2,3.2911556E1,1.0368259E2,7.915174E1,1.0217932E1,2.2693624E1,7.000613E1,3.367646E1,2.5526836E1,5.362491E1,3.7749891E0,6.442943E0,2.1531128E1,1.1624972E0],"tree_param":{"num_deleted":"0","num_feature":"130","num_nodes":"15","size_leaf_vector":"1"}},{"base_weights":[-4.9158547E-2,-6.9579214E-1,1.2601404E-1,-1.0494179E0,-1.8651323E-1,-4.0690103E-1,3.1009722E-1,-1.1712607E-1,1.1022962E-2,-1.2009918E-1,2.5001887E-2,-1.2676837E-1,-2.0789556E-2,-2.0378133E-2,5.2360423E-2],"categories":[],"categories_nodes":[],"categories_segments":[],"categories_sizes":[],"default_left":[0,0,0,0,0,0,0,0,0,0,0,0,0,0,0],"id":17,"left_children":[1,3,5,7,9,11,13,-1,-1,-1,-1,-1,-1,-1,-1],"loss_changes":[2.4149836E1,7.986553E0,1.6606491E1,3.8873024E0,9.084309E0,7.1988974E0,1.38685E1,0E0,0E0,0E0,0E0,0E0,0E0,0E0,0E0],"parents":[2147483647,0,0,1,1,2,2,3,3,4,4,5,5,6,6],"right_children":[2,4,6,8,10,12,14,-1,-1,-1,-1,-1,-1,-1,-1],"split_conditions":[1E0,1E0,1E0,2E0,1E0,1E0,2E0,-1.1712607E-1,1.1022962E-2,-1.2009918E-1,2.5001887E-2,-1.2676837E-1,-2.0789556E-2,-2.0378133E-2,5.2360423E-2],"split_indices":[14,6,29,36,10,65,16,0,0,0,0,0,0,0,0],"split_type":[0,0,0,0,0,0,0,0,0,0,0,0,0,0,0],"sum_hessian":[2.1142722E2,4.4433384E1,1.6699382E2,2.559825E1,1.8835136E1,4.2563473E1,1.2443035E2,2.315533E1,2.4429188E0,5.139647E0,1.369549E1,6.984119E0,3.5579353E1,3.653699E1,8.7893364E1],"tree_param":{"num_deleted":"0","num_feature":"130","num_nodes":"15","size_leaf_vector":"1"}},{"base_weights":[1.7272821E-3,-6.474747E-1,1.7465612E-1,-7.756141E-1,3.10849E-1,7.285612E-3,9.5044565E-1,-1.18969716E-1,-3.564942E-2,-8.35432E-2,8.2322665E-2,-2.2590125E-2,6.445455E-2,5.378613E-2,1.2918238E-1],"categories":[],"categories_nodes":[],"categories_segments":[],"categories_sizes":[],"default_left":[0,0,0,0,0,0,0,0,0,0,0,0,0,0,0],"id":18,"left_children":[1,3,5,7,9,11,13,-1,-1,-1,-1,-1,-1,-1,-1],"loss_changes":[2.441905E1,5.85944E0,2.2294027E1,6.6293793E0,4.276328E0,2.1288599E1,3.5969067E0,0E0,0E0,0E0,0E0,0E0,0E0,0E0,0E0],"parents":[2147483647,0,0,1,1,2,2,3,3,4,4,5,5,6,6],"right_children":[2,4,6,8,10,12,14,-1,-1,-1,-1,-1,-1,-1,-1],"split_conditions":[1E0,1E0,2E0,2E0,1E0,2E0,1E0,-1.18969716E-1,-3.564942E-2,-8.35432E-2,8.2322665E-2,-2.2590125E-2,6.445455E-2,5.378613E-2,1.2918238E-1],"split_indices":[14,11,18,109,15,39,10,0,0,0,0,0,0,0,0],"split_type":[0,0,0,0,0,0,0,0,0,0,0,0,0,0,0],"sum_hessian":[2.1550385E2,4.4752346E1,1.707515E2,3.9642345E1,5.1099997E0,1.4128069E2,2.9470808E1,1.9016155E1,2.0626188E1,1.3837659E0,3.726234E0,1.0390511E2,3.7375572E1,1.4509909E1,1.4960899E1],"tree_param":{"num_deleted":"0","num_feature":"130","num_nodes":"15","size_leaf_vector":"1"}},{"base_weights":[8.154464E-3,-3.3715007E-1,2.5830546E-1,-1.0195045E0,-1.0902938E-1,8.726557E-2,9.383619E-1,-1.22674726E-1,-2.582082E-3,-8.336716E-2,1.8654643E-2,-1.1387431E-2,6.4141914E-2,3.1511072E-2,1.160658E-1],"categories":[],"categories_nodes":[],"categories_segments":[],"categories_sizes":[],"default_left":[0,0,0,0,0,0,0,0,0,0,0,0,0,0,0],"id":19,"left_children":[1,3,5,7,9,11,13,-1,-1,-1,-1,-1,-1,-1,-1],"loss_changes":[1.842362E1,1.3837993E1,1.4302819E1,4.567444E0,1.4780275E1,1.1210135E1,3.0633354E0,0E0,0E0,0E0,0E0,0E0,0E0,0E0,0E0],"parents":[2147483647,0,0,1,1,2,2,3,3,4,4,5,5,6,6],"right_children":[2,4,6,8,10,12,14,-1,-1,-1,-1,-1,-1,-1,-1],"split_conditions":[1E0,1E0,2E0,2E0,1E0,2E0,1E0,-1.22674726E-1,-2.582082E-3,-8.336716E-2,1.8654643E-2,-1.1387431E-2,6.4141914E-2,3.1511072E-2,1.160658E-1],"split_indices":[8,65,107,80,35,14,14,0,0,0,0,0,0,0,0],"split_type":[0,0,0,0,0,0,0,0,0,0,0,0,0,0,0],"sum_hessian":[2.1128177E2,8.861341E1,1.2266836E2,2.1333002E1,6.728041E1,9.891798E1,2.375038E1,1.7457518E1,3.875485E0,1.8964931E1,4.831548E1,7.3158356E1,2.5759619E1,6.879598E0,1.6870783E1],"tree_param":{"num_deleted":"0","num_feature":"130","num_nodes":"15","size_leaf_vector":"1"}},{"base_weights":[4.047029E-2,-8.9272425E-2,8.387189E-1,-2.9011166E-1,3.111217E-1,3.8112918E-1,1.2858495E0,-4.567508E-2,4.306198E-2,-8.666852E-3,8.870735E-2,-6.015054E-2,7.247005E-2,5.1620968E-2,1.391209E-1],"categories":[],"categories_nodes":[],"categories_segments":[],"categories_sizes":[],"default_left":[0,0,0,0,0,0,0,0,0,0,0,0,0,0,0],"id":20,"left_children":[1,3,5,7,9,11,13,-1,-1,-1,-1,-1,-1,-1,-1],"loss_changes":[2.2455742E1,1.5111049E1,5.7112694E0,1.51988735E1,1.4483024E1,5.9728723E0,4.9076462E-1,0E0,0E0,0E0,0E0,0E0,0E0,0E0,0E0],"parents":[2147483647,0,0,1,1,2,2,3,3,4,4,5,5,6,6],"right_children":[2,4,6,8,10,12,14,-1,-1,-1,-1,-1,-1,-1,-1],"split_conditions":[2E0,2E0,1E0,2E0,1E0,1E0,1E0,-4.567508E-2,4.306198E-2,-8.666852E-3,8.870735E-2,-6.015054E-2,7.247005E-2,5.1620968E-2,1.391209E-1],"split_indices":[22,1,80,121,13,32,29,0,0,0,0,0,0,0,0],"split_type":[0,0,0,0,0,0,0,0,0,0,0,0,0,0,0],"sum_hessian":[2.151005E2,1.8579123E2,2.9309269E1,1.2391195E2,6.1879276E1,1.5400704E1,1.3908564E1,1.0094003E2,2.2971914E1,3.7103012E1,2.4776262E1,3.795267E0,1.1605437E1,2.3851097E0,1.1523454E1],"tree_param":{"num_deleted":"0","num_feature":"130","num_nodes":"15","size_leaf_vector":"1"}},{"base_weights":[6.727771E-3,-2.9977417E-1,2.474913E-1,-5.4339045E-1,2.630075E-1,-2.2528827E-2,5.362699E-1,-7.418864E-2,3.586098E-2,-9.880515E-2,5.4795135E-2,-2.595887E-2,8.7901495E-2,2.4574185E-2,9.655818E-2],"categories":[],"categories_nodes":[],"categories_segments":[],"categories_sizes":[],"default_left":[0,0,0,0,0,0,0,0,0,0,0,0,0,0,0],"id":21,"left_children":[1,3,5,7,9,11,13,-1,-1,-1,-1,-1,-1,-1,-1],"loss_changes":[1.57405815E1,1.3010046E1,9.326107E0,1.2051374E1,1.0888784E1,1.3625896E1,6.9668446E0,0E0,0E0,0E0,0E0,0E0,0E0,0E0,0E0],"parents":[2147483647,0,0,1,1,2,2,3,3,4,4,5,5,6,6],"right_children":[2,4,6,8,10,12,14,-1,-1,-1,-1,-1,-1,-1,-1],"split_conditions":[1E0,2E0,1E0,2E0,1E0,2E0,1E0,-7.418864E-2,3.586098E-2,-9.880515E-2,5.4795135E-2,-2.595887E-2,8.7901495E-2,2.4574185E-2,9.655818E-2],"split_indices":[22,9,18,37,1,10,13,0,0,0,0,0,0,0,0],"split_type":[0,0,0,0,0,0,0,0,0,0,0,0,0,0,0],"sum_hessian":[2.1129756E2,9.285025E1,1.184473E2,6.482384E1,2.8026411E1,6.1688213E1,5.6759094E1,5.3277084E1,1.1546752E1,4.741427E0,2.3284985E1,4.9408398E1,1.2279818E1,3.4788857E1,2.1970236E1],"tree_param":{"num_deleted":"0","num_feature":"130","num_nodes":"15","size_leaf_vector":"1"}},{"base_weights":[-8.816113E-3,-2.2585578E-1,2.6238853E-1,-3.8195318E-1,6.1778736E-1,-3.2973474E-1,5.239487E-1,-1.097097E-1,-2.1620134E-2,1.0291773E-1,-1.8436654E-2,-6.129376E-2,7.343071E-2,-8.832977E-3,7.752954E-2],"categories":[],"categories_nodes":[],"categories_segments":[],"categories_sizes":[],"default_left":[0,0,0,0,0,0,0,0,0,0,0,0,0,0,0],"id":22,"left_children":[1,3,5,7,9,11,13,-1,-1,-1,-1,-1,-1,-1,-1],"loss_changes":[1.2079016E1,1.5244093E1,1.4303104E1,1.1235806E1,6.1878996E0,9.058673E0,9.866743E0,0E0,0E0,0E0,0E0,0E0,0E0,0E0,0E0],"parents":[2147483647,0,0,1,1,2,2,3,3,4,4,5,5,6,6],"right_children":[2,4,6,8,10,12,14,-1,-1,-1,-1,-1,-1,-1,-1],"split_conditions":[1E0,2E0,1E0,1E0,2E0,2E0,1E0,-1.097097E-1,-2.1620134E-2,1.0291773E-1,-1.8436654E-2,-6.129376E-2,7.343071E-2,-8.832977E-3,7.752954E-2],"split_indices":[6,10,20,40,108,38,10,0,0,0,0,0,0,0,0],"split_type":[0,0,0,0,0,0,0,0,0,0,0,0,0,0,0],"sum_hessian":[2.0320169E2,1.1296515E2,9.023654E1,9.578882E1,1.7176332E1,2.7567728E1,6.2668816E1,1.6966627E1,7.882219E1,1.1166501E1,6.0098314E0,2.210758E1,5.4601474E0,1.8427689E1,4.4241123E1],"tree_param":{"num_deleted":"0","num_feature":"130","num_nodes":"15","size_leaf_vector":"1"}},{"base_weights":[-2.6588116E-2,-2.074545E-1,4.0674704E-1,-4.7746927E-1,1.6463204E-1,9.696553E-3,6.886844E-1,-6.3833855E-2,3.875684E-2,-2.9679824E-2,5.1089216E-2,-8.285533E-2,3.7122082E-2,7.876006E-2,-1.1040736E-2],"categories":[],"categories_nodes":[],"categories_segments":[],"categories_sizes":[],"default_left":[0,0,0,0,0,0,0,0,0,0,0,0,0,0,0],"id":23,"left_children":[1,3,5,7,9,11,13,-1,-1,-1,-1,-1,-1,-1,-1],"loss_changes":[1.6390234E1,1.4892226E1,6.889284E0,1.2172981E1,1.0176987E1,8.36667E0,2.933199E0,0E0,0E0,0E0,0E0,0E0,0E0,0E0,0E0],"parents":[2147483647,0,0,1,1,2,2,3,3,4,4,5,5,6,6],"right_children":[2,4,6,8,10,12,14,-1,-1,-1,-1,-1,-1,-1,-1],"split_conditions":[2E0,2E0,1E0,2E0,1E0,2E0,1E0,-6.3833855E-2,3.875684E-2,-2.9679824E-2,5.1089216E-2,-8.285533E-2,3.7122082E-2,7.876006E-2,-1.1040736E-2],"split_indices":[14,26,107,80,38,62,57,0,0,0,0,0,0,0,0],"split_type":[0,0,0,0,0,0,0,0,0,0,0,0,0,0,0],"sum_hessian":[2.0704712E2,1.4644489E2,6.0602234E1,8.469814E1,6.1746746E1,2.5593489E1,3.5008743E1,7.163786E1,1.3060281E1,2.6532316E1,3.5214428E1,7.322743E0,1.8270744E1,3.1165304E1,3.8434393E0],"tree_param":{"num_deleted":"0","num_feature":"130","num_nodes":"15","size_leaf_vector":"1"}},{"base_weights":[-3.27477E-2,-5.7707953E-1,1.1641933E-1,-1.0718406E0,-2.3127578E-1,-5.3616734E-3,7.5685984E-1,4.7849034E-4,-1.2346678E-1,-9.911964E-2,2.388327E-3,-4.2308446E-2,2.4361825E-2,-5.14825E-2,9.581103E-2],"categories":[],"categories_nodes":[],"categories_segments":[],"categories_sizes":[],"default_left":[0,0,0,0,0,0,0,0,0,0,0,0,0,0,0],"id":24,"left_children":[1,3,5,7,9,11,13,-1,-1,-1,-1,-1,-1,-1,-1],"loss_changes":[1.6414013E1,7.1896524E0,1.239357E1,3.0927963E0,5.2323647E0,1.4088149E1,6.990527E0,0E0,0E0,0E0,0E0,0E0,0E0,0E0,0E0],"parents":[2147483647,0,0,1,1,2,2,3,3,4,4,5,5,6,6],"right_children":[2,4,6,8,10,12,14,-1,-1,-1,-1,-1,-1,-1,-1],"split_conditions":[1E0,1E0,2E0,1E0,1E0,1E0,1E0,4.7849034E-4,-1.2346678E-1,-9.911964E-2,2.388327E-3,-4.2308446E-2,2.4361825E-2,-5.14825E-2,9.581103E-2],"split_indices":[67,126,38,117,7,10,1,0,0,0,0,0,0,0,0],"split_type":[0,0,0,0,0,0,0,0,0,0,0,0,0,0,0],"sum_hessian":[2.0032463E2,4.247147E1,1.5785316E2,1.6608782E1,2.586269E1,1.3346597E2,2.4387186E1,2.3094091E0,1.4299373E1,5.775963E0,2.0086727E1,4.958168E1,8.388429E1,3.1191845E0,2.1268002E1],"tree_param":{"num_deleted":"0","num_feature":"130","num_nodes":"15","size_leaf_vector":"1"}},{"base_weights":[6.4357105E-3,-3.7922058E-1,1.556349E-1,-5.352804E-1,3.626084E-1,-6.630613E-1,2.4719468E-1,-9.818704E-2,-1.8238984E-2,-3.9440554E-2,8.5306235E-2,-1.0997307E-1,6.727228E-2,-1.6042681E-2,4.9020253E-2],"categories":[],"categories_nodes":[],"categories_segments":[],"categories_sizes":[],"default_left":[0,0,0,0,0,0,0,0,0,0,0,0,0,0,0],"id":25,"left_children":[1,3,5,7,9,11,13,-1,-1,-1,-1,-1,-1,-1,-1],"loss_changes":[1.1899985E1,6.8735514E0,1.133979E1,7.396922E0,4.280997E0,9.645734E0,1.3433641E1,0E0,0E0,0E0,0E0,0E0,0E0,0E0,0E0],"parents":[2147483647,0,0,1,1,2,2,3,3,4,4,5,5,6,6],"right_children":[2,4,6,8,10,12,14,-1,-1,-1,-1,-1,-1,-1,-1],"split_conditions":[1E0,2E0,1E0,2E0,2E0,2E0,1E0,-9.818704E-2,-1.8238984E-2,-3.9440554E-2,8.5306235E-2,-1.0997307E-1,6.727228E-2,-1.6042681E-2,4.9020253E-2],"split_indices":[12,38,41,23,42,33,25,0,0,0,0,0,0,0,0],"split_type":[0,0,0,0,0,0,0,0,0,0,0,0,0,0,0],"sum_hessian":[2.0478809E2,5.6696053E1,1.4809204E2,4.707189E1,9.624163E0,1.4268265E1,1.3382378E2,1.9990788E1,2.7081104E1,3.860826E0,5.763336E0,1.0886251E1,3.3820133E0,5.010965E1,8.371412E1],"tree_param":{"num_deleted":"0","num_feature":"130","num_nodes":"15","size_leaf_vector":"1"}},{"base_weights":[1.001939E-2,-4.824775E-1,1.5547317E-1,-7.622141E-1,6.854633E-2,8.745957E-2,1.1830125E0,-9.157162E-2,3.6010828E-2,-7.4571975E-2,4.6648767E-2,-7.3549375E-3,5.7038575E-2,4.691225E-2,1.4576688E-1],"categories":[],"categories_nodes":[],"categories_segments":[],"categories_sizes":[],"default_left":[0,0,0,0,0,0,0,0,0,0,0,0,0,0,0],"id":26,"left_children":[1,3,5,7,9,11,13,-1,-1,-1,-1,-1,-1,-1,-1],"loss_changes":[1.4105744E1,6.9733143E0,1.0516649E1,5.4747124E0,5.544218E0,1.1208238E1,1.1502943E0,0E0,0E0,0E0,0E0,0E0,0E0,0E0,0E0],"parents":[2147483647,0,0,1,1,2,2,3,3,4,4,5,5,6,6],"right_children":[2,4,6,8,10,12,14,-1,-1,-1,-1,-1,-1,-1,-1],"split_conditions":[1E0,2E0,2E0,1E0,1E0,2E0,1E0,-9.157162E-2,3.6010828E-2,-7.4571975E-2,4.6648767E-2,-7.3549375E-3,5.7038575E-2,4.691225E-2,1.4576688E-1],"split_indices":[9,7,34,11,22,39,18,0,0,0,0,0,0,0,0],"split_type":[0,0,0,0,0,0,0,0,0,0,0,0,0,0,0],"sum_hessian":[1.9486273E2,4.3900726E1,1.50962E2,2.8864105E1,1.5036623E1,1.426078E2,8.354202E0,2.5553228E1,3.3108754E0,4.6493E0,1.0387323E1,1.0758602E2,3.5021782E1,3.073516E0,5.2806864E0],"tree_param":{"num_deleted":"0","num_feature":"130","num_nodes":"15","size_leaf_vector":"1"}},{"base_weights":[-6.241955E-2,-1.630804E-1,5.394389E-1,-6.1234885E-1,-3.0638695E-2,-2.5460446E-1,7.1325195E-1,-7.678372E-2,3.9093193E-2,-1.5409182E-2,5.2598465E-2,-8.5560545E-2,6.5854885E-2,8.163441E-2,-1.3708598E-2],"categories":[],"categories_nodes":[],"categories_segments":[],"categories_sizes":[],"default_left":[0,0,0,0,0,0,0,0,0,0,0,0,0,0,0],"id":27,"left_children":[1,3,5,7,9,11,13,-1,-1,-1,-1,-1,-1,-1,-1],"loss_changes":[1.2033046E1,1.0077729E1,4.1127214E0,6.318637E0,9.158778E0,3.7751408E0,2.1834936E0,0E0,0E0,0E0,0E0,0E0,0E0,0E0,0E0],"parents":[2147483647,0,0,1,1,2,2,3,3,4,4,5,5,6,6],"right_children":[2,4,6,8,10,12,14,-1,-1,-1,-1,-1,-1,-1,-1],"split_conditions":[2E0,1E0,1E0,1E0,2E0,2E0,1E0,-7.678372E-2,3.9093193E-2,-1.5409182E-2,5.2598465E-2,-8.5560545E-2,6.5854885E-2,8.163441E-2,-1.3708598E-2],"split_indices":[101,65,1,11,32,7,83,0,0,0,0,0,0,0,0],"split_type":[0,0,0,0,0,0,0,0,0,0,0,0,0,0,0],"sum_hessian":[1.9616687E2,1.6868358E2,2.7483294E1,3.7580284E1,1.3110329E2,4.852128E0,2.2631166E1,3.2740795E1,4.8394904E0,1.07896225E2,2.3207067E1,2.9642189E0,1.887909E0,2.0219765E1,2.4114006E0],"tree_param":{"num_deleted":"0","num_feature":"130","num_nodes":"15","size_leaf_vector":"1"}},{"base_weights":[6.1457094E-2,-1.6576503E-1,3.5330918E-1,-3.2282817E-1,5.097014E-1,-4.250112E-1,5.329995E-1,-6.777764E-2,-2.6860123E-3,-1.925808E-2,8.578837E-2,-5.901851E-2,5.5336673E-2,3.5906978E-2,1.2705831E-1],"categories":[],"categories_nodes":[],"categories_segments":[],"categories_sizes":[],"default_left":[0,0,0,0,0,0,0,0,0,0,0,0,0,0,0],"id":28,"left_children":[1,3,5,7,9,11,13,-1,-1,-1,-1,-1,-1,-1,-1],"loss_changes":[1.3168858E1,1.2029377E1,1.2374478E1,9.578406E0,5.419159E0,3.0493248E0,8.653694E0,0E0,0E0,0E0,0E0,0E0,0E0,0E0,0E0],"parents":[2147483647,0,0,1,1,2,2,3,3,4,4,5,5,6,6],"right_children":[2,4,6,8,10,12,14,-1,-1,-1,-1,-1,-1,-1,-1],"split_conditions":[1E0,2E0,1E0,1E0,1E0,1E0,2E0,-6.777764E-2,-2.6860123E-3,-1.925808E-2,8.578837E-2,-5.901851E-2,5.5336673E-2,3.5906978E-2,1.2705831E-1],"split_indices":[6,80,12,15,35,83,38,0,0,0,0,0,0,0,0],"split_type":[0,0,0,0,0,0,0,0,0,0,0,0,0,0,0],"sum_hessian":[1.9669647E2,1.1083649E2,8.5859985E1,9.03499E1,2.0486584E1,1.58483515E1,7.0011635E1,4.049503E1,4.985487E1,6.9385185E0,1.3548066E1,1.3898687E1,1.9496639E0,5.7855526E1,1.2156107E1],"tree_param":{"num_deleted":"0","num_feature":"130","num_nodes":"15","size_leaf_vector":"1"}},{"base_weights":[8.355827E-2,-2.6013684E-2,6.3972217E-1,-3.872643E-1,1.769472E-1,-4.2826936E-1,8.664088E-1,-6.787731E-2,2.4564639E-2,-3.372116E-2,3.4600597E-2,-9.09085E-2,9.491921E-2,-5.312563E-2,1.0218833E-1],"categories":[],"categories_nodes":[],"categories_segments":[],"categories_sizes":[],"default_left":[0,0,0,0,0,0,0,0,0,0,0,0,0,0,0],"id":29,"left_children":[1,3,5,7,9,11,13,-1,-1,-1,-1,-1,-1,-1,-1],"loss_changes":[1.2046914E1,1.2230894E1,8.246708E0,1.1233952E1,9.408403E0,5.0784926E0,6.446003E0,0E0,0E0,0E0,0E0,0E0,0E0,0E0,0E0],"parents":[2147483647,0,0,1,1,2,2,3,3,4,4,5,5,6,6],"right_children":[2,4,6,8,10,12,14,-1,-1,-1,-1,-1,-1,-1,-1],"split_conditions":[2E0,1E0,1E0,2E0,1E0,2E0,1E0,-6.787731E-2,2.4564639E-2,-3.372116E-2,3.4600597E-2,-9.09085E-2,9.491921E-2,-5.312563E-2,1.0218833E-1],"split_indices":[33,126,25,120,1,66,23,0,0,0,0,0,0,0,0],"split_type":[0,0,0,0,0,0,0,0,0,0,0,0,0,0,0],"sum_hessian":[1.9641188E2,1.6488123E2,3.153065E1,5.8985214E1,1.0589601E2,5.365037E0,2.6165613E1,4.0335056E1,1.8650156E1,2.5957317E1,7.99387E1,4.2289214E0,1.1361154E0,2.3773143E0,2.3788298E1],"tree_param":{"num_deleted":"0","num_feature":"130","num_nodes":"15","size_leaf_vector":"1"}},{"base_weights":[-6.9844527E-3,-3.2426038E-1,2.4471202E-1,-5.117802E-1,6.3939697E-1,-2.1223812E-1,4.6366984E-1,-7.3238954E-2,6.3085766E-3,-3.9035328E-2,9.0140134E-2,-5.26064E-2,1.2054037E-1,8.239587E-3,7.720051E-2],"categories":[],"categories_nodes":[],"categories_segments":[],"categories_sizes":[],"default_left":[0,0,0,0,0,0,0,0,0,0,0,0,0,0,0],"id":30,"left_children":[1,3,5,7,9,11,13,-1,-1,-1,-1,-1,-1,-1,-1],"loss_changes":[1.5811078E1,1.6152683E1,1.1146431E1,9.413946E0,4.3206663E0,1.6853468E1,8.749311E0,0E0,0E0,0E0,0E0,0E0,0E0,0E0,0E0],"parents":[2147483647,0,0,1,1,2,2,3,3,4,4,5,5,6,6],"right_children":[2,4,6,8,10,12,14,-1,-1,-1,-1,-1,-1,-1,-1],"split_conditions":[1E0,2E0,2E0,2E0,1E0,2E0,1E0,-7.3238954E-2,6.3085766E-3,-3.9035328E-2,9.0140134E-2,-5.26064E-2,1.2054037E-1,8.239587E-3,7.720051E-2],"split_indices":[18,10,16,39,87,35,28,0,0,0,0,0,0,0,0],"split_type":[0,0,0,0,0,0,0,0,0,0,0,0,0,0,0],"sum_hessian":[1.9599817E2,8.6576225E1,1.0942194E2,7.286601E1,1.3710213E1,3.5456764E1,7.396518E1,5.246005E1,2.0405968E1,2.681459E0,1.1028754E1,2.9545206E1,5.911558E0,3.3637608E1,4.032757E1],"tree_param":{"num_deleted":"0","num_feature":"130","num_nodes":"15","size_leaf_vector":"1"}},{"base_weights":[2.7026266E-2,-1.3296871E-1,4.546448E-1,-2.753951E-1,5.3627706E-1,1.5431583E-1,8.617737E-1,-4.562063E-2,2.1838289E-2,-4.978794E-2,7.577535E-2,-5.2992593E-2,3.992822E-2,3.363212E-2,1.2122307E-1],"categories":[],"categories_nodes":[],"categories_segments":[],"categories_sizes":[],"default_left":[0,0,0,0,0,0,0,0,0,0,0,0,0,0,0],"id":31,"left_children":[1,3,5,7,9,11,13,-1,-1,-1,-1,-1,-1,-1,-1],"loss_changes":[1.3711865E1,1.4062056E1,6.537593E0,1.090468E1,6.3219113E0,5.678143E0,3.8169384E0,0E0,0E0,0E0,0E0,0E0,0E0,0E0,0E0],"parents":[2147483647,0,0,1,1,2,2,3,3,4,4,5,5,6,6],"right_children":[2,4,6,8,10,12,14,-1,-1,-1,-1,-1,-1,-1,-1],"split_conditions":[2E0,2E0,2E0,2E0,1E0,1E0,2E0,-4.562063E-2,2.1838289E-2,-4.978794E-2,7.577535E-2,-5.2992593E-2,3.992822E-2,3.363212E-2,1.2122307E-1],"split_indices":[39,38,1,12,29,8,109,0,0,0,0,0,0,0,0],"split_type":[0,0,0,0,0,0,0,0,0,0,0,0,0,0,0],"sum_hessian":[1.9853297E2,1.44978E2,5.3554977E1,1.2002354E2,2.4954462E1,3.161351E1,2.194147E1,8.7909134E1,3.21144E1,4.181494E0,2.0772968E1,8.027574E0,2.3585936E1,9.562994E0,1.2378475E1],"tree_param":{"num_deleted":"0","num_feature":"130","num_nodes":"15","size_leaf_vector":"1"}},{"base_weights":[1.2939074E-2,-8.9589375E-1,8.325483E-2,-1.22198224E-1,-4.0605652E-1,-7.9116695E-2,4.64857E-1,-9.474772E-2,8.935343E-3,-3.982676E-2,1.73984E-2,-9.641907E-3,6.504867E-2],"categories":[],"categories_nodes":[],"categories_segments":[],"categories_sizes":[],"default_left":[0,0,0,0,0,0,0,0,0,0,0,0,0],"id":32,"left_children":[1,3,5,-1,7,9,11,-1,-1,-1,-1,-1,-1],"loss_changes":[1.2485407E1,1.74508E0,1.1262615E1,0E0,1.9905242E0,1.0404773E1,5.7123547E0,0E0,0E0,0E0,0E0,0E0,0E0],"parents":[2147483647,0,0,1,1,2,2,4,4,5,5,6,6],"right_children":[2,4,6,-1,8,10,12,-1,-1,-1,-1,-1,-1],"split_conditions":[1E0,1E0,2E0,-1.22198224E-1,2E0,1E0,1E0,-9.474772E-2,8.935343E-3,-3.982676E-2,1.73984E-2,-9.641907E-3,6.504867E-2],"split_indices":[23,22,14,0,3,38,29,0,0,0,0,0,0],"split_type":[0,0,0,0,0,0,0,0,0,0,0,0,0],"sum_hessian":[1.9320651E2,1.3031611E1,1.8017491E2,6.92615E0,6.1054616E0,1.26950294E2,5.322461E1,2.4812531E0,3.6242085E0,5.589507E1,7.105522E1,1.334744E1,3.987717E1],"tree_param":{"num_deleted":"0","num_feature":"130","num_nodes":"13","size_leaf_vector":"1"}},{"base_weights":[9.099881E-3,-4.6448907E-1,1.4269917E-1,-6.4563966E-1,5.174964E-1,-2.8997195E-1,3.3669928E-1,-1.8818334E-2,-9.0398826E-2,-4.080074E-2,1.1892847E-1,-5.384559E-2,4.870149E-2,8.415115E-3,6.7309946E-2],"categories":[],"categories_nodes":[],"categories_segments":[],"categories_sizes":[],"default_left":[0,0,0,0,0,0,0,0,0,0,0,0,0,0,0],"id":33,"left_children":[1,3,5,7,9,11,13,-1,-1,-1,-1,-1,-1,-1,-1],"loss_changes":[1.2350956E1,7.975395E0,1.2873321E1,4.168462E0,4.9898577E0,9.462978E0,8.910438E0,0E0,0E0,0E0,0E0,0E0,0E0,0E0,0E0],"parents":[2147483647,0,0,1,1,2,2,3,3,4,4,5,5,6,6],"right_children":[2,4,6,8,10,12,14,-1,-1,-1,-1,-1,-1,-1,-1],"split_conditions":[1E0,2E0,1E0,1E0,1E0,1E0,2E0,-1.8818334E-2,-9.0398826E-2,-4.080074E-2,1.1892847E-1,-5.384559E-2,4.870149E-2,8.415115E-3,6.7309946E-2],"split_indices":[1,6,66,127,13,31,26,0,0,0,0,0,0,0,0],"split_type":[0,0,0,0,0,0,0,0,0,0,0,0,0,0,0],"sum_hessian":[1.9315918E2,4.195575E1,1.5120343E2,3.5710598E1,6.2451534E0,4.665526E1,1.04548164E2,1.3512501E1,2.2198095E1,2.791726E0,3.4534273E0,3.5582733E1,1.1072527E1,6.0430725E1,4.411744E1],"tree_param":{"num_deleted":"0","num_feature":"130","num_nodes":"15","size_leaf_vector":"1"}},{"base_weights":[4.5369036E-2,-6.433441E-2,6.086955E-1,-2.3790365E-1,3.4996554E-1,-5.3819876E-2,6.970219E-1,-5.510443E-2,1.3410883E-2,7.947464E-2,-6.910992E-3,1.2524294E-2,9.0803534E-2],"categories":[],"categories_nodes":[],"categories_segments":[],"categories_sizes":[],"default_left":[0,0,0,0,0,0,0,0,0,0,0,0,0],"id":34,"left_children":[1,3,5,7,9,-1,11,-1,-1,-1,-1,-1,-1],"loss_changes":[1.1989029E1,1.1786772E1,3.5776978E0,1.3504887E1,9.087283E0,0E0,3.4804564E0,0E0,0E0,0E0,0E0,0E0,0E0],"parents":[2147483647,0,0,1,1,2,2,3,3,4,4,6,6],"right_children":[2,4,6,8,10,-1,12,-1,-1,-1,-1,-1,-1],"split_conditions":[2E0,2E0,1E0,1E0,2E0,-5.3819876E-2,1E0,-5.510443E-2,1.3410883E-2,7.947464E-2,-6.910992E-3,1.2524294E-2,9.0803534E-2],"split_indices":[8,25,10,6,93,0,1,0,0,0,0,0,0],"split_type":[0,0,0,0,0,0,0,0,0,0,0,0,0],"sum_hessian":[1.9236716E2,1.6175284E2,3.0614311E1,1.14295135E2,4.7457703E1,1.8249203E0,2.878939E1,6.179668E1,5.249846E1,2.2587887E1,2.4869816E1,8.190171E0,2.0599218E1],"tree_param":{"num_deleted":"0","num_feature":"130","num_nodes":"13","size_leaf_vector":"1"}},{"base_weights":[-2.3535115E-3,-6.4603165E-2,1.2157145E0,-2.8363717E-1,2.0176005E-1,1.3269274E-1,3.171048E-2,-4.6821304E-2,4.369262E-2,-2.446677E-2,4.47012E-2],"categories":[],"categories_nodes":[],"categories_segments":[],"categories_sizes":[],"default_left":[0,0,0,0,0,0,0,0,0,0,0],"id":35,"left_children":[1,3,5,7,9,-1,-1,-1,-1,-1,-1],"loss_changes":[1.5028656E1,1.1056617E1,5.4230404E-1,1.4019487E1,9.48787E0,0E0,0E0,0E0,0E0,0E0,0E0],"parents":[2147483647,0,0,1,1,2,2,3,3,4,4],"right_children":[2,4,6,8,10,-1,-1,-1,-1,-1,-1],"split_conditions":[2E0,1E0,2E0,2E0,1E0,1.3269274E-1,3.171048E-2,-4.6821304E-2,4.369262E-2,-2.446677E-2,4.47012E-2],"split_indices":[34,6,108,80,126,0,0,0,0,0,0],"split_type":[0,0,0,0,0,0,0,0,0,0,0],"sum_hessian":[1.9616786E2,1.87531E2,8.636855E0,1.02872635E2,8.465838E1,7.2615175E0,1.3753375E0,8.217366E1,2.0698975E1,3.001854E1,5.463984E1],"tree_param":{"num_deleted":"0","num_feature":"130","num_nodes":"11","size_leaf_vector":"1"}},{"base_weights":[-2.060308E-2,-1.2510924E-1,6.3033247E-1,-2.131162E-1,5.9223676E-1,-6.5689296E-3,8.0509144E-1,-3.90429E-2,2.1046879E-2,-2.2565085E-2,9.818978E-2,-7.997989E-2,5.8254797E-2,8.5018305E-3,9.712498E-2],"categories":[],"categories_nodes":[],"categories_segments":[],"categories_sizes":[],"default_left":[0,0,0,0,0,0,0,0,0,0,0,0,0,0,0],"id":36,"left_children":[1,3,5,7,9,11,13,-1,-1,-1,-1,-1,-1,-1,-1],"loss_changes":[1.2567457E1,1.0165466E1,2.8504658E0,1.0775862E1,5.8440795E0,3.5013986E0,2.3182993E0,0E0,0E0,0E0,0E0,0E0,0E0,0E0,0E0],"parents":[2147483647,0,0,1,1,2,2,3,3,4,4,5,5,6,6],"right_children":[2,4,6,8,10,12,14,-1,-1,-1,-1,-1,-1,-1,-1],"split_conditions":[2E0,2E0,1E0,2E0,2E0,1E0,2E0,-3.90429E-2,2.1046879E-2,-2.2565085E-2,9.818978E-2,-7.997989E-2,5.8254797E-2,8.5018305E-3,9.712498E-2],"split_indices":[15,95,20,9,23,38,89,0,0,0,0,0,0,0,0],"split_type":[0,0,0,0,0,0,0,0,0,0,0,0,0,0,0],"sum_hessian":[1.8258356E2,1.580214E2,2.4562159E1,1.413793E2,1.6642086E1,5.4957075E0,1.9066452E1,9.97163E1,4.1663006E1,5.5060163E0,1.113607E1,2.1897054E0,3.3060024E0,3.8581634E0,1.5208288E1],"tree_param":{"num_deleted":"0","num_feature":"130","num_nodes":"15","size_leaf_vector":"1"}},{"base_weights":[2.9203862E-2,-9.790581E-2,4.8428988E-1,-4.4169703E-1,1.193327E-1,-3.5321334E-1,7.738848E-1,-9.434392E-2,-1.9758644E-2,-9.213669E-3,4.91518E-2,-8.6348794E-2,5.3131968E-2,2.5335604E-2,9.973987E-2],"categories":[],"categories_nodes":[],"categories_segments":[],"categories_sizes":[],"default_left":[0,0,0,0,0,0,0,0,0,0,0,0,0,0,0],"id":37,"left_children":[1,3,5,7,9,11,13,-1,-1,-1,-1,-1,-1,-1,-1],"loss_changes":[1.0989471E1,1.115773E1,1.0330582E1,6.8915377E0,7.2786436E0,5.577626E0,3.3686504E0,0E0,0E0,0E0,0E0,0E0,0E0,0E0,0E0],"parents":[2147483647,0,0,1,1,2,2,3,3,4,4,5,5,6,6],"right_children":[2,4,6,8,10,12,14,-1,-1,-1,-1,-1,-1,-1,-1],"split_conditions":[1E0,2E0,1E0,1E0,2E0,2E0,1E0,-9.434392E-2,-1.9758644E-2,-9.213669E-3,4.91518E-2,-8.6348794E-2,5.3131968E-2,2.5335604E-2,9.973987E-2],"split_indices":[31,41,25,33,1,14,33,0,0,0,0,0,0,0,0],"split_type":[0,0,0,0,0,0,0,0,0,0,0,0,0,0,0],"sum_hessian":[1.8815894E2,1.4769206E2,4.0466873E1,5.6788334E1,9.090373E1,1.0341053E1,3.0125822E1,1.7648666E1,3.9139668E1,5.844737E1,3.245636E1,6.5729837E0,3.7680695E0,9.690856E0,2.0434965E1],"tree_param":{"num_deleted":"0","num_feature":"130","num_nodes":"15","size_leaf_vector":"1"}},{"base_weights":[2.7973605E-2,-1.1368425E-1,3.6453864E-1,-4.246719E-1,1.321103E-1,7.749854E-2,7.445638E-1,-6.0492735E-2,3.2492153E-2,-4.30872E-2,3.0598775E-2,-1.2456603E-2,1.0586589E-1,3.3853255E-2,1.4997095E-1],"categories":[],"categories_nodes":[],"categories_segments":[],"categories_sizes":[],"default_left":[0,0,0,0,0,0,0,0,0,0,0,0,0,0,0],"id":38,"left_children":[1,3,5,7,9,11,13,-1,-1,-1,-1,-1,-1,-1,-1],"loss_changes":[8.982791E0,1.0203355E1,6.0280337E0,8.146954E0,7.464703E0,6.654496E0,6.817437E0,0E0,0E0,0E0,0E0,0E0,0E0,0E0,0E0],"parents":[2147483647,0,0,1,1,2,2,3,3,4,4,5,5,6,6],"right_children":[2,4,6,8,10,12,14,-1,-1,-1,-1,-1,-1,-1,-1],"split_conditions":[2E0,1E0,1E0,2E0,1E0,2E0,1E0,-6.0492735E-2,3.2492153E-2,-4.30872E-2,3.0598775E-2,-1.2456603E-2,1.0586589E-1,3.3853255E-2,1.4997095E-1],"split_indices":[29,22,6,30,40,66,51,0,0,0,0,0,0,0,0],"split_type":[0,0,0,0,0,0,0,0,0,0,0,0,0,0,0],"sum_hessian":[1.8653978E2,1.3174954E2,5.4790234E1,5.7840286E1,7.3909256E1,3.1899715E1,2.2890518E1,4.6783264E1,1.1057023E1,1.7091663E1,5.6817593E1,2.7176008E1,4.723707E0,1.5828211E1,7.062308E0],"tree_param":{"num_deleted":"0","num_feature":"130","num_nodes":"15","size_leaf_vector":"1"}},{"base_weights":[-9.769412E-3,-4.872774E-1,1.04193576E-1,-7.113897E-1,2.7048963E-1,2.5947928E-1,-3.671681E-1,-9.806692E-2,1.2034262E-2,-5.4234803E-2,6.895585E-2,1.3555268E-2,8.349023E-2,-8.840104E-2,-1.9568815E-3],"categories":[],"categories_nodes":[],"categories_segments":[],"categories_sizes":[],"default_left":[0,0,0,0,0,0,0,0,0,0,0,0,0,0,0],"id":39,"left_children":[1,3,5,7,9,11,13,-1,-1,-1,-1,-1,-1,-1,-1],"loss_changes":[9.463898E0,5.882405E0,1.0377256E1,5.9709835E0,3.2257679E0,7.4634485E0,6.310782E0,0E0,0E0,0E0,0E0,0E0,0E0,0E0,0E0],"parents":[2147483647,0,0,1,1,2,2,3,3,4,4,5,5,6,6],"right_children":[2,4,6,8,10,12,14,-1,-1,-1,-1,-1,-1,-1,-1],"split_conditions":[1E0,2E0,1E0,2E0,1E0,2E0,1E0,-9.806692E-2,1.2034262E-2,-5.4234803E-2,6.895585E-2,1.3555268E-2,8.349023E-2,-8.840104E-2,-1.9568815E-3],"split_indices":[14,33,104,12,78,32,126,0,0,0,0,0,0,0,0],"split_type":[0,0,0,0,0,0,0,0,0,0,0,0,0,0,0],"sum_hessian":[1.7197743E2,3.250497E1,1.3947246E2,2.5132998E1,7.371973E0,1.0524875E2,3.422371E1,1.8850834E1,6.2821646E0,2.4077196E0,4.9642534E0,8.761501E1,1.7633736E1,1.3141114E1,2.1082596E1],"tree_param":{"num_deleted":"0","num_feature":"130","num_nodes":"15","size_leaf_vector":"1"}},{"base_weights":[5.535539E-2,3.4525471E-3,1.0793436E0,-2.9800484E-1,1.5935731E-1,1.4059061E-2,1.2546284E-1,2.2030575E-2,-5.4624032E-2,-1.7335553E-2,3.667178E-2],"categories":[],"categories_nodes":[],"categories_segments":[],"categories_sizes":[],"default_left":[0,0,0,0,0,0,0,0,0,0,0],"id":40,"left_children":[1,3,5,7,9,-1,-1,-1,-1,-1,-1],"loss_changes":[9.866529E0,8.401832E0,1.2972984E0,7.961319E0,8.191817E0,0E0,0E0,0E0,0E0,0E0,0E0],"parents":[2147483647,0,0,1,1,2,2,3,3,4,4],"right_children":[2,4,6,8,10,-1,-1,-1,-1,-1,-1],"split_conditions":[2E0,1E0,1E0,1E0,1E0,1.4059061E-2,1.2546284E-1,2.2030575E-2,-5.4624032E-2,-1.7335553E-2,3.667178E-2],"split_indices":[34,25,39,68,118,0,0,0,0,0,0],"split_type":[0,0,0,0,0,0,0,0,0,0,0],"sum_hessian":[1.8471303E2,1.7675711E2,7.9559083E0,5.9941944E1,1.1681517E2,1.5353395E0,6.420569E0,1.944782E1,4.0494125E1,4.4914005E1,7.190117E1],"tree_param":{"num_deleted":"0","num_feature":"130","num_nodes":"11","size_leaf_vector":"1"}},{"base_weights":[-1.919254E-2,-1.1934633E-1,5.857417E-1,-4.451624E-1,8.95367E-2,3.1222042E-2,8.963366E-1,-7.032264E-2,9.710639E-3,-1.6110169E-2,4.213832E-2,-5.3785123E-2,8.2642905E-2,2.742151E-2,1.1782247E-1],"categories":[],"categories_nodes":[],"categories_segments":[],"categories_sizes":[],"default_left":[0,0,0,0,0,0,0,0,0,0,0,0,0,0,0],"id":41,"left_children":[1,3,5,7,9,11,13,-1,-1,-1,-1,-1,-1,-1,-1],"loss_changes":[1.1083778E1,1.0711028E1,4.4485006E0,8.663523E0,8.083784E0,5.136106E0,2.5921888E0,0E0,0E0,0E0,0E0,0E0,0E0,0E0,0E0],"parents":[2147483647,0,0,1,1,2,2,3,3,4,4,5,5,6,6],"right_children":[2,4,6,8,10,12,14,-1,-1,-1,-1,-1,-1,-1,-1],"split_conditions":[2E0,1E0,1E0,2E0,2E0,1E0,1E0,-7.032264E-2,9.710639E-3,-1.6110169E-2,4.213832E-2,-5.3785123E-2,8.2642905E-2,2.742151E-2,1.1782247E-1],"split_indices":[15,10,42,1,26,80,32,0,0,0,0,0,0,0,0],"split_type":[0,0,0,0,0,0,0,0,0,0,0,0,0,0,0],"sum_hessian":[1.8078769E2,1.5579651E2,2.4991184E1,6.0420837E1,9.537566E1,9.367489E0,1.5623694E1,4.0737274E1,1.9683561E1,5.4629448E1,4.074622E1,5.6487284E0,3.7187607E0,5.48693E0,1.0136765E1],"tree_param":{"num_deleted":"0","num_feature":"130","num_nodes":"15","size_leaf_vector":"1"}},{"base_weights":[5.0864816E-2,-2.4422383E-1,2.344328E-1,-3.6561687E-2,-1.1500263E0,-1.0956709E-1,5.045264E-1,-4.466809E-2,2.0025482E-2,-1.2849617E-1,-4.202499E-2,-8.8019654E-2,6.334983E-3,1.2119972E-2,7.778864E-2],"categories":[],"categories_nodes":[],"categories_segments":[],"categories_sizes":[],"default_left":[0,0,0,0,0,0,0,0,0,0,0,0,0,0,0],"id":42,"left_children":[1,3,5,7,9,11,13,-1,-1,-1,-1,-1,-1,-1,-1],"loss_changes":[9.829627E0,1.3064184E1,1.0436285E1,5.694875E0,7.3639107E-1,6.713557E0,6.482766E0,0E0,0E0,0E0,0E0,0E0,0E0,0E0,0E0],"parents":[2147483647,0,0,1,1,2,2,3,3,4,4,5,5,6,6],"right_children":[2,4,6,8,10,12,14,-1,-1,-1,-1,-1,-1,-1,-1],"split_conditions":[1E0,1E0,1E0,1E0,2E0,1E0,1E0,-4.466809E-2,2.0025482E-2,-1.2849617E-1,-4.202499E-2,-8.8019654E-2,6.334983E-3,1.2119972E-2,7.778864E-2],"split_indices":[35,104,18,101,20,14,10,0,0,0,0,0,0,0,0],"split_type":[0,0,0,0,0,0,0,0,0,0,0,0,0,0,0],"sum_hessian":[1.7940584E2,6.8676605E1,1.1072923E2,5.671469E1,1.1961913E1,4.8962875E1,6.1766357E1,2.0436512E1,3.627818E1,9.45325E0,2.5086634E0,8.223475E0,4.0739403E1,2.6312414E1,3.5453945E1],"tree_param":{"num_deleted":"0","num_feature":"130","num_nodes":"15","size_leaf_vector":"1"}},{"base_weights":[7.2137886E-3,-8.918315E-2,5.684539E-1,-4.3205005E-1,1.3476129E-1,-4.323511E-1,8.9577764E-1,-6.708594E-2,1.2245226E-2,-1.3212605E-2,4.393727E-2,-9.875273E-2,5.8756627E-2,5.5823762E-2,1.3935314E-1],"categories":[],"categories_nodes":[],"categories_segments":[],"categories_sizes":[],"default_left":[0,0,0,0,0,0,0,0,0,0,0,0,0,0,0],"id":43,"left_children":[1,3,5,7,9,11,13,-1,-1,-1,-1,-1,-1,-1,-1],"loss_changes":[9.720825E0,1.1837065E1,9.0144205E0,8.139519E0,7.6639543E0,4.637271E0,2.6109486E0,0E0,0E0,0E0,0E0,0E0,0E0,0E0,0E0],"parents":[2147483647,0,0,1,1,2,2,3,3,4,4,5,5,6,6],"right_children":[2,4,6,8,10,12,14,-1,-1,-1,-1,-1,-1,-1,-1],"split_conditions":[2E0,2E0,1E0,2E0,1E0,2E0,2E0,-6.708594E-2,1.2245226E-2,-1.3212605E-2,4.393727E-2,-9.875273E-2,5.8756627E-2,5.5823762E-2,1.3935314E-1],"split_indices":[37,41,14,9,18,33,1,0,0,0,0,0,0,0,0],"split_type":[0,0,0,0,0,0,0,0,0,0,0,0,0,0,0],"sum_hessian":[1.777394E2,1.5240402E2,2.5335367E1,5.984695E1,9.2557076E1,6.1649437E0,1.9170424E1,4.168465E1,1.8162302E1,4.963515E1,4.2921925E1,4.0125384E0,2.1524053E0,1.2687922E1,6.482502E0],"tree_param":{"num_deleted":"0","num_feature":"130","num_nodes":"15","size_leaf_vector":"1"}},{"base_weights":[-1.9558838E-2,-5.041769E-1,1.4217189E-1,-8.1511617E-1,8.152427E-2,-9.973743E-4,8.5657465E-1,-9.6966125E-2,1.5397764E-2,-2.3294121E-2,7.1436115E-2,-1.9577188E-2,5.2165993E-2,2.7002543E-2,1.2476154E-1],"categories":[],"categories_nodes":[],"categories_segments":[],"categories_sizes":[],"default_left":[0,0,0,0,0,0,0,0,0,0,0,0,0,0,0],"id":44,"left_children":[1,3,5,7,9,11,13,-1,-1,-1,-1,-1,-1,-1,-1],"loss_changes":[1.3510899E1,7.920253E0,1.3230083E1,4.381899E0,3.3234344E0,1.1172711E1,4.6161375E0,0E0,0E0,0E0,0E0,0E0,0E0,0E0,0E0],"parents":[2147483647,0,0,1,1,2,2,3,3,4,4,5,5,6,6],"right_children":[2,4,6,8,10,12,14,-1,-1,-1,-1,-1,-1,-1,-1],"split_conditions":[1E0,2E0,2E0,2E0,2E0,1E0,1E0,-9.6966125E-2,1.5397764E-2,-2.3294121E-2,7.1436115E-2,-1.9577188E-2,5.2165993E-2,2.7002543E-2,1.2476154E-1],"split_indices":[12,25,33,95,38,24,30,0,0,0,0,0,0,0,0],"split_type":[0,0,0,0,0,0,0,0,0,0,0,0,0,0,0],"sum_hessian":[1.7046751E2,4.2124912E1,1.283426E2,2.7260868E1,1.4864045E1,1.0774805E2,2.059455E1,2.351091E1,3.749959E0,1.0351934E1,4.5121107E0,7.8951324E1,2.8796726E1,8.914139E0,1.1680411E1],"tree_param":{"num_deleted":"0","num_feature":"130","num_nodes":"15","size_leaf_vector":"1"}},{"base_weights":[7.966833E-2,-3.1853232E-1,2.1558605E-1,-1.1532977E0,-6.9318496E-2,1.6168681E-1,1.1885176E0,-1.6429586E-3,-1.2982045E-1,-3.3985954E-2,7.0399955E-2,-8.888213E-5,5.1712584E-2,2.5242759E-2,1.4919011E-1],"categories":[],"categories_nodes":[],"categories_segments":[],"categories_sizes":[],"default_left":[0,0,0,0,0,0,0,0,0,0,0,0,0,0,0],"id":45,"left_children":[1,3,5,7,9,11,13,-1,-1,-1,-1,-1,-1,-1,-1],"loss_changes":[9.675646E0,9.400904E0,6.778764E0,1.6942167E0,7.8043795E0,7.3456416E0,1.5602989E0,0E0,0E0,0E0,0E0,0E0,0E0,0E0,0E0],"parents":[2147483647,0,0,1,1,2,2,3,3,4,4,5,5,6,6],"right_children":[2,4,6,8,10,12,14,-1,-1,-1,-1,-1,-1,-1,-1],"split_conditions":[1E0,1E0,1E0,1E0,1E0,2E0,1E0,-1.6429586E-3,-1.2982045E-1,-3.3985954E-2,7.0399955E-2,-8.888213E-5,5.1712584E-2,2.5242759E-2,1.4919011E-1],"split_indices":[29,9,0,3,75,14,33,0,0,0,0,0,0,0,0],"split_type":[0,0,0,0,0,0,0,0,0,0,0,0,0,0,0],"sum_hessian":[1.7650418E2,4.4573322E1,1.3193086E2,9.413654E0,3.5159668E1,1.26110664E2,5.820195E0,1.1900995E0,8.223555E0,2.6462446E1,8.697223E0,8.721607E1,3.8894592E1,1.8730232E0,3.9471722E0],"tree_param":{"num_deleted":"0","num_feature":"130","num_nodes":"15","size_leaf_vector":"1"}},{"base_weights":[-4.328783E-2,-2.4122535E-1,2.0794496E-1,-3.849486E-1,4.51302E-1,-2.8440255E-1,3.9543238E-1,-4.4238742E-2,7.752203E-2,-3.1339515E-2,6.6853695E-2,-7.115664E-2,4.3969594E-2,-1.7908428E-2,5.7651807E-2],"categories":[],"categories_nodes":[],"categories_segments":[],"categories_sizes":[],"default_left":[0,0,0,0,0,0,0,0,0,0,0,0,0,0,0],"id":46,"left_children":[1,3,5,7,9,11,13,-1,-1,-1,-1,-1,-1,-1,-1],"loss_changes":[8.787773E0,1.0001579E1,7.309456E0,5.8279724E0,3.1050458E0,7.143495E0,6.0211496E0,0E0,0E0,0E0,0E0,0E0,0E0,0E0,0E0],"parents":[2147483647,0,0,1,1,2,2,3,3,4,4,5,5,6,6],"right_children":[2,4,6,8,10,12,14,-1,-1,-1,-1,-1,-1,-1,-1],"split_conditions":[1E0,2E0,1E0,1E0,1E0,1E0,1E0,-4.4238742E-2,7.752203E-2,-3.1339515E-2,6.6853695E-2,-7.115664E-2,4.3969594E-2,-1.7908428E-2,5.7651807E-2],"split_indices":[6,37,29,0,14,75,1,0,0,0,0,0,0,0,0],"split_type":[0,0,0,0,0,0,0,0,0,0,0,0,0,0,0],"sum_hessian":[1.747067E2,9.774034E1,7.696636E1,8.130988E1,1.643046E1,2.1083513E1,5.5882847E1,7.806371E1,3.2461698E0,3.5370162E0,1.2893443E1,1.3271582E1,7.811931E0,1.3395384E1,4.248746E1],"tree_param":{"num_deleted":"0","num_feature":"130","num_nodes":"15","size_leaf_vector":"1"}},{"base_weights":[-1.7350065E-2,-3.0494782E-1,2.1829596E-1,-9.2477596E-1,-1.4151067E-1,1.3303821E-1,9.0776855E-1,-1.11486375E-1,-6.3388566E-3,-5.721711E-2,9.334438E-3,-2.8365955E-2,3.8247917E-2,1.0265088E-1,-1.0133772E-2],"categories":[],"categories_nodes":[],"categories_segments":[],"categories_sizes":[],"default_left":[0,0,0,0,0,0,0,0,0,0,0,0,0,0,0],"id":47,"left_children":[1,3,5,7,9,11,13,-1,-1,-1,-1,-1,-1,-1,-1],"loss_changes":[1.1797008E1,7.8081174E0,5.505925E0,2.5772982E0,6.445317E0,9.084656E0,1.3456259E0,0E0,0E0,0E0,0E0,0E0,0E0,0E0,0E0],"parents":[2147483647,0,0,1,1,2,2,3,3,4,4,5,5,6,6],"right_children":[2,4,6,8,10,12,14,-1,-1,-1,-1,-1,-1,-1,-1],"split_conditions":[1E0,1E0,2E0,1E0,1E0,1E0,2E0,-1.11486375E-1,-6.3388566E-3,-5.721711E-2,9.334438E-3,-2.8365955E-2,3.8247917E-2,1.0265088E-1,-1.0133772E-2],"split_indices":[18,12,8,19,8,30,48,0,0,0,0,0,0,0,0],"split_type":[0,0,0,0,0,0,0,0,0,0,0,0,0,0,0],"sum_hessian":[1.7208867E2,7.736874E1,9.471993E1,1.5171854E1,6.219688E1,8.535784E1,9.362094E0,1.2187989E1,2.9838655E0,2.1441929E1,4.075495E1,3.1911554E1,5.3446285E1,8.361018E0,1.0010754E0],"tree_param":{"num_deleted":"0","num_feature":"130","num_nodes":"15","size_leaf_vector":"1"}},{"base_weights":[8.026881E-2,-1.587516E-1,2.9536277E-1,-3.2507247E-1,2.7623826E-1,-3.3710767E-2,5.008705E-1,-5.4128148E-2,1.020363E-2,8.94123E-2,1.0394979E-3,-3.9474912E-2,2.6464984E-2,3.2802142E-2,1.0632037E-1],"categories":[],"categories_nodes":[],"categories_segments":[],"categories_sizes":[],"default_left":[0,0,0,0,0,0,0,0,0,0,0,0,0,0,0],"id":48,"left_children":[1,3,5,7,9,11,13,-1,-1,-1,-1,-1,-1,-1,-1],"loss_changes":[9.162531E0,6.212785E0,6.3517714E0,5.7513185E0,3.924702E0,4.08446E0,5.262144E0,0E0,0E0,0E0,0E0,0E0,0E0,0E0,0E0],"parents":[2147483647,0,0,1,1,2,2,3,3,4,4,5,5,6,6],"right_children":[2,4,6,8,10,12,14,-1,-1,-1,-1,-1,-1,-1,-1],"split_conditions":[1E0,2E0,1E0,2E0,1E0,1E0,2E0,-5.4128148E-2,1.020363E-2,8.94123E-2,1.0394979E-3,-3.9474912E-2,2.6464984E-2,3.2802142E-2,1.0632037E-1],"split_indices":[28,39,18,14,117,101,33,0,0,0,0,0,0,0,0],"split_type":[0,0,0,0,0,0,0,0,0,0,0,0,0,0,0],"sum_hessian":[1.7630626E2,8.3632576E1,9.267368E1,6.068284E1,2.2949738E1,3.5947678E1,5.6726E1,4.011081E1,2.0572025E1,6.1928034E0,1.6756935E1,1.6119198E1,1.982848E1,4.4600185E1,1.2125815E1],"tree_param":{"num_deleted":"0","num_feature":"130","num_nodes":"15","size_leaf_vector":"1"}},{"base_weights":[3.890578E-2,-6.300473E-2,4.6128458E-1,-2.3468977E-1,3.782734E-1,1.5035888E-2,9.0774053E-1,-7.008991E-2,3.1166037E-3,-3.7652094E-2,5.1874567E-2,-7.652289E-2,6.265207E-2,9.36177E-3,1.113851E-1],"categories":[],"categories_nodes":[],"categories_segments":[],"categories_sizes":[],"default_left":[0,0,0,0,0,0,0,0,0,0,0,0,0,0,0],"id":49,"left_children":[1,3,5,7,9,11,13,-1,-1,-1,-1,-1,-1,-1,-1],"loss_changes":[7.626074E0,1.09274645E1,6.8450837E0,1.2863808E1,4.484545E0,9.179193E0,2.7805672E0,0E0,0E0,0E0,0E0,0E0,0E0,0E0,0E0],"parents":[2147483647,0,0,1,1,2,2,3,3,4,4,5,5,6,6],"right_children":[2,4,6,8,10,12,14,-1,-1,-1,-1,-1,-1,-1,-1],"split_conditions":[2E0,1E0,2E0,1E0,1E0,2E0,1E0,-7.008991E-2,3.1166037E-3,-3.7652094E-2,5.1874567E-2,-7.652289E-2,6.265207E-2,9.36177E-3,1.113851E-1],"split_indices":[35,24,26,8,7,23,29,0,0,0,0,0,0,0,0],"split_type":[0,0,0,0,0,0,0,0,0,0,0,0,0,0,0],"sum_hessian":[1.7549063E2,1.4206448E2,3.3426136E1,1.02610634E2,3.9453854E1,1.7233908E1,1.6192228E1,3.6669674E1,6.594096E1,5.9268627E0,3.352699E1,7.461492E0,9.772416E0,3.5649838E0,1.2627244E1],"tree_param":{"num_deleted":"0","num_feature":"130","num_nodes":"15","size_leaf_vector":"1"}},{"base_weights":[1.2471892E-2,-1.3604994E-1,3.6937392E-1,-4.3991256E-1,8.9464486E-2,-7.563621E-2,6.3475907E-1,-6.11722E-2,2.4890643E-2,-1.82207E-2,4.086342E-2,-8.083066E-2,3.50064E-2,-6.055428E-3,8.332818E-2],"categories":[],"categories_nodes":[],"categories_segments":[],"categories_sizes":[],"default_left":[0,0,0,0,0,0,0,0,0,0,0,0,0,0,0],"id":50,"left_children":[1,3,5,7,9,11,13,-1,-1,-1,-1,-1,-1,-1,-1],"loss_changes":[8.951054E0,8.214647E0,5.9071474E0,6.186947E0,6.084365E0,6.342293E0,4.3550625E0,0E0,0E0,0E0,0E0,0E0,0E0,0E0,0E0],"parents":[2147483647,0,0,1,1,2,2,3,3,4,4,5,5,6,6],"right_children":[2,4,6,8,10,12,14,-1,-1,-1,-1,-1,-1,-1,-1],"split_conditions":[2E0,1E0,1E0,2E0,2E0,1E0,1E0,-6.11722E-2,2.4890643E-2,-1.82207E-2,4.086342E-2,-8.083066E-2,3.50064E-2,-6.055428E-3,8.332818E-2],"split_indices":[29,22,118,33,62,126,7,0,0,0,0,0,0,0,0],"split_type":[0,0,0,0,0,0,0,0,0,0,0,0,0,0,0],"sum_hessian":[1.6691512E2,1.1830306E2,4.8612045E1,4.9992065E1,6.8311005E1,1.8427298E1,3.0184748E1,4.0101604E1,9.890461E0,3.71331E1,3.1177902E1,6.4417186E0,1.1985579E1,6.858446E0,2.3326302E1],"tree_param":{"num_deleted":"0","num_feature":"130","num_nodes":"15","size_leaf_vector":"1"}},{"base_weights":[-1.9463135E-2,-1.7429744E-1,3.6361596E-1,-2.9561108E-1,3.6624402E-1,-9.8592445E-2,5.2050096E-1,-5.889957E-2,7.3185377E-3,-3.7975725E-2,7.879243E-2,-7.598577E-2,3.304585E-2,2.6461488E-2,1.1419561E-1],"categories":[],"categories_nodes":[],"categories_segments":[],"categories_sizes":[],"default_left":[0,0,0,0,0,0,0,0,0,0,0,0,0,0,0],"id":51,"left_children":[1,3,5,7,9,11,13,-1,-1,-1,-1,-1,-1,-1,-1],"loss_changes":[1.0165582E1,8.106403E0,3.6297731E0,1.0881034E1,7.472385E0,4.0376554E0,5.5820236E0,0E0,0E0,0E0,0E0,0E0,0E0,0E0,0E0],"parents":[2147483647,0,0,1,1,2,2,3,3,4,4,5,5,6,6],"right_children":[2,4,6,8,10,12,14,-1,-1,-1,-1,-1,-1,-1,-1],"split_conditions":[2E0,2E0,1E0,2E0,1E0,1E0,2E0,-5.889957E-2,7.3185377E-3,-3.7975725E-2,7.879243E-2,-7.598577E-2,3.304585E-2,2.6461488E-2,1.1419561E-1],"split_indices":[14,80,29,26,35,32,35,0,0,0,0,0,0,0,0],"split_type":[0,0,0,0,0,0,0,0,0,0,0,0,0,0,0],"sum_hessian":[1.69318E2,1.2096922E2,4.834877E1,9.9166435E1,2.180279E1,1.2346261E1,3.600251E1,5.489742E1,4.4269012E1,7.909459E0,1.3893332E1,4.55498E0,7.791281E0,2.6511938E1,9.490573E0],"tree_param":{"num_deleted":"0","num_feature":"130","num_nodes":"15","size_leaf_vector":"1"}},{"base_weights":[3.361249E-2,-2.1259764E-2,9.5030206E-1,-1.2846002E-1,5.1695806E-1,2.314884E-1,1.1399945E-1,-2.6691858E-2,2.5764583E-2,-2.556313E-2,7.215452E-2,7.296817E-2,-3.672138E-2],"categories":[],"categories_nodes":[],"categories_segments":[],"categories_sizes":[],"default_left":[0,0,0,0,0,0,0,0,0,0,0,0,0],"id":52,"left_children":[1,3,5,7,9,11,-1,-1,-1,-1,-1,-1,-1],"loss_changes":[8.638555E0,9.450121E0,1.0585527E0,7.3620224E0,4.485661E0,1.2462268E0,0E0,0E0,0E0,0E0,0E0,0E0,0E0],"parents":[2147483647,0,0,1,1,2,2,3,3,4,4,5,5],"right_children":[2,4,6,8,10,12,-1,-1,-1,-1,-1,-1,-1],"split_conditions":[2E0,2E0,1E0,2E0,1E0,2E0,1.1399945E-1,-2.6691858E-2,2.5764583E-2,-2.556313E-2,7.215452E-2,7.296817E-2,-3.672138E-2],"split_indices":[34,32,29,12,67,119,0,0,0,0,0,0,0],"split_type":[0,0,0,0,0,0,0,0,0,0,0,0,0],"sum_hessian":[1.7033621E2,1.6163754E2,8.698677E0,1.3542534E2,2.62122E1,2.2798457E0,6.418831E0,9.990709E1,3.551825E1,5.435697E0,2.0776503E1,1.1249652E0,1.1548805E0],"tree_param":{"num_deleted":"0","num_feature":"130","num_nodes":"13","size_leaf_vector":"1"}},{"base_weights":[5.6752045E-2,-4.9039837E-2,5.818333E-1,-1.3879457E-1,5.415576E-1,-2.1953027E-1,7.4681044E-1,-2.0248163E-2,7.698762E-2,1.3987392E-2,1.02705896E-1,-6.1367173E-2,6.814795E-2,3.171378E-2,1.0776784E-1],"categories":[],"categories_nodes":[],"categories_segments":[],"categories_sizes":[],"default_left":[0,0,0,0,0,0,0,0,0,0,0,0,0,0,0],"id":53,"left_children":[1,3,5,7,9,11,13,-1,-1,-1,-1,-1,-1,-1,-1],"loss_changes":[9.41752E0,7.5812097E0,3.9213953E0,7.315358E0,3.5391378E0,2.41577E0,3.041191E0,0E0,0E0,0E0,0E0,0E0,0E0,0E0,0E0],"parents":[2147483647,0,0,1,1,2,2,3,3,4,4,5,5,6,6],"right_children":[2,4,6,8,10,12,14,-1,-1,-1,-1,-1,-1,-1,-1],"split_conditions":[2E0,2E0,1E0,2E0,1E0,1E0,1E0,-2.0248163E-2,7.698762E-2,1.3987392E-2,1.02705896E-1,-6.1367173E-2,6.814795E-2,3.171378E-2,1.0776784E-1],"split_indices":[107,15,120,34,78,17,38,0,0,0,0,0,0,0,0],"split_type":[0,0,0,0,0,0,0,0,0,0,0,0,0,0,0],"sum_hessian":[1.6802069E2,1.4059967E2,2.7421017E1,1.2271528E2,1.7884388E1,4.62496E0,2.2796057E1,1.1540399E2,7.311286E0,1.0491915E1,7.3924737E0,3.4393454E0,1.1856147E0,1.0769301E1,1.2026755E1],"tree_param":{"num_deleted":"0","num_feature":"130","num_nodes":"15","size_leaf_vector":"1"}},{"base_weights":[4.4709094E-2,-9.7683854E-2,3.493994E-1,-2.2720037E-1,3.8019305E-1,1.4269151E-1,9.2334676E-1,-3.3558663E-2,3.1246334E-2,-5.234447E-2,6.534258E-2,-5.414467E-2,4.400225E-2,2.9234229E-2,1.143145E-1],"categories":[],"categories_nodes":[],"categories_segments":[],"categories_sizes":[],"default_left":[0,0,0,0,0,0,0,0,0,0,0,0,0,0,0],"id":54,"left_children":[1,3,5,7,9,11,13,-1,-1,-1,-1,-1,-1,-1,-1],"loss_changes":[7.3053174E0,7.2039404E0,6.2268453E0,5.4336343E0,6.488803E0,8.494318E0,1.6087399E0,0E0,0E0,0E0,0E0,0E0,0E0,0E0,0E0],"parents":[2147483647,0,0,1,1,2,2,3,3,4,4,5,5,6,6],"right_children":[2,4,6,8,10,12,14,-1,-1,-1,-1,-1,-1,-1,-1],"split_conditions":[2E0,1E0,1E0,2E0,1E0,1E0,1E0,-3.3558663E-2,3.1246334E-2,-5.234447E-2,6.534258E-2,-5.414467E-2,4.400225E-2,2.9234229E-2,1.143145E-1],"split_indices":[7,19,51,38,108,8,25,0,0,0,0,0,0,0,0],"split_type":[0,0,0,0,0,0,0,0,0,0,0,0,0,0,0],"sum_hessian":[1.665939E2,1.139979E2,5.2596E1,9.0102455E1,2.3895443E1,3.9587227E1,1.3008776E1,7.534775E1,1.4754709E1,5.3351717E0,1.8560272E1,1.17440195E1,2.7843206E1,3.9626648E0,9.04611E0],"tree_param":{"num_deleted":"0","num_feature":"130","num_nodes":"15","size_leaf_vector":"1"}},{"base_weights":[4.740101E-2,-4.300403E-1,1.6151538E-1,-1.0019534E-1,-2.3986188E-1,-2.4540063E-3,4.865104E-1,-4.6871044E-2,3.2259457E-2,-1.7519703E-2,4.1579362E-2,1.4955774E-2,9.4762936E-2],"categories":[],"categories_nodes":[],"categories_segments":[],"categories_sizes":[],"default_left":[0,0,0,0,0,0,0,0,0,0,0,0,0],"id":55,"left_children":[1,3,5,-1,7,9,11,-1,-1,-1,-1,-1,-1],"loss_changes":[9.277709E0,3.3354821E0,7.3090334E0,0E0,3.4961615E0,6.730145E0,7.0042953E0,0E0,0E0,0E0,0E0,0E0,0E0],"parents":[2147483647,0,0,1,1,2,2,4,4,5,5,6,6],"right_children":[2,4,6,-1,8,10,12,-1,-1,-1,-1,-1,-1],"split_conditions":[1E0,1E0,2E0,-1.0019534E-1,2E0,2E0,1E0,-4.6871044E-2,3.2259457E-2,-1.7519703E-2,4.1579362E-2,1.4955774E-2,9.4762936E-2],"split_indices":[67,12,1,0,29,25,13,0,0,0,0,0,0],"split_type":[0,0,0,0,0,0,0,0,0,0,0,0,0],"sum_hessian":[1.6801173E2,3.1876335E1,1.361354E2,6.889483E0,2.498685E1,9.114338E1,4.4992023E1,1.7879025E1,7.107826E0,6.491398E1,2.6229404E1,2.6761194E1,1.8230827E1],"tree_param":{"num_deleted":"0","num_feature":"130","num_nodes":"13","size_leaf_vector":"1"}},{"base_weights":[2.7567035E-2,-2.8379956E-2,7.831602E-1,-1.3812059E-1,3.7117544E-1,1.2538087E-1,1.111943E0,-3.6259826E-2,1.6154796E-2,-6.720307E-3,9.2610285E-2,5.7436485E-2,-4.4195008E-2,5.061051E-2,1.336894E-1],"categories":[],"categories_nodes":[],"categories_segments":[],"categories_sizes":[],"default_left":[0,0,0,0,0,0,0,0,0,0,0,0,0,0,0],"id":56,"left_children":[1,3,5,7,9,11,13,-1,-1,-1,-1,-1,-1,-1,-1],"loss_changes":[7.0172176E0,6.8488855E0,2.3352003E0,8.289111E0,8.254551E0,1.5122736E0,3.4579659E-1,0E0,0E0,0E0,0E0,0E0,0E0,0E0,0E0],"parents":[2147483647,0,0,1,1,2,2,3,3,4,4,5,5,6,6],"right_children":[2,4,6,8,10,12,14,-1,-1,-1,-1,-1,-1,-1,-1],"split_conditions":[1E0,1E0,1E0,2E0,1E0,1E0,1E0,-3.6259826E-2,1.6154796E-2,-6.720307E-3,9.2610285E-2,5.7436485E-2,-4.4195008E-2,5.061051E-2,1.336894E-1],"split_indices":[64,31,121,26,24,35,37,0,0,0,0,0,0,0,0],"split_type":[0,0,0,0,0,0,0,0,0,0,0,0,0,0,0],"sum_hessian":[1.6447122E2,1.5402878E2,1.0442436E1,1.2135273E2,3.267605E1,3.9404075E0,6.5020285E0,6.9260574E1,5.209216E1,1.8746048E1,1.3930001E1,2.1927075E0,1.7477E0,2.6404948E0,3.8615336E0],"tree_param":{"num_deleted":"0","num_feature":"130","num_nodes":"15","size_leaf_vector":"1"}},{"base_weights":[-1.8105255E-2,-1.3385408E-1,4.615467E-1,-3.0739862E-1,2.020471E-1,5.406434E-3,7.3268163E-1,-4.066386E-2,3.873304E-2,-2.2355767E-2,5.0751723E-2,-6.3234776E-2,4.675522E-2,-3.794405E-2,9.526571E-2],"categories":[],"categories_nodes":[],"categories_segments":[],"categories_sizes":[],"default_left":[0,0,0,0,0,0,0,0,0,0,0,0,0,0,0],"id":57,"left_children":[1,3,5,7,9,11,13,-1,-1,-1,-1,-1,-1,-1,-1],"loss_changes":[9.051675E0,7.7114544E0,3.917008E0,6.149946E0,6.0034313E0,4.0761847E0,5.2241316E0,0E0,0E0,0E0,0E0,0E0,0E0,0E0,0E0],"parents":[2147483647,0,0,1,1,2,2,3,3,4,4,5,5,6,6],"right_children":[2,4,6,8,10,12,14,-1,-1,-1,-1,-1,-1,-1,-1],"split_conditions":[1E0,2E0,1E0,2E0,1E0,1E0,1E0,-4.066386E-2,3.873304E-2,-2.2355767E-2,5.0751723E-2,-6.3234776E-2,4.675522E-2,-3.794405E-2,9.526571E-2],"split_indices":[19,7,28,10,118,102,42,0,0,0,0,0,0,0,0],"split_type":[0,0,0,0,0,0,0,0,0,0,0,0,0,0,0],"sum_hessian":[1.6092422E2,1.3022055E2,3.0703674E1,8.591639E1,4.4304153E1,1.1826858E1,1.8876816E1,7.554035E1,1.0376037E1,1.8623957E1,2.5680197E1,4.8145566E0,7.0123014E0,2.9975064E0,1.5879311E1],"tree_param":{"num_deleted":"0","num_feature":"130","num_nodes":"15","size_leaf_vector":"1"}},{"base_weights":[-6.2050134E-2,-1.683058E-1,3.630725E-1,-2.827741E-1,3.476032E-1,-1.4462146E-1,6.2146205E-1,-4.0549524E-2,3.507681E-2,-2.2566866E-2,5.804872E-2,-4.5070276E-2,4.4720024E-2,-2.9608412E-2,7.2174035E-2],"categories":[],"categories_nodes":[],"categories_segments":[],"categories_sizes":[],"default_left":[0,0,0,0,0,0,0,0,0,0,0,0,0,0,0],"id":58,"left_children":[1,3,5,7,9,11,13,-1,-1,-1,-1,-1,-1,-1,-1],"loss_changes":[7.1571045E0,7.560555E0,4.2521396E0,8.225545E0,3.2542393E0,2.2870624E0,2.165762E0,0E0,0E0,0E0,0E0,0E0,0E0,0E0,0E0],"parents":[2147483647,0,0,1,1,2,2,3,3,4,4,5,5,6,6],"right_children":[2,4,6,8,10,12,14,-1,-1,-1,-1,-1,-1,-1,-1],"split_conditions":[2E0,2E0,1E0,2E0,1E0,2E0,1E0,-4.0549524E-2,3.507681E-2,-2.2566866E-2,5.804872E-2,-4.5070276E-2,4.4720024E-2,-2.9608412E-2,7.2174035E-2],"split_indices":[35,32,20,101,5,7,109,0,0,0,0,0,0,0,0],"split_type":[0,0,0,0,0,0,0,0,0,0,0,0,0,0,0],"sum_hessian":[1.5608946E2,1.2536075E2,3.0728718E1,1.02966705E2,2.2394041E1,1.0512885E1,2.0215834E1,8.655953E1,1.6407175E1,6.4781876E0,1.59158535E1,7.08637E0,3.4265156E0,1.7993301E0,1.8416504E1],"tree_param":{"num_deleted":"0","num_feature":"130","num_nodes":"15","size_leaf_vector":"1"}},{"base_weights":[-2.9793056E-2,-3.4212786E-1,1.20493144E-1,-6.7132366E-1,1.1131643E-1,-1.5294495E-1,3.3191076E-1,-7.499227E-2,4.4295605E-2,-4.9475603E-2,3.3392303E-2,-7.4264385E-2,2.7950976E-2,2.3617435E-2,9.359182E-2],"categories":[],"categories_nodes":[],"categories_segments":[],"categories_sizes":[],"default_left":[0,0,0,0,0,0,0,0,0,0,0,0,0,0,0],"id":59,"left_children":[1,3,5,7,9,11,13,-1,-1,-1,-1,-1,-1,-1,-1],"loss_changes":[7.619102E0,7.942136E0,6.394427E0,3.0190392E0,3.2718792E0,1.2584387E1,3.3757405E0,0E0,0E0,0E0,0E0,0E0,0E0,0E0,0E0],"parents":[2147483647,0,0,1,1,2,2,3,3,4,4,5,5,6,6],"right_children":[2,4,6,8,10,12,14,-1,-1,-1,-1,-1,-1,-1,-1],"split_conditions":[1E0,2E0,1E0,2E0,1E0,1E0,2E0,-7.499227E-2,4.4295605E-2,-4.9475603E-2,3.3392303E-2,-7.4264385E-2,2.7950976E-2,2.3617435E-2,9.359182E-2],"split_indices":[20,4,101,34,29,28,80,0,0,0,0,0,0,0,0],"split_type":[0,0,0,0,0,0,0,0,0,0,0,0,0,0,0],"sum_hessian":[1.6043886E2,5.1705185E1,1.0873367E2,2.9678446E1,2.202674E1,4.7533085E1,6.1200592E1,2.8028372E1,1.6500758E0,5.58859E0,1.6438148E1,1.9806923E1,2.7726162E1,5.402805E1,7.1725445E0],"tree_param":{"num_deleted":"0","num_feature":"130","num_nodes":"15","size_leaf_vector":"1"}},{"base_weights":[-2.2675669E-2,-8.757362E-1,2.245339E-2,-1.1907271E-1,4.299755E-2,-6.889863E-2,4.0484262E-1,-1.9477833E-2,3.2404143E-2,-8.799988E-3,6.2057227E-2],"categories":[],"categories_nodes":[],"categories_segments":[],"categories_sizes":[],"default_left":[0,0,0,0,0,0,0,0,0,0,0],"id":60,"left_children":[1,3,5,-1,-1,7,9,-1,-1,-1,-1],"loss_changes":[6.3472013E0,3.9187698E0,5.5149355E0,0E0,0E0,6.3767347E0,3.290471E0,0E0,0E0,0E0,0E0],"parents":[2147483647,0,0,1,1,2,2,5,5,6,6],"right_children":[2,4,6,-1,-1,8,10,-1,-1,-1,-1],"split_conditions":[1E0,1E0,1E0,-1.1907271E-1,4.299755E-2,2E0,1E0,-1.9477833E-2,3.2404143E-2,-8.799988E-3,6.2057227E-2],"split_indices":[27,100,19,0,0,20,42,0,0,0,0],"split_type":[0,0,0,0,0,0,0,0,0,0,0],"sum_hessian":[1.6336093E2,7.2832265E0,1.5607771E2,5.9386454E0,1.3445809E0,1.26642815E2,2.9434896E1,9.629779E1,3.034502E1,9.14192E0,2.0292976E1],"tree_param":{"num_deleted":"0","num_feature":"130","num_nodes":"11","size_leaf_vector":"1"}},{"base_weights":[3.269379E-2,-1.0822301E-2,9.462743E-1,-5.0135862E-2,1.0935024E0,1.9610053E-2,1.1367731E0,-4.6046805E-2,6.3278796E-3,-1.0132755E-3,1.3850424E-1,2.9988522E-2,1.2845351E-1],"categories":[],"categories_nodes":[],"categories_segments":[],"categories_sizes":[],"default_left":[0,0,0,0,0,0,0,0,0,0,0,0,0],"id":61,"left_children":[1,3,5,7,9,-1,11,-1,-1,-1,-1,-1,-1],"loss_changes":[6.5458846E0,6.9104905E0,8.4686327E-1,7.1697946E0,1.7747169E0,0E0,3.2724428E-1,0E0,0E0,0E0,0E0,0E0,0E0],"parents":[2147483647,0,0,1,1,2,2,3,3,4,4,6,6],"right_children":[2,4,6,8,10,-1,12,-1,-1,-1,-1,-1,-1],"split_conditions":[1E0,1E0,1E0,1E0,2E0,1.9610053E-2,1E0,-4.6046805E-2,6.3278796E-3,-1.0132755E-3,1.3850424E-1,2.9988522E-2,1.2845351E-1],"split_indices":[0,94,18,1,93,0,3,0,0,0,0,0,0],"split_type":[0,0,0,0,0,0,0,0,0,0,0,0,0],"sum_hessian":[1.6339618E2,1.5691031E2,6.48587E0,1.5243817E2,4.472143E0,1.7244579E0,4.761412E0,3.2347057E1,1.2009111E2,1.1362126E0,3.3359306E0,1.169149E0,3.5922632E0],"tree_param":{"num_deleted":"0","num_feature":"130","num_nodes":"13","size_leaf_vector":"1"}},{"base_weights":[4.9474005E-2,-7.091323E-2,3.9155602E-1,-1.0148305E0,-1.7984606E-2,4.0376503E-2,6.8179494E-1,-3.8590904E-3,-1.2131393E-1,-1.3226296E-2,4.289799E-2,-5.9890892E-2,2.8313372E-2,4.3694596E-3,1.0428884E-1],"categories":[],"categories_nodes":[],"categories_segments":[],"categories_sizes":[],"default_left":[0,0,0,0,0,0,0,0,0,0,0,0,0,0,0],"id":62,"left_children":[1,3,5,7,9,11,13,-1,-1,-1,-1,-1,-1,-1,-1],"loss_changes":[6.7356596E0,6.043368E0,4.3098316E0,1.1968594E0,5.976967E0,3.3228157E0,5.3082323E0,0E0,0E0,0E0,0E0,0E0,0E0,0E0,0E0],"parents":[2147483647,0,0,1,1,2,2,3,3,4,4,5,5,6,6],"right_children":[2,4,6,8,10,12,14,-1,-1,-1,-1,-1,-1,-1,-1],"split_conditions":[2E0,1E0,1E0,1E0,2E0,1E0,2E0,-3.8590904E-3,-1.2131393E-1,-1.3226296E-2,4.289799E-2,-5.9890892E-2,2.8313372E-2,4.3694596E-3,1.0428884E-1],"split_indices":[39,27,25,14,33,40,41,0,0,0,0,0,0,0,0],"split_type":[0,0,0,0,0,0,0,0,0,0,0,0,0,0,0],"sum_hessian":[1.6188289E2,1.2032885E2,4.155404E1,5.424047E0,1.149048E2,1.9318457E1,2.2235582E1,1.1174815E0,4.3065658E0,9.2069E1,2.2835802E1,4.913077E0,1.440538E1,8.440717E0,1.3794865E1],"tree_param":{"num_deleted":"0","num_feature":"130","num_nodes":"15","size_leaf_vector":"1"}},{"base_weights":[-2.9732618E-3,-3.9432463E-1,9.1717444E-2,-5.345768E-1,2.4640432E-1,-4.472278E-3,5.767944E-1,-6.90952E-2,1.34634925E-2,-5.7963755E-2,9.862369E-2,-5.0372154E-2,9.056369E-3,-2.0959891E-2,8.980533E-2],"categories":[],"categories_nodes":[],"categories_segments":[],"categories_sizes":[],"default_left":[0,0,0,0,0,0,0,0,0,0,0,0,0,0,0],"id":63,"left_children":[1,3,5,7,9,11,13,-1,-1,-1,-1,-1,-1,-1,-1],"loss_changes":[5.8555818E0,2.8979821E0,5.9402356E0,2.7689047E0,4.368396E0,5.1313763E0,5.5103245E0,0E0,0E0,0E0,0E0,0E0,0E0,0E0,0E0],"parents":[2147483647,0,0,1,1,2,2,3,3,4,4,5,5,6,6],"right_children":[2,4,6,8,10,12,14,-1,-1,-1,-1,-1,-1,-1,-1],"split_conditions":[1E0,2E0,2E0,2E0,1E0,1E0,1E0,-6.90952E-2,1.34634925E-2,-5.7963755E-2,9.862369E-2,-5.0372154E-2,9.056369E-3,-2.0959891E-2,8.980533E-2],"split_indices":[67,22,8,37,25,26,1,0,0,0,0,0,0,0,0],"split_type":[0,0,0,0,0,0,0,0,0,0,0,0,0,0,0],"sum_hessian":[1.5603813E2,2.978287E1,1.2625527E2,2.4570248E1,5.212621E0,1.06188995E2,2.006627E1,1.989004E1,4.680208E0,2.565124E0,2.6474974E0,1.629367E1,8.9895325E1,5.9207454E0,1.4145525E1],"tree_param":{"num_deleted":"0","num_feature":"130","num_nodes":"15","size_leaf_vector":"1"}},{"base_weights":[-2.8713843E-2,-1.5046553E-1,3.2831952E-1,-2.8578088E-1,2.1483116E-1,-5.76551E-2,6.335696E-1,-3.541886E-2,7.7928424E-2,-1.3317338E-2,6.62116E-2,-4.3231323E-2,6.476367E-2,2.6999785E-2,1.060179E-1],"categories":[],"categories_nodes":[],"categories_segments":[],"categories_sizes":[],"default_left":[0,0,0,0,0,0,0,0,0,0,0,0,0,0,0],"id":64,"left_children":[1,3,5,7,9,11,13,-1,-1,-1,-1,-1,-1,-1,-1],"loss_changes":[7.107886E0,6.0806284E0,4.9384856E0,6.781301E0,5.300494E0,5.377255E0,3.3301125E0,0E0,0E0,0E0,0E0,0E0,0E0,0E0,0E0],"parents":[2147483647,0,0,1,1,2,2,3,3,4,4,5,5,6,6],"right_children":[2,4,6,8,10,12,14,-1,-1,-1,-1,-1,-1,-1,-1],"split_conditions":[1E0,2E0,1E0,1E0,2E0,1E0,2E0,-3.541886E-2,7.7928424E-2,-1.3317338E-2,6.62116E-2,-4.3231323E-2,6.476367E-2,2.6999785E-2,1.060179E-1],"split_indices":[88,12,22,0,40,31,42,0,0,0,0,0,0,0,0],"split_type":[0,0,0,0,0,0,0,0,0,0,0,0,0,0,0],"sum_hessian":[1.6137817E2,1.2077228E2,4.0605904E1,8.828639E1,3.2485886E1,1.8290075E1,2.2315828E1,8.3585266E1,4.701122E0,1.8665604E1,1.3820282E1,1.2197619E1,6.092455E0,1.2929628E1,9.3862E0],"tree_param":{"num_deleted":"0","num_feature":"130","num_nodes":"15","size_leaf_vector":"1"}},{"base_weights":[5.861315E-2,-7.503793E-2,4.373547E-1,-1.6520154E-1,4.2123124E-1,-9.789936E-2,6.4177555E-1,-2.70452E-2,3.9355665E-2,-4.03796E-2,5.043003E-2,-8.171778E-2,2.1288758E-2,3.0950686E-2,1.1712183E-1],"categories":[],"categories_nodes":[],"categories_segments":[],"categories_sizes":[],"default_left":[0,0,0,0,0,0,0,0,0,0,0,0,0,0,0],"id":65,"left_children":[1,3,5,7,9,11,13,-1,-1,-1,-1,-1,-1,-1,-1],"loss_changes":[8.04484E0,5.3427653E0,4.596179E0,6.013717E0,1.4647212E0,2.927558E0,4.9350433E0,0E0,0E0,0E0,0E0,0E0,0E0,0E0,0E0],"parents":[2147483647,0,0,1,1,2,2,3,3,4,4,5,5,6,6],"right_children":[2,4,6,8,10,12,14,-1,-1,-1,-1,-1,-1,-1,-1],"split_conditions":[1E0,2E0,2E0,2E0,2E0,2E0,1E0,-2.70452E-2,3.9355665E-2,-4.03796E-2,5.043003E-2,-8.171778E-2,2.1288758E-2,3.0950686E-2,1.1712183E-1],"split_indices":[24,15,16,37,27,27,31,0,0,0,0,0,0,0,0],"split_type":[0,0,0,0,0,0,0,0,0,0,0,0,0,0,0],"sum_hessian":[1.5728024E2,1.1684841E2,4.0431828E1,9.94476E1,1.7400816E1,1.1317986E1,2.9113842E1,8.411858E1,1.5329015E1,1.2385725E0,1.6162243E1,2.923204E0,8.394781E0,1.8861374E1,1.0252468E1],"tree_param":{"num_deleted":"0","num_feature":"130","num_nodes":"15","size_leaf_vector":"1"}},{"base_weights":[-5.7875314E-3,-1.380524E-1,3.1144127E-1,-3.0548072E-1,2.5295246E-1,9.846401E-2,8.8669723E-1,-3.7587952E-2,1.009771E-1,-9.124139E-3,6.095606E-2,-4.2465176E-2,4.387015E-2,1.0358601E-1,3.854393E-2],"categories":[],"categories_nodes":[],"categories_segments":[],"categories_sizes":[],"default_left":[0,0,0,0,0,0,0,0,0,0,0,0,0,0,0],"id":66,"left_children":[1,3,5,7,9,11,13,-1,-1,-1,-1,-1,-1,-1,-1],"loss_changes":[6.7190747E0,7.4739366E0,5.68646E0,7.7465343E0,4.2806892E0,6.5079203E0,5.4346085E-1,0E0,0E0,0E0,0E0,0E0,0E0,0E0,0E0],"parents":[2147483647,0,0,1,1,2,2,3,3,4,4,5,5,6,6],"right_children":[2,4,6,8,10,12,14,-1,-1,-1,-1,-1,-1,-1,-1],"split_conditions":[2E0,2E0,1E0,1E0,2E0,1E0,1E0,-3.7587952E-2,1.009771E-1,-9.124139E-3,6.095606E-2,-4.2465176E-2,4.387015E-2,1.0358601E-1,3.854393E-2],"split_indices":[29,14,63,0,4,126,119,0,0,0,0,0,0,0,0],"split_type":[0,0,0,0,0,0,0,0,0,0,0,0,0,0,0],"sum_hessian":[1.5811253E2,1.1198607E2,4.6126472E1,7.856378E1,3.3422287E1,3.4518017E1,1.1608455E1,7.525023E1,3.313552E0,1.7385834E1,1.6036453E1,1.3505375E1,2.1012642E1,8.124322E0,3.4841325E0],"tree_param":{"num_deleted":"0","num_feature":"130","num_nodes":"15","size_leaf_vector":"1"}},{"base_weights":[2.5837582E-2,-2.742263E-1,1.9472657E-1,-4.2617178E-1,2.7551383E-1,5.8382776E-2,6.701469E-1,-5.6709874E-2,6.2179953E-2,-7.233948E-2,4.9831208E-2,-2.6105052E-2,2.552392E-2,3.0703023E-2,1.1754699E-1],"categories":[],"categories_nodes":[],"categories_segments":[],"categories_sizes":[],"default_left":[0,0,0,0,0,0,0,0,0,0,0,0,0,0,0],"id":67,"left_children":[1,3,5,7,9,11,13,-1,-1,-1,-1,-1,-1,-1,-1],"loss_changes":[8.0692005E0,4.910373E0,6.559168E0,7.049822E0,3.2609377E0,5.1099286E0,3.78438E0,0E0,0E0,0E0,0E0,0E0,0E0,0E0,0E0],"parents":[2147483647,0,0,1,1,2,2,3,3,4,4,5,5,6,6],"right_children":[2,4,6,8,10,12,14,-1,-1,-1,-1,-1,-1,-1,-1],"split_conditions":[1E0,2E0,2E0,2E0,1E0,2E0,1E0,-5.6709874E-2,6.2179953E-2,-7.233948E-2,4.9831208E-2,-2.6105052E-2,2.552392E-2,3.0703023E-2,1.1754699E-1],"split_indices":[25,15,39,95,63,62,13,0,0,0,0,0,0,0,0],"split_type":[0,0,0,0,0,0,0,0,0,0,0,0,0,0,0],"sum_hessian":[1.5717282E2,5.63797E1,1.0079313E2,4.4347145E1,1.2032556E1,7.9201935E1,2.1591188E1,3.9494892E1,4.8522525E0,1.7845814E0,1.0247974E1,3.0074617E1,4.912732E1,1.3498781E1,8.092407E0],"tree_param":{"num_deleted":"0","num_feature":"130","num_nodes":"15","size_leaf_vector":"1"}},{"base_weights":[2.9465878E-2,-6.270151E-2,4.9906176E-1,-1.5976724E-1,4.3277153E-1,6.7303735E-1,-2.5707147E-1,-2.7092228E-2,3.8063645E-2,-2.4913198E-3,7.221167E-2,2.1184502E-2,8.826016E-2,-9.454995E-2,2.2216504E-2],"categories":[],"categories_nodes":[],"categories_segments":[],"categories_sizes":[],"default_left":[0,0,0,0,0,0,0,0,0,0,0,0,0,0,0],"id":68,"left_children":[1,3,5,7,9,11,13,-1,-1,-1,-1,-1,-1,-1,-1],"loss_changes":[6.8050103E0,6.4037786E0,3.5655198E0,6.7628565E0,2.9110727E0,1.8660069E0,2.040253E0,0E0,0E0,0E0,0E0,0E0,0E0,0E0,0E0],"parents":[2147483647,0,0,1,1,2,2,3,3,4,4,5,5,6,6],"right_children":[2,4,6,8,10,12,14,-1,-1,-1,-1,-1,-1,-1,-1],"split_conditions":[2E0,2E0,1E0,2E0,1E0,1E0,1E0,-2.7092228E-2,3.8063645E-2,-2.4913198E-3,7.221167E-2,2.1184502E-2,8.826016E-2,-9.454995E-2,2.2216504E-2],"split_indices":[32,8,104,30,42,5,20,0,0,0,0,0,0,0,0],"split_type":[0,0,0,0,0,0,0,0,0,0,0,0,0,0,0],"sum_hessian":[1.5550406E2,1.3071513E2,2.4788925E1,1.09868805E2,2.0846321E1,2.024153E1,4.5473957E0,9.153893E1,1.8329876E1,8.4283285E0,1.2417993E1,6.9523125E0,1.3289217E1,1.4670439E0,3.0803516E0],"tree_param":{"num_deleted":"0","num_feature":"130","num_nodes":"15","size_leaf_vector":"1"}},{"base_weights":[2.3159806E-2,-4.4370788E-1,1.07643075E-1,-6.8007314E-1,1.557632E-1,2.7840972E-1,-1.5656427E-1,-1.0067111E-1,7.91427E-3,-6.301974E-2,5.626939E-2,9.199867E-4,5.209393E-2,-3.8911637E-2,4.169272E-2],"categories":[],"categories_nodes":[],"categories_segments":[],"categories_sizes":[],"default_left":[0,0,0,0,0,0,0,0,0,0,0,0,0,0,0],"id":69,"left_children":[1,3,5,7,9,11,13,-1,-1,-1,-1,-1,-1,-1,-1],"loss_changes":[6.1771083E0,3.5075865E0,6.0168447E0,4.3957853E0,2.7861485E0,5.269206E0,7.1794624E0,0E0,0E0,0E0,0E0,0E0,0E0,0E0,0E0],"parents":[2147483647,0,0,1,1,2,2,3,3,4,4,5,5,6,6],"right_children":[2,4,6,8,10,12,14,-1,-1,-1,-1,-1,-1,-1,-1],"split_conditions":[1E0,1E0,2E0,2E0,1E0,1E0,2E0,-1.0067111E-1,7.91427E-3,-6.301974E-2,5.626939E-2,9.199867E-4,5.209393E-2,-3.8911637E-2,4.169272E-2],"split_indices":[120,34,87,102,8,33,65,0,0,0,0,0,0,0,0],"split_type":[0,0,0,0,0,0,0,0,0,0,0,0,0,0,0],"sum_hessian":[1.5439949E2,2.3007032E1,1.3139246E2,1.6404465E1,6.602567E0,7.977638E1,5.1616077E1,1.1241877E1,5.1625896E0,2.065168E0,4.5373993E0,3.8300472E1,4.147591E1,3.6953033E1,1.4663043E1],"tree_param":{"num_deleted":"0","num_feature":"130","num_nodes":"15","size_leaf_vector":"1"}},{"base_weights":[4.7070447E-2,-1.737214E-1,2.09128E-1,-4.095243E-1,2.6860654E-1,1.012183E-1,7.9004675E-1,-8.229177E-2,-1.3093287E-2,-8.513849E-2,4.272795E-2,-5.1041413E-2,2.1639766E-2,-2.8419647E-2,9.094616E-2],"categories":[],"categories_nodes":[],"categories_segments":[],"categories_sizes":[],"default_left":[0,0,0,0,0,0,0,0,0,0,0,0,0,0,0],"id":70,"left_children":[1,3,5,7,9,11,13,-1,-1,-1,-1,-1,-1,-1,-1],"loss_changes":[5.6699586E0,7.118349E0,5.6405034E0,4.985464E0,4.623274E0,5.6128244E0,2.0734758E0,0E0,0E0,0E0,0E0,0E0,0E0,0E0,0E0],"parents":[2147483647,0,0,1,1,2,2,3,3,4,4,5,5,6,6],"right_children":[2,4,6,8,10,12,14,-1,-1,-1,-1,-1,-1,-1,-1],"split_conditions":[1E0,2E0,2E0,1E0,1E0,1E0,1E0,-8.229177E-2,-1.3093287E-2,-8.513849E-2,4.272795E-2,-5.1041413E-2,2.1639766E-2,-2.8419647E-2,9.094616E-2],"split_indices":[22,25,35,28,14,120,109,0,0,0,0,0,0,0,0],"split_type":[0,0,0,0,0,0,0,0,0,0,0,0,0,0,0],"sum_hessian":[1.5644754E2,6.619272E1,9.025482E1,4.3224243E1,2.2968473E1,7.7106064E1,1.3148752E1,1.6615362E1,2.6608881E1,2.3084743E0,2.066E1,1.1675365E1,6.54307E1,1.1773677E0,1.1971384E1],"tree_param":{"num_deleted":"0","num_feature":"130","num_nodes":"15","size_leaf_vector":"1"}},{"base_weights":[5.787034E-3,-1.1831877E-1,3.70441E-1,-4.8014334E-1,2.6112445E-2,-3.8554254E-1,5.181644E-1,-6.5242104E-2,1.3978498E-2,-2.1413716E-2,2.743355E-2,-9.1988385E-2,8.24555E-2,-7.8635814E-4,6.67668E-2],"categories":[],"categories_nodes":[],"categories_segments":[],"categories_sizes":[],"default_left":[0,0,0,0,0,0,0,0,0,0,0,0,0,0,0],"id":71,"left_children":[1,3,5,7,9,11,13,-1,-1,-1,-1,-1,-1,-1,-1],"loss_changes":[7.0701075E0,6.1055107E0,4.6294227E0,3.6491876E0,5.084694E0,5.321697E0,2.6482725E0,0E0,0E0,0E0,0E0,0E0,0E0,0E0,0E0],"parents":[2147483647,0,0,1,1,2,2,3,3,4,4,5,5,6,6],"right_children":[2,4,6,8,10,12,14,-1,-1,-1,-1,-1,-1,-1,-1],"split_conditions":[2E0,1E0,1E0,2E0,1E0,2E0,1E0,-6.5242104E-2,1.3978498E-2,-2.1413716E-2,2.743355E-2,-9.1988385E-2,8.24555E-2,-7.8635814E-4,6.67668E-2],"split_indices":[66,25,39,35,101,35,1,0,0,0,0,0,0,0,0],"split_type":[0,0,0,0,0,0,0,0,0,0,0,0,0,0,0],"sum_hessian":[1.5425739E2,1.1559238E2,3.866501E1,3.2314564E1,8.327781E1,6.0571713E0,3.2607838E1,2.5246237E1,7.0683265E0,4.238837E1,4.0889442E1,4.3681564E0,1.6890149E0,7.426193E0,2.5181646E1],"tree_param":{"num_deleted":"0","num_feature":"130","num_nodes":"15","size_leaf_vector":"1"}},{"base_weights":[1.3653291E-2,-8.183596E-2,4.5743242E-1,-1.7141311E-1,3.7169248E-1,6.9001447E-3,6.6534597E-1,-2.579453E-2,3.9799687E-2,-5.9682876E-2,5.4881066E-2,-6.821971E-2,5.3366464E-2,-1.3335711E-2,8.52732E-2],"categories":[],"categories_nodes":[],"categories_segments":[],"categories_sizes":[],"default_left":[0,0,0,0,0,0,0,0,0,0,0,0,0,0,0],"id":72,"left_children":[1,3,5,7,9,11,13,-1,-1,-1,-1,-1,-1,-1,-1],"loss_changes":[6.4234605E0,5.136346E0,2.5092068E0,5.2739162E0,3.9144695E0,3.8068252E0,2.8603601E0,0E0,0E0,0E0,0E0,0E0,0E0,0E0,0E0],"parents":[2147483647,0,0,1,1,2,2,3,3,4,4,5,5,6,6],"right_children":[2,4,6,8,10,12,14,-1,-1,-1,-1,-1,-1,-1,-1],"split_conditions":[2E0,2E0,1E0,2E0,1E0,2E0,2E0,-2.579453E-2,3.9799687E-2,-5.9682876E-2,5.4881066E-2,-6.821971E-2,5.3366464E-2,-1.3335711E-2,8.52732E-2],"split_indices":[32,30,5,10,26,117,27,0,0,0,0,0,0,0,0],"split_type":[0,0,0,0,0,0,0,0,0,0,0,0,0,0,0],"sum_hessian":[1.4969862E2,1.2386239E2,2.583624E1,1.0395259E2,1.9909801E1,8.4844E0,1.7351841E1,9.071395E1,1.3238637E1,2.7117405E0,1.7198061E1,3.5479763E0,4.936424E0,3.3521523E0,1.3999688E1],"tree_param":{"num_deleted":"0","num_feature":"130","num_nodes":"15","size_leaf_vector":"1"}},{"base_weights":[4.3674435E-2,-9.020386E-2,3.4155917E-1,-2.1716961E-1,2.4913429E-1,1.6958283E-1,7.6370144E-1,-3.52212E-2,2.8280912E-2,-1.1503101E-2,7.389953E-2,2.4602595E-3,8.615898E-2,-1.246386E-2,9.193082E-2],"categories":[],"categories_nodes":[],"categories_segments":[],"categories_sizes":[],"default_left":[0,0,0,0,0,0,0,0,0,0,0,0,0,0,0],"id":73,"left_children":[1,3,5,7,9,11,13,-1,-1,-1,-1,-1,-1,-1,-1],"loss_changes":[6.061562E0,4.5832434E0,3.2897797E0,5.300817E0,5.274142E0,3.4652472E0,1.9596925E0,0E0,0E0,0E0,0E0,0E0,0E0,0E0,0E0],"parents":[2147483647,0,0,1,1,2,2,3,3,4,4,5,5,6,6],"right_children":[2,4,6,8,10,12,14,-1,-1,-1,-1,-1,-1,-1,-1],"split_conditions":[2E0,2E0,1E0,2E0,2E0,2E0,1E0,-3.52212E-2,2.8280912E-2,-1.1503101E-2,7.389953E-2,2.4602595E-3,8.615898E-2,-1.246386E-2,9.193082E-2],"split_indices":[14,39,24,80,1,15,26,0,0,0,0,0,0,0,0],"split_type":[0,0,0,0,0,0,0,0,0,0,0,0,0,0,0],"sum_hessian":[1.5022131E2,1.04122665E2,4.6098648E1,7.603403E1,2.8088644E1,3.375069E1,1.23479595E1,6.009747E1,1.5936558E1,1.6550264E1,1.1538379E1,2.8760681E1,4.9900093E0,1.8702047E0,1.0477755E1],"tree_param":{"num_deleted":"0","num_feature":"130","num_nodes":"15","size_leaf_vector":"1"}},{"base_weights":[-1.6613184E-2,-3.08736E-1,1.4038542E-1,-6.052216E-1,-6.6309966E-2,-1.700202E-1,3.4052882E-1,-1.181677E-1,-4.0683344E-2,-2.634131E-2,4.7428958E-2,-4.545455E-2,3.1940464E-2,1.8570034E-2,7.799258E-2],"categories":[],"categories_nodes":[],"categories_segments":[],"categories_sizes":[],"default_left":[0,0,0,0,0,0,0,0,0,0,0,0,0,0,0],"id":74,"left_children":[1,3,5,7,9,11,13,-1,-1,-1,-1,-1,-1,-1,-1],"loss_changes":[6.8574824E0,3.7153916E0,6.104349E0,2.1931934E0,3.3075705E0,5.551074E0,3.903417E0,0E0,0E0,0E0,0E0,0E0,0E0,0E0,0E0],"parents":[2147483647,0,0,1,1,2,2,3,3,4,4,5,5,6,6],"right_children":[2,4,6,8,10,12,14,-1,-1,-1,-1,-1,-1,-1,-1],"split_conditions":[1E0,1E0,1E0,1E0,2E0,1E0,2E0,-1.181677E-1,-4.0683344E-2,-2.634131E-2,4.7428958E-2,-4.545455E-2,3.1940464E-2,1.8570034E-2,7.799258E-2],"split_indices":[25,6,118,67,20,119,33,0,0,0,0,0,0,0,0],"split_type":[0,0,0,0,0,0,0,0,0,0,0,0,0,0,0],"sum_hessian":[1.4757639E2,5.125017E1,9.632622E1,2.2381369E1,2.8868803E1,3.7820423E1,5.8505795E1,4.4614305E0,1.7919937E1,2.1531233E1,7.33757E0,2.3961664E1,1.3858759E1,4.4313766E1,1.4192031E1],"tree_param":{"num_deleted":"0","num_feature":"130","num_nodes":"15","size_leaf_vector":"1"}},{"base_weights":[6.686641E-2,-1.5312621E-1,2.4348955E-1,-4.2702526E-1,2.552488E-1,-1.0826679E-1,4.415236E-1,-5.0939746E-2,1.1518135E-1,-6.387831E-2,4.1356232E-2,-5.0287258E-2,1.9712133E-2,-8.189996E-2,5.0721217E-2],"categories":[],"categories_nodes":[],"categories_segments":[],"categories_sizes":[],"default_left":[0,0,0,0,0,0,0,0,0,0,0,0,0,0,0],"id":75,"left_children":[1,3,5,7,9,11,13,-1,-1,-1,-1,-1,-1,-1,-1],"loss_changes":[6.051041E0,7.88701E0,6.0548196E0,6.04838E0,4.3038936E0,3.9390378E0,5.0000935E0,0E0,0E0,0E0,0E0,0E0,0E0,0E0,0E0],"parents":[2147483647,0,0,1,1,2,2,3,3,4,4,5,5,6,6],"right_children":[2,4,6,8,10,12,14,-1,-1,-1,-1,-1,-1,-1,-1],"split_conditions":[1E0,1E0,1E0,1E0,1E0,1E0,1E0,-5.0939746E-2,1.1518135E-1,-6.387831E-2,4.1356232E-2,-5.0287258E-2,1.9712133E-2,-8.189996E-2,5.0721217E-2],"split_indices":[32,13,10,71,9,15,16,0,0,0,0,0,0,0,0],"split_type":[0,0,0,0,0,0,0,0,0,0,0,0,0,0,0],"sum_hessian":[1.5377118E2,6.8537476E1,8.5233696E1,4.0995758E1,2.7541718E1,3.0864386E1,5.4369312E1,3.960673E1,1.3890281E0,3.6867697E0,2.3854948E1,1.318316E1,1.7681225E1,2.124948E0,5.2244366E1],"tree_param":{"num_deleted":"0","num_feature":"130","num_nodes":"15","size_leaf_vector":"1"}},{"base_weights":[-1.3902052E-2,-6.396815E-1,5.2870523E-2,-8.094087E-1,3.697986E-2,-6.0436618E-2,4.1682312E-1,-1.0239371E-1,-4.7465474E-3,-3.0403215E-2,2.2869786E-2,-8.517055E-3,7.7608906E-2],"categories":[],"categories_nodes":[],"categories_segments":[],"categories_sizes":[],"default_left":[0,0,0,0,0,0,0,0,0,0,0,0,0],"id":76,"left_children":[1,3,5,7,-1,9,11,-1,-1,-1,-1,-1,-1],"loss_changes":[6.026946E0,2.681746E0,5.407755E0,1.9484024E0,0E0,7.1415005E0,5.677548E0,0E0,0E0,0E0,0E0,0E0,0E0],"parents":[2147483647,0,0,1,1,2,2,3,3,5,5,6,6],"right_children":[2,4,6,8,-1,10,12,-1,-1,-1,-1,-1,-1],"split_conditions":[1E0,1E0,2E0,1E0,3.697986E-2,2E0,1E0,-1.0239371E-1,-4.7465474E-3,-3.0403215E-2,2.2869786E-2,-8.517055E-3,7.7608906E-2],"split_indices":[41,21,25,88,0,26,39,0,0,0,0,0,0],"split_type":[0,0,0,0,0,0,0,0,0,0,0,0,0],"sum_hessian":[1.42428E2,1.2904986E1,1.2952301E2,1.12171955E1,1.6877912E0,9.940866E1,3.0114347E1,8.484499E0,2.732696E0,5.3925205E1,4.548346E1,1.2880151E1,1.7234196E1],"tree_param":{"num_deleted":"0","num_feature":"130","num_nodes":"13","size_leaf_vector":"1"}},{"base_weights":[2.3740169E-2,-6.529809E-1,7.715248E-2,-8.484118E-1,2.6104271E-2,-1.4931582E-1,2.534018E-1,-2.5677187E-2,-1.0429647E-1,-7.797279E-2,6.1497646E-3,1.6876953E-2,9.354501E-2],"categories":[],"categories_nodes":[],"categories_segments":[],"categories_sizes":[],"default_left":[0,0,0,0,0,0,0,0,0,0,0,0,0],"id":77,"left_children":[1,3,5,7,-1,9,11,-1,-1,-1,-1,-1,-1],"loss_changes":[5.477981E0,2.2025623E0,5.628727E0,8.109908E-1,0E0,8.278538E0,4.410309E0,0E0,0E0,0E0,0E0,0E0,0E0],"parents":[2147483647,0,0,1,1,2,2,3,3,5,5,6,6],"right_children":[2,4,6,8,-1,10,12,-1,-1,-1,-1,-1,-1],"split_conditions":[1E0,2E0,1E0,2E0,2.6104271E-2,2E0,2E0,-2.5677187E-2,-1.0429647E-1,-7.797279E-2,6.1497646E-3,1.6876953E-2,9.354501E-2],"split_indices":[23,10,33,68,0,41,95,0,0,0,0,0,0],"split_type":[0,0,0,0,0,0,0,0,0,0,0,0,0],"sum_hessian":[1.4916089E2,1.0090567E1,1.3907033E2,8.372248E0,1.7183189E0,6.0930984E1,7.8139336E1,2.6458776E0,5.726371E0,1.4593183E1,4.6337803E1,7.062344E1,7.515895E0],"tree_param":{"num_deleted":"0","num_feature":"130","num_nodes":"13","size_leaf_vector":"1"}},{"base_weights":[-1.32095795E-2,-1.7167191E-1,2.5777137E-1,-3.2115543E-1,1.9076985E-1,-4.093288E-1,4.385638E-1,-3.9669216E-2,8.075351E-2,-2.4150804E-2,5.0047338E-2,-6.395691E-2,6.407725E-2,9.339488E-3,6.6247486E-2],"categories":[],"categories_nodes":[],"categories_segments":[],"categories_sizes":[],"default_left":[0,0,0,0,0,0,0,0,0,0,0,0,0,0,0],"id":78,"left_children":[1,3,5,7,9,11,13,-1,-1,-1,-1,-1,-1,-1,-1],"loss_changes":[6.1774716E0,4.976804E0,6.5841875E0,5.828628E0,3.751645E0,3.2725213E0,3.2045507E0,0E0,0E0,0E0,0E0,0E0,0E0,0E0,0E0],"parents":[2147483647,0,0,1,1,2,2,3,3,4,4,5,5,6,6],"right_children":[2,4,6,8,10,12,14,-1,-1,-1,-1,-1,-1,-1,-1],"split_conditions":[1E0,2E0,2E0,1E0,1E0,2E0,1E0,-3.9669216E-2,8.075351E-2,-2.4150804E-2,5.0047338E-2,-6.395691E-2,6.407725E-2,9.339488E-3,6.6247486E-2],"split_indices":[13,14,16,0,66,126,22,0,0,0,0,0,0,0,0],"split_type":[0,0,0,0,0,0,0,0,0,0,0,0,0,0,0],"sum_hessian":[1.418314E2,8.972761E1,5.2103794E1,6.360756E1,2.6120045E1,1.0840329E1,4.1263466E1,6.022555E1,3.3820102E0,1.0994433E1,1.5125611E1,9.211585E0,1.6287439E0,1.6793161E1,2.4470304E1],"tree_param":{"num_deleted":"0","num_feature":"130","num_nodes":"15","size_leaf_vector":"1"}},{"base_weights":[-2.0415572E-2,-2.2133018E-1,1.4067914E-1,-5.519259E-1,8.884698E-2,-1.3010219E-1,3.6083525E-1,5.349944E-2,-6.995588E-2,-2.0968178E-2,4.7661632E-2,-5.5297345E-2,2.1219125E-2,7.5414763E-3,7.5695515E-2],"categories":[],"categories_nodes":[],"categories_segments":[],"categories_sizes":[],"default_left":[0,0,0,0,0,0,0,0,0,0,0,0,0,0,0],"id":79,"left_children":[1,3,5,7,9,11,13,-1,-1,-1,-1,-1,-1,-1,-1],"loss_changes":[4.698438E0,6.669123E0,4.854447E0,5.411189E0,4.0554023E0,5.4582973E0,5.001792E0,0E0,0E0,0E0,0E0,0E0,0E0,0E0,0E0],"parents":[2147483647,0,0,1,1,2,2,3,3,4,4,5,5,6,6],"right_children":[2,4,6,8,10,12,14,-1,-1,-1,-1,-1,-1,-1,-1],"split_conditions":[1E0,1E0,1E0,1E0,2E0,1E0,2E0,5.349944E-2,-6.995588E-2,-2.0968178E-2,4.7661632E-2,-5.5297345E-2,2.1219125E-2,7.5414763E-3,7.5695515E-2],"split_indices":[32,28,30,117,120,63,4,0,0,0,0,0,0,0,0],"split_type":[0,0,0,0,0,0,0,0,0,0,0,0,0,0,0],"sum_hessian":[1.4320259E2,6.3558983E1,7.964361E1,3.0389545E1,3.3169437E1,3.589883E1,4.3744774E1,3.320338E0,2.7069208E1,1.900075E1,1.4168689E1,1.5783862E1,2.011497E1,2.611688E1,1.7627892E1],"tree_param":{"num_deleted":"0","num_feature":"130","num_nodes":"15","size_leaf_vector":"1"}},{"base_weights":[1.00341946E-1,2.7678928E-3,4.37881E-1,-2.2776178E-1,2.335275E-1,1.19185224E-1,8.797575E-1,-3.6299665E-2,2.1445224E-2,-4.695658E-2,3.590026E-2,-3.674895E-2,7.667845E-2,8.321657E-3,1.0367694E-1],"categories":[],"categories_nodes":[],"categories_segments":[],"categories_sizes":[],"default_left":[0,0,0,0,0,0,0,0,0,0,0,0,0,0,0],"id":80,"left_children":[1,3,5,7,9,11,13,-1,-1,-1,-1,-1,-1,-1,-1],"loss_changes":[4.7725883E0,6.088283E0,4.471613E0,3.5020676E0,5.2138777E0,6.5969152E0,1.5971832E0,0E0,0E0,0E0,0E0,0E0,0E0,0E0,0E0],"parents":[2147483647,0,0,1,1,2,2,3,3,4,4,5,5,6,6],"right_children":[2,4,6,8,10,12,14,-1,-1,-1,-1,-1,-1,-1,-1],"split_conditions":[1E0,1E0,1E0,2E0,1E0,1E0,2E0,-3.6299665E-2,2.1445224E-2,-4.695658E-2,3.590026E-2,-3.674895E-2,7.667845E-2,8.321657E-3,1.0367694E-1],"split_indices":[31,6,24,39,7,128,84,0,0,0,0,0,0,0,0],"split_type":[0,0,0,0,0,0,0,0,0,0,0,0,0,0,0],"sum_hessian":[1.4394589E2,1.1244816E2,3.1497736E1,5.6258606E1,5.6189556E1,1.9037207E1,1.2460529E1,4.3220383E1,1.3038225E1,8.093839E0,4.8095715E1,1.1116001E1,7.9212065E0,2.303678E0,1.0156851E1],"tree_param":{"num_deleted":"0","num_feature":"130","num_nodes":"15","size_leaf_vector":"1"}},{"base_weights":[1.0372394E-2,-2.170107E-1,1.9535884E-1,-3.4650037E-1,3.9205664E-1,7.9976775E-2,6.054584E-1,-4.7413576E-2,2.6419077E-2,-3.1315707E-2,7.170846E-2,-3.9027706E-2,2.7935907E-2,1.0349315E-2,8.652159E-2],"categories":[],"categories_nodes":[],"categories_segments":[],"categories_sizes":[],"default_left":[0,0,0,0,0,0,0,0,0,0,0,0,0,0,0],"id":81,"left_children":[1,3,5,7,9,11,13,-1,-1,-1,-1,-1,-1,-1,-1],"loss_changes":[6.1068854E0,5.274149E0,3.7382758E0,4.3545084E0,2.9503512E0,6.072826E0,2.1817732E0,0E0,0E0,0E0,0E0,0E0,0E0,0E0,0E0],"parents":[2147483647,0,0,1,1,