{"learner":{"attributes":{"scikit_learn":"{\"_estimator_type\": \"classifier\"}"},"feature_names":["rs28362286","rs67608943","rs114197570","rs17249141","rs11591147","rs72646508","rs7412","rs1065853","rs72654473","rs445925","rs7703051","rs12721109","rs7254892","rs13306206","rs151193009","rs17573010","rs769455","rs181559417","rs12960731","rs186696265","rs119480069","rs73453125","rs7769153","rs28362263","rs28362261","rs1160985","rs79950627","rs6511720","rs17111684","rs35882350","rs1531517","rs10455872","rs3208856","rs146350463","rs143020224","rs115299243","rs7528419","rs114821903","rs769449","rs12740374","rs147821144","rs8106503","rs3747910","rs73015011","rs4420638","rs555844715","rs12721054","rs56167574","rs6857","rs646776","rs629301","rs660240","rs113190300","rs4245791","rs145043195","rs529192228","rs144142940","rs118039278","rs73920524","rs599839","rs375498857","rs66900043","rs11668313","rs62522646","rs581411","rs11668327","rs1481012","rs117753190","rs10183198","rs1883711","rs562338","rs11669576","rs76087060","rs12713956","rs2716769","rs8102280","rs7200153","rs754523","rs2228671","rs117891475","rs201269048","rs7016880","rs28562532","rs201010974","rs555998901","rs668948","rs568938","rs72703210","rs563290","rs4299376","rs8178824","rs283810","rs73729083","rs6657811","rs117831057","rs931608","rs192244114","rs138797374","rs1367117","rs6924995","rs2967668","rs145601158","rs73004967","rs983311","rs190481017","rs934198","rs41279732","rs60403635","rs4841132","rs75352129","rs3902354","rs515135","rs370724533","rs57825321","rs11887534","rs117302066","rs11806638","rs143786000","rs78641322","rs41360247","rs80052283","rs138977414","rs2304128","rs80310766","rs7350481","rs6752026","rs537916240","rs503662","rs4953023","rs151145935","rs11881756","rs9411489","rs635634","rs934197","rs7258950","rs507666","rs2738464","rs495828","rs147323247","rs16996148","rs73596816","rs7575840","rs148827430","rs174566","rs1466848","rs11206517","rs6544713","rs10401969","rs12916","rs11206510","rs3846663","rs2274538","rs3843482","rs76866386","rs693","rs1041968","rs3810143","rs3794695","rs11668477","rs13392272","rs579459","rs964184","rs76970536","rs4603816","rs550057","rs10038095","rs12654264","rs1423527","rs1875620","rs2519093","rs6756629","rs17111697","rs139919599","rs150856817","rs2238675"],"feature_types":["int","int","int","int","int","int","int","int","int","int","int","int","int","int","int","int","int","int","int","int","int","int","int","int","int","int","int","int","int","int","int","int","int","int","int","int","int","int","int","int","int","int","int","int","int","int","int","int","int","int","int","int","int","int","int","int","int","int","int","int","int","int","int","int","int","int","int","int","int","int","int","int","int","int","int","int","int","int","int","int","int","int","int","int","int","int","int","int","int","int","int","int","int","int","int","int","int","int","int","int","int","int","int","int","int","int","int","int","int","int","int","int","int","int","int","int","int","int","int","int","int","int","int","int","int","int","int","int","int","int","int","int","int","int","int","int","int","int","int","int","int","int","int","int","int","int","int","int","int","int","int","int","int","int","int","int","int","int","int","int","int","int","int","int","int","int","int","int","int","int","int","int","int","int","int"],"gradient_booster":{"model":{"cats":{"enc":[],"feature_segments":[],"sorted_idx":[]},"gbtree_model_param":{"num_parallel_tree":"1","num_trees":"200"},"iteration_indptr":[0,1,2,3,4,5,6,7,8,9,10,11,12,13,14,15,16,17,18,19,20,21,22,23,24,25,26,27,28,29,30,31,32,33,34,35,36,37,38,39,40,41,42,43,44,45,46,47,48,49,50,51,52,53,54,55,56,57,58,59,60,61,62,63,64,65,66,67,68,69,70,71,72,73,74,75,76,77,78,79,80,81,82,83,84,85,86,87,88,89,90,91,92,93,94,95,96,97,98,99,100,101,102,103,104,105,106,107,108,109,110,111,112,113,114,115,116,117,118,119,120,121,122,123,124,125,126,127,128,129,130,131,132,133,134,135,136,137,138,139,140,141,142,143,144,145,146,147,148,149,150,151,152,153,154,155,156,157,158,159,160,161,162,163,164,165,166,167,168,169,170,171,172,173,174,175,176,177,178,179,180,181,182,183,184,185,186,187,188,189,190,191,192,193,194,195,196,197,198,199,200],"tree_info":[0,0,0,0,0,0,0,0,0,0,0,0,0,0,0,0,0,0,0,0,0,0,0,0,0,0,0,0,0,0,0,0,0,0,0,0,0,0,0,0,0,0,0,0,0,0,0,0,0,0,0,0,0,0,0,0,0,0,0,0,0,0,0,0,0,0,0,0,0,0,0,0,0,0,0,0,0,0,0,0,0,0,0,0,0,0,0,0,0,0,0,0,0,0,0,0,0,0,0,0,0,0,0,0,0,0,0,0,0,0,0,0,0,0,0,0,0,0,0,0,0,0,0,0,0,0,0,0,0,0,0,0,0,0,0,0,0,0,0,0,0,0,0,0,0,0,0,0,0,0,0,0,0,0,0,0,0,0,0,0,0,0,0,0,0,0,0,0,0,0,0,0,0,0,0,0,0,0,0,0,0,0,0,0,0,0,0,0,0,0,0,0,0,0,0,0,0,0,0,0],"trees":[{"base_weights":[-2.4389282E-2,-7.9038715E-1,1.4852514E0,-1.2168636E0,5.955644E-1,8.041457E-1,1.7258227E0,-1.6134788E0,-2.0072354E-1,-4.308992E-1,1.1381553E0,-2.678877E-1,1.1744816E0,1.3847632E0,9.4807096E-2,-8.5848264E-2,-4.9791536E-3,-5.1520474E-2,4.7587376E-2,-6.0625132E-2,2.0526683E-2,4.038552E-2,9.214582E-2,-6.672338E-2,3.523642E-2,-9.734391E-3,7.240029E-2,5.306166E-2,8.8948496E-2],"categories":[],"categories_nodes":[],"categories_segments":[],"categories_sizes":[],"default_left":[0,0,0,0,0,0,0,0,0,0,0,0,0,0,0,0,0,0,0,0,0,0,0,0,0,0,0,0,0],"id":0,"left_children":[1,3,5,7,9,11,13,15,17,19,21,23,25,27,-1,-1,-1,-1,-1,-1,-1,-1,-1,-1,-1,-1,-1,-1,-1],"loss_changes":[7.02519E2,2.3892813E2,3.2120453E1,1.24006744E2,5.3679115E1,2.2249557E1,6.1021423E0,3.457013E1,8.488623E1,2.2694016E1,1.3124977E1,1.650102E1,1.5730068E1,4.967247E0,0E0,0E0,0E0,0E0,0E0,0E0,0E0,0E0,0E0,0E0,0E0,0E0,0E0,0E0,0E0],"parents":[2147483647,0,0,1,1,2,2,3,3,4,4,5,5,6,6,7,7,8,8,9,9,10,10,11,11,12,12,13,13],"right_children":[2,4,6,8,10,12,14,16,18,20,22,24,26,28,-1,-1,-1,-1,-1,-1,-1,-1,-1,-1,-1,-1,-1,-1,-1],"split_conditions":[1E0,1E0,1E0,2E0,1E0,1E0,2E0,2E0,1E0,1E0,2E0,1E0,1E0,1E0,9.4807096E-2,-8.5848264E-2,-4.9791536E-3,-5.1520474E-2,4.7587376E-2,-6.0625132E-2,2.0526683E-2,4.038552E-2,9.214582E-2,-6.672338E-2,3.523642E-2,-9.734391E-3,7.240029E-2,5.306166E-2,8.8948496E-2],"split_indices":[8,43,6,165,152,10,86,105,105,77,150,37,70,37,0,0,0,0,0,0,0,0,0,0,0,0,0,0,0],"split_type":[0,0,0,0,0,0,0,0,0,0,0,0,0,0,0,0,0,0,0,0,0,0,0,0,0,0,0,0,0],"sum_hessian":[6.0549976E2,4.0199985E2,2.0349992E2,3.0749988E2,9.449996E1,5.4249977E1,1.4924994E2,2.2074991E2,8.674996E1,3.2749985E1,6.1749977E1,1.3999994E1,4.0249985E1,5.2749977E1,9.649996E1,2.0649991E2,1.4249994E1,5.049998E1,3.6249985E1,1.6749992E1,1.5999993E1,4.349998E1,1.8249992E1,6.499997E0,7.499997E0,6.749997E0,3.3499985E1,3.0999987E1,2.174999E1],"tree_param":{"num_deleted":"0","num_feature":"175","num_nodes":"29","size_leaf_vector":"1"}},{"base_weights":[4.0618703E-2,-6.821067E-1,1.4309245E0,-1.0832685E0,5.8585066E-1,7.622402E-1,1.6516566E0,-1.5137767E0,-6.4261146E-2,-5.634118E-1,1.1562029E0,-2.3037864E-1,1.1050302E0,1.1108078E0,1.736788E0,-8.072489E-2,1.7089702E-4,-4.4024054E-2,4.8245147E-2,-6.087615E-2,1.5649484E-2,3.9026506E-2,8.962876E-2,-5.333808E-2,4.239091E-2,-1.5187022E-2,6.6767655E-2,1.0273005E-2,7.153471E-2,4.473252E-2,8.803388E-2],"categories":[],"categories_nodes":[],"categories_segments":[],"categories_sizes":[],"default_left":[0,0,0,0,0,0,0,0,0,0,0,0,0,0,0,0,0,0,0,0,0,0,0,0,0,0,0,0,0,0,0],"id":1,"left_children":[1,3,5,7,9,11,13,15,17,19,21,23,25,27,29,-1,-1,-1,-1,-1,-1,-1,-1,-1,-1,-1,-1,-1,-1,-1,-1],"loss_changes":[6.195794E2,2.0702184E2,2.9868805E1,1.3527469E2,6.499923E1,1.869514E1,5.331665E0,3.3148987E1,7.871439E1,1.943195E1,1.4364029E1,1.4195924E1,1.3532593E1,6.7206116E0,1.1302185E0,0E0,0E0,0E0,0E0,0E0,0E0,0E0,0E0,0E0,0E0,0E0,0E0,0E0,0E0,0E0,0E0],"parents":[2147483647,0,0,1,1,2,2,3,3,4,4,5,5,6,6,7,7,8,8,9,9,10,10,11,11,12,12,13,13,14,14],"right_children":[2,4,6,8,10,12,14,16,18,20,22,24,26,28,30,-1,-1,-1,-1,-1,-1,-1,-1,-1,-1,-1,-1,-1,-1,-1,-1],"split_conditions":[1E0,1E0,1E0,2E0,1E0,1E0,1E0,2E0,1E0,1E0,2E0,2E0,1E0,1E0,1E0,-8.072489E-2,1.7089702E-4,-4.4024054E-2,4.8245147E-2,-6.087615E-2,1.5649484E-2,3.9026506E-2,8.962876E-2,-5.333808E-2,4.239091E-2,-1.5187022E-2,6.6767655E-2,1.0273005E-2,7.153471E-2,4.473252E-2,8.803388E-2],"split_indices":[8,43,6,165,150,165,88,105,141,77,165,99,111,167,164,0,0,0,0,0,0,0,0,0,0,0,0,0,0,0,0],"split_type":[0,0,0,0,0,0,0,0,0,0,0,0,0,0,0,0,0,0,0,0,0,0,0,0,0,0,0,0,0,0,0],"sum_hessian":[6.146426E2,4.0475E2,2.098926E2,3.0758163E2,9.7168335E1,5.319554E1,1.5669705E2,2.1588812E2,9.169353E1,3.223229E1,6.493605E1,1.3739097E1,3.9456444E1,2.3220844E1,1.334762E2,2.0238817E2,1.3499955E1,5.1217724E1,4.0475803E1,1.8233955E1,1.3998331E1,4.2231724E1,2.2704327E1,7.7431536E0,5.9959435E0,5.499568E0,3.3956875E1,6.491313E0,1.6729532E1,4.742573E0,1.2873363E2],"tree_param":{"num_deleted":"0","num_feature":"175","num_nodes":"31","size_leaf_vector":"1"}},{"base_weights":[-2.9274425E-2,-7.019827E-1,1.3372183E0,-1.0715984E0,4.4213456E-1,7.216648E-1,1.5442142E0,-1.4967394E0,-4.551022E-2,-5.502572E-1,9.4376016E-1,-3.3099368E-1,1.0887171E0,9.374124E-1,1.6573347E0,-8.1249475E-2,6.22502E-3,-3.699176E-2,4.718384E-2,-4.9406823E-2,2.6894791E-2,2.4499724E-2,8.089712E-2,-8.11974E-2,4.1978713E-2,3.0755426E-3,6.639781E-2,1.6738074E-2,6.478213E-2,8.395186E-2,1.7286357E-2],"categories":[],"categories_nodes":[],"categories_segments":[],"categories_sizes":[],"default_left":[0,0,0,0,0,0,0,0,0,0,0,0,0,0,0,0,0,0,0,0,0,0,0,0,0,0,0,0,0,0,0],"id":2,"left_children":[1,3,5,7,9,11,13,15,17,19,21,23,25,27,29,-1,-1,-1,-1,-1,-1,-1,-1,-1,-1,-1,-1,-1,-1,-1,-1],"loss_changes":[5.4483264E2,1.6841841E2,2.3799377E1,1.3100284E2,4.9145256E1,2.0097713E1,8.430115E0,4.436728E1,6.1860783E1,1.6459435E1,1.916903E1,2.2512615E1,9.283501E0,4.9971333E0,2.8720398E0,0E0,0E0,0E0,0E0,0E0,0E0,0E0,0E0,0E0,0E0,0E0,0E0,0E0,0E0,0E0,0E0],"parents":[2147483647,0,0,1,1,2,2,3,3,4,4,5,5,6,6,7,7,8,8,9,9,10,10,11,11,12,12,13,13,14,14],"right_children":[2,4,6,8,10,12,14,16,18,20,22,24,26,28,30,-1,-1,-1,-1,-1,-1,-1,-1,-1,-1,-1,-1,-1,-1,-1,-1],"split_conditions":[1E0,1E0,1E0,2E0,1E0,1E0,1E0,2E0,1E0,1E0,2E0,1E0,1E0,1E0,2E0,-8.1249475E-2,6.22502E-3,-3.699176E-2,4.718384E-2,-4.9406823E-2,2.6894791E-2,2.4499724E-2,8.089712E-2,-8.11974E-2,4.1978713E-2,3.0755426E-3,6.639781E-2,1.6738074E-2,6.478213E-2,8.395186E-2,1.7286357E-2],"split_indices":[8,37,6,165,152,10,64,105,105,48,10,37,70,167,36,0,0,0,0,0,0,0,0,0,0,0,0,0,0,0,0],"split_type":[0,0,0,0,0,0,0,0,0,0,0,0,0,0,0,0,0,0,0,0,0,0,0,0,0,0,0,0,0,0,0],"sum_hessian":[5.906708E2,3.9614136E2,1.9452943E2,2.9946146E2,9.66799E1,5.008267E1,1.4444676E2,2.1140921E2,8.8052246E1,3.242833E1,6.425158E1,1.2973781E1,3.710889E1,2.415597E1,1.20290794E2,1.9590927E2,1.5499952E1,5.188528E1,3.6166965E1,2.3188892E1,9.239435E0,3.943573E1,2.481585E1,5.980588E0,6.993193E0,7.247567E0,2.986132E1,9.726892E0,1.4429077E1,1.18057236E2,2.2335653E0],"tree_param":{"num_deleted":"0","num_feature":"175","num_nodes":"31","size_leaf_vector":"1"}},{"base_weights":[3.0474598E-2,-6.590818E-1,1.0901519E0,-1.0476364E0,6.0140574E-1,4.1190886E-1,1.4756483E0,-1.4513397E0,-1.0928122E-1,-7.14153E-1,1.1429383E0,4.7547635E-2,1.1498476E0,1.0524081E0,1.6219002E0,-8.062568E-2,1.1816098E-2,-4.0236708E-2,3.912919E-2,-6.7517735E-2,9.727053E-3,3.2878593E-2,7.3651485E-2,-2.8354168E-2,4.564864E-2,1.7372096E-3,6.803709E-2,2.6495883E-2,7.379895E-2,2.999333E-2,8.2203425E-2],"categories":[],"categories_nodes":[],"categories_segments":[],"categories_sizes":[],"default_left":[0,0,0,0,0,0,0,0,0,0,0,0,0,0,0,0,0,0,0,0,0,0,0,0,0,0,0,0,0,0,0],"id":3,"left_children":[1,3,5,7,9,11,13,15,17,19,21,23,25,27,29,-1,-1,-1,-1,-1,-1,-1,-1,-1,-1,-1,-1,-1,-1,-1,-1],"loss_changes":[4.4933777E2,1.8309436E2,6.277002E1,1.07855316E2,6.3806602E1,2.393776E1,7.836029E0,5.458722E1,5.450005E1,1.552388E1,9.128059E0,3.2847645E1,6.8789673E0,8.610302E0,1.56781E0,0E0,0E0,0E0,0E0,0E0,0E0,0E0,0E0,0E0,0E0,0E0,0E0,0E0,0E0,0E0,0E0],"parents":[2147483647,0,0,1,1,2,2,3,3,4,4,5,5,6,6,7,7,8,8,9,9,10,10,11,11,12,12,13,13,14,14],"right_children":[2,4,6,8,10,12,14,16,18,20,22,24,26,28,30,-1,-1,-1,-1,-1,-1,-1,-1,-1,-1,-1,-1,-1,-1,-1,-1],"split_conditions":[1E0,1E0,1E0,2E0,1E0,1E0,1E0,2E0,1E0,1E0,2E0,1E0,1E0,1E0,1E0,-8.062568E-2,1.1816098E-2,-4.0236708E-2,3.912919E-2,-6.7517735E-2,9.727053E-3,3.2878593E-2,7.3651485E-2,-2.8354168E-2,4.564864E-2,1.7372096E-3,6.803709E-2,2.6495883E-2,7.379895E-2,2.999333E-2,8.2203425E-2],"split_indices":[9,43,6,152,150,105,10,105,105,77,127,34,10,77,164,0,0,0,0,0,0,0,0,0,0,0,0,0,0,0,0],"split_type":[0,0,0,0,0,0,0,0,0,0,0,0,0,0,0,0,0,0,0,0,0,0,0,0,0,0,0,0,0,0,0],"sum_hessian":[6.129521E2,3.715524E2,2.4139967E2,2.8413467E2,8.741773E1,8.823223E1,1.5316743E2,1.9828215E2,8.5852516E1,2.539828E1,6.2019455E1,5.977998E1,2.8452251E1,4.1439896E1,1.1172754E2,1.8103737E2,1.7244781E1,4.8292774E1,3.7559742E1,1.465316E1,1.0745118E1,2.6316202E1,3.570325E1,3.5156395E1,2.4623585E1,4.7104564E0,2.3741796E1,1.956133E1,2.1878565E1,2.9676626E0,1.0875988E2],"tree_param":{"num_deleted":"0","num_feature":"175","num_nodes":"31","size_leaf_vector":"1"}},{"base_weights":[-1.051678E-2,-6.0767907E-1,1.2475009E0,-9.8867124E-1,5.451918E-1,6.530908E-1,1.4566909E0,-1.4115859E0,-3.1382728E-1,-4.5173147E-1,1.033836E0,-5.299805E-1,1.0577829E0,1.12399E0,1.5750628E0,-8.0340974E-2,-4.1691817E-2,-3.8775753E-2,3.80808E-2,-5.972449E-2,1.5979642E-2,3.319478E-2,7.8178816E-2,-6.4676605E-2,3.1033901E-2,-1.2270607E-2,6.336873E-2,1.004543E-2,6.569321E-2,2.8945222E-2,7.994894E-2],"categories":[],"categories_nodes":[],"categories_segments":[],"categories_sizes":[],"default_left":[0,0,0,0,0,0,0,0,0,0,0,0,0,0,0,0,0,0,0,0,0,0,0,0,0,0,0,0,0,0,0],"id":4,"left_children":[1,3,5,7,9,11,13,15,17,19,21,23,25,27,29,-1,-1,-1,-1,-1,-1,-1,-1,-1,-1,-1,-1,-1,-1,-1,-1],"loss_changes":[4.493493E2,1.7869061E2,2.2989777E1,8.666324E1,4.9857887E1,2.5425335E1,3.8063965E0,1.979123E1,5.961057E1,1.988677E1,1.2355423E1,1.3017979E1,1.0971752E1,6.8611183E0,1.5032654E0,0E0,0E0,0E0,0E0,0E0,0E0,0E0,0E0,0E0,0E0,0E0,0E0,0E0,0E0,0E0,0E0],"parents":[2147483647,0,0,1,1,2,2,3,3,4,4,5,5,6,6,7,7,8,8,9,9,10,10,11,11,12,12,13,13,14,14],"right_children":[2,4,6,8,10,12,14,16,18,20,22,24,26,28,30,-1,-1,-1,-1,-1,-1,-1,-1,-1,-1,-1,-1,-1,-1,-1,-1],"split_conditions":[1E0,1E0,1E0,1E0,1E0,1E0,1E0,2E0,2E0,1E0,2E0,1E0,1E0,2E0,1E0,-8.0340974E-2,-4.1691817E-2,-3.8775753E-2,3.80808E-2,-5.972449E-2,1.5979642E-2,3.319478E-2,7.8178816E-2,-6.4676605E-2,3.1033901E-2,-1.2270607E-2,6.336873E-2,1.004543E-2,6.569321E-2,2.8945222E-2,7.994894E-2],"split_indices":[8,43,6,105,152,10,10,150,152,77,10,34,70,95,164,0,0,0,0,0,0,0,0,0,0,0,0,0,0,0,0],"split_type":[0,0,0,0,0,0,0,0,0,0,0,0,0,0,0,0,0,0,0,0,0,0,0,0,0,0,0,0,0,0,0],"sum_hessian":[5.961338E2,4.0459534E2,1.9153845E2,3.0420602E2,1.0038931E2,5.0933556E1,1.4060489E2,1.8633864E2,1.178674E2,3.3045666E1,6.734364E1,1.29031315E1,3.8030422E1,3.96522E1,1.0095269E2,1.3794353E2,4.8395115E1,8.266025E1,3.520715E1,1.655508E1,1.6490585E1,4.0979294E1,2.6364351E1,7.6816144E0,5.221517E0,5.2453127E0,3.278511E1,7.115926E0,3.2536274E1,2.9578245E0,9.7994865E1],"tree_param":{"num_deleted":"0","num_feature":"175","num_nodes":"31","size_leaf_vector":"1"}},{"base_weights":[7.3559703E-3,-5.402661E-1,1.184665E0,-9.214325E-1,5.7211006E-1,5.668404E-1,1.3900322E0,-1.2615234E0,-7.2509E-2,-2.5830144E-1,9.821899E-1,-7.364344E-1,9.4250053E-1,1.0370991E0,1.5292646E0,-7.037773E-2,1.9783743E-2,-3.3798877E-2,3.792377E-2,-4.988437E-2,2.316627E-2,3.3032965E-2,7.3607914E-2,-7.8016356E-2,3.3967596E-2,1.0948955E-2,5.8615178E-2,2.4963858E-2,7.390665E-2,3.25323E-2,7.776146E-2],"categories":[],"categories_nodes":[],"categories_segments":[],"categories_sizes":[],"default_left":[0,0,0,0,0,0,0,0,0,0,0,0,0,0,0,0,0,0,0,0,0,0,0,0,0,0,0,0,0,0,0],"id":5,"left_children":[1,3,5,7,9,11,13,15,17,19,21,23,25,27,29,-1,-1,-1,-1,-1,-1,-1,-1,-1,-1,-1,-1,-1,-1,-1,-1],"loss_changes":[3.8818323E2,1.747721E2,2.3465118E1,8.838638E1,3.6178963E1,2.4867813E1,5.4298096E0,5.349298E1,4.5001602E1,1.9492584E1,1.0185921E1,1.4601529E1,6.1888924E0,9.579449E0,1.2756653E0,0E0,0E0,0E0,0E0,0E0,0E0,0E0,0E0,0E0,0E0,0E0,0E0,0E0,0E0,0E0,0E0],"parents":[2147483647,0,0,1,1,2,2,3,3,4,4,5,5,6,6,7,7,8,8,9,9,10,10,11,11,12,12,13,13,14,14],"right_children":[2,4,6,8,10,12,14,16,18,20,22,24,26,28,30,-1,-1,-1,-1,-1,-1,-1,-1,-1,-1,-1,-1,-1,-1,-1,-1],"split_conditions":[1E0,1E0,1E0,2E0,1E0,1E0,1E0,2E0,1E0,1E0,2E0,1E0,2E0,1E0,1E0,-7.037773E-2,1.9783743E-2,-3.3798877E-2,3.792377E-2,-4.988437E-2,2.316627E-2,3.3032965E-2,7.3607914E-2,-7.8016356E-2,3.3967596E-2,1.0948955E-2,5.8615178E-2,2.4963858E-2,7.390665E-2,3.25323E-2,7.776146E-2],"split_indices":[8,43,6,150,150,10,10,105,105,77,10,34,95,77,161,0,0,0,0,0,0,0,0,0,0,0,0,0,0,0,0],"split_type":[0,0,0,0,0,0,0,0,0,0,0,0,0,0,0,0,0,0,0,0,0,0,0,0,0,0,0,0,0,0,0],"sum_hessian":[6.001028E2,4.0995462E2,1.9014816E2,3.054581E2,1.0449652E2,4.8375603E1,1.4177255E2,2.1774167E2,8.771643E1,3.4666664E1,6.982986E1,1.0609113E1,3.7766487E1,4.249724E1,9.927532E1,2.002467E2,1.7494965E1,5.0922543E1,3.6793888E1,1.693369E1,1.7732975E1,4.3579903E1,2.6249954E1,6.641887E0,3.967225E0,9.5745325E0,2.8191956E1,2.0108204E1,2.2389032E1,3.5975049E0,9.567782E1],"tree_param":{"num_deleted":"0","num_feature":"175","num_nodes":"31","size_leaf_vector":"1"}},{"base_weights":[-1.654746E-2,-5.817841E-1,1.1400156E0,-9.1567314E-1,4.463168E-1,7.728901E-1,1.4408859E0,-1.2460984E0,-8.716413E-2,-3.1575307E-1,8.623609E-1,1.48725E-1,1.1080165E0,1.2656441E-3,1.4572144E0,-6.4673446E-2,3.726414E-2,-3.3581883E-2,3.581821E-2,-3.654931E-2,3.060974E-2,-6.2078584E-2,4.621914E-2,-2.3141416E-2,5.657026E-2,2.9763058E-2,6.9069915E-2,7.356902E-2,2.3153646E-2],"categories":[],"categories_nodes":[],"categories_segments":[],"categories_sizes":[],"default_left":[0,0,0,0,0,0,0,0,0,0,0,0,0,0,0,0,0,0,0,0,0,0,0,0,0,0,0,0,0],"id":6,"left_children":[1,3,5,7,9,11,13,15,17,19,21,23,25,-1,27,-1,-1,-1,-1,-1,-1,-1,-1,-1,-1,-1,-1,-1,-1],"loss_changes":[3.83215E2,1.3556802E2,2.014302E1,8.134657E1,3.1088905E1,1.8417114E1,2.3810272E0,2.1022339E1,4.0826992E1,1.3955238E1,9.386845E0,1.9868122E1,7.2583313E0,0E0,7.7479553E-1,0E0,0E0,0E0,0E0,0E0,0E0,0E0,0E0,0E0,0E0,0E0,0E0,0E0,0E0],"parents":[2147483647,0,0,1,1,2,2,3,3,4,4,5,5,6,6,7,7,8,8,9,9,10,10,11,11,12,12,14,14],"right_children":[2,4,6,8,10,12,14,16,18,20,22,24,26,-1,28,-1,-1,-1,-1,-1,-1,-1,-1,-1,-1,-1,-1,-1,-1],"split_conditions":[1E0,1E0,2E0,2E0,1E0,1E0,1E0,2E0,1E0,1E0,1E0,1E0,1E0,1.2656441E-3,1E0,-6.4673446E-2,3.726414E-2,-3.3581883E-2,3.581821E-2,-3.654931E-2,3.060974E-2,-6.2078584E-2,4.621914E-2,-2.3141416E-2,5.657026E-2,2.9763058E-2,6.9069915E-2,7.356902E-2,2.3153646E-2],"split_indices":[8,43,86,152,152,10,137,48,105,128,161,27,12,0,106,0,0,0,0,0,0,0,0,0,0,0,0,0,0],"split_type":[0,0,0,0,0,0,0,0,0,0,0,0,0,0,0,0,0,0,0,0,0,0,0,0,0,0,0,0,0],"sum_hessian":[5.841814E2,3.927387E2,1.9144267E2,2.9654218E2,9.619653E1,8.783463E1,1.0360805E2,2.1163434E2,8.4907845E1,3.405637E1,6.2140163E1,3.1189219E1,5.6645412E1,1.2105578E0,1.0239749E2,2.0705934E2,4.5750046E0,4.9249035E1,3.5658813E1,2.3674768E1,1.0381602E1,1.2347915E0,6.090537E1,1.9551014E1,1.1638206E1,2.0803585E1,3.5841827E1,1.0048557E2,1.9119178E0],"tree_param":{"num_deleted":"0","num_feature":"175","num_nodes":"29","size_leaf_vector":"1"}},{"base_weights":[2.6924549E-2,-5.170878E-1,1.140463E0,-8.2685286E-1,3.982008E-1,7.719122E-1,1.407075E0,-1.2007685E0,-2.0924184E-2,-4.7536469E-1,8.5797197E-1,3.456574E-1,1.251974E0,1.4351597E0,8.949131E-2,-6.581418E-2,7.2411187E-3,-2.9847616E-2,3.5017874E-2,-5.6302972E-2,1.0081673E-2,-1.0942089E-3,5.44337E-2,-2.5768569E-2,3.9468575E-2,4.577154E-2,7.053129E-2,1.6358247E-2,7.2566465E-2,-1.3397124E-3,8.209213E-3],"categories":[],"categories_nodes":[],"categories_segments":[],"categories_sizes":[],"default_left":[0,0,0,0,0,0,0,0,0,0,0,0,0,0,0,0,0,0,0,0,0,0,0,0,0,0,0,0,0,0,0],"id":7,"left_children":[1,3,5,7,9,11,13,15,17,19,21,23,25,27,29,-1,-1,-1,-1,-1,-1,-1,-1,-1,-1,-1,-1,-1,-1,-1,-1],"loss_changes":[3.5766553E2,1.12797295E2,1.7953812E1,8.9385284E1,4.096485E1,1.666423E1,3.987091E0,3.1690094E1,3.9908386E1,1.5849454E1,1.3525307E1,1.7842543E1,7.864151E-1,1.4749908E0,3.3823684E-2,0E0,0E0,0E0,0E0,0E0,0E0,0E0,0E0,0E0,0E0,0E0,0E0,0E0,0E0,0E0,0E0],"parents":[2147483647,0,0,1,1,2,2,3,3,4,4,5,5,6,6,7,7,8,8,9,9,10,10,11,11,12,12,13,13,14,14],"right_children":[2,4,6,8,10,12,14,16,18,20,22,24,26,28,30,-1,-1,-1,-1,-1,-1,-1,-1,-1,-1,-1,-1,-1,-1,-1,-1],"split_conditions":[1E0,1E0,2E0,2E0,1E0,1E0,1E0,2E0,1E0,1E0,2E0,1E0,1E0,1E0,1E0,-6.581418E-2,7.2411187E-3,-2.9847616E-2,3.5017874E-2,-5.6302972E-2,1.0081673E-2,-1.0942089E-3,5.44337E-2,-2.5768569E-2,3.9468575E-2,4.577154E-2,7.053129E-2,1.6358247E-2,7.2566465E-2,-1.3397124E-3,8.209213E-3],"split_indices":[8,43,86,165,152,43,106,141,141,77,163,10,10,53,154,0,0,0,0,0,0,0,0,0,0,0,0,0,0,0,0],"split_type":[0,0,0,0,0,0,0,0,0,0,0,0,0,0,0,0,0,0,0,0,0,0,0,0,0,0,0,0,0,0,0],"sum_hessian":[5.884493E2,3.9567856E2,1.927707E2,2.9570013E2,9.997844E1,8.255131E1,1.1021939E2,2.0165234E2,9.4047775E1,3.4463623E1,6.551482E1,4.463721E1,3.79141E1,1.078317E2,2.3876896E0,1.8572977E2,1.5922582E1,5.238476E1,4.1663013E1,1.723497E1,1.7228651E1,1.3797763E1,5.1717056E1,1.5125203E1,2.9512007E1,1.4316023E1,2.3598078E1,1.8564254E0,1.0597527E2,1.1846478E0,1.2030418E0],"tree_param":{"num_deleted":"0","num_feature":"175","num_nodes":"31","size_leaf_vector":"1"}},{"base_weights":[-1.614612E-2,-5.7475764E-1,8.7695545E-1,-8.8426435E-1,3.9737648E-1,3.0217445E-1,1.238896E0,-1.2155321E0,-1.7453524E-1,-8.5016817E-1,8.452803E-1,-4.6035522E-1,7.5423026E-1,6.528954E-1,1.3613746E0,-6.726647E-2,7.438354E-3,-3.921244E-2,3.142611E-2,-6.2940165E-2,7.135533E-2,1.829091E-2,6.0810823E-2,-4.4761974E-2,2.0923166E-2,4.5269944E-2,-7.165205E-2,-9.101502E-3,5.0497483E-2,2.3658147E-2,6.903825E-2],"categories":[],"categories_nodes":[],"categories_segments":[],"categories_sizes":[],"default_left":[0,0,0,0,0,0,0,0,0,0,0,0,0,0,0,0,0,0,0,0,0,0,0,0,0,0,0,0,0,0,0],"id":8,"left_children":[1,3,5,7,9,11,13,15,17,19,21,23,25,27,29,-1,-1,-1,-1,-1,-1,-1,-1,-1,-1,-1,-1,-1,-1,-1,-1],"loss_changes":[2.857003E2,1.0634865E2,4.5469666E1,6.2685394E1,4.8642387E1,3.0153831E1,8.792969E0,3.246881E1,4.274814E1,2.334479E1,1.0867935E1,1.2911831E1,1.937248E1,7.7087307E0,1.2524414E0,0E0,0E0,0E0,0E0,0E0,0E0,0E0,0E0,0E0,0E0,0E0,0E0,0E0,0E0,0E0,0E0],"parents":[2147483647,0,0,1,1,2,2,3,3,4,4,5,5,6,6,7,7,8,8,9,9,10,10,11,11,12,12,13,13,14,14],"right_children":[2,4,6,8,10,12,14,16,18,20,22,24,26,28,30,-1,-1,-1,-1,-1,-1,-1,-1,-1,-1,-1,-1,-1,-1,-1,-1],"split_conditions":[1E0,1E0,1E0,2E0,1E0,1E0,1E0,2E0,1E0,2E0,2E0,1E0,2E0,1E0,1E0,-6.726647E-2,7.438354E-3,-3.921244E-2,3.142611E-2,-6.2940165E-2,7.135533E-2,1.829091E-2,6.0810823E-2,-4.4761974E-2,2.0923166E-2,4.5269944E-2,-7.165205E-2,-9.101502E-3,5.0497483E-2,2.3658147E-2,6.903825E-2],"split_indices":[9,37,6,165,10,148,64,105,105,77,127,27,82,167,164,0,0,0,0,0,0,0,0,0,0,0,0,0,0,0,0],"split_type":[0,0,0,0,0,0,0,0,0,0,0,0,0,0,0,0,0,0,0,0,0,0,0,0,0,0,0,0,0,0,0],"sum_hessian":[5.7065375E2,3.512885E2,2.1936528E2,2.6652353E2,8.4764984E1,8.5469696E1,1.3389558E2,1.8122408E2,8.529944E1,2.2155964E1,6.2609016E1,3.1804081E1,5.3665615E1,2.424167E1,1.0965391E2,1.6549321E2,1.5730871E1,4.8499836E1,3.6799606E1,1.916434E1,2.991624E0,2.8175861E1,3.443316E1,2.1263252E1,1.0540828E1,5.074457E1,2.921043E0,7.408363E0,1.6833307E1,2.8853815E0,1.06768524E2],"tree_param":{"num_deleted":"0","num_feature":"175","num_nodes":"31","size_leaf_vector":"1"}},{"base_weights":[-8.945805E-3,-5.145846E-1,1.022584E0,-7.898083E-1,3.3267027E-1,4.8130462E-1,1.211704E0,-1.108737E0,-8.519351E-2,-5.541399E-1,7.2619796E-1,-7.9005456E-1,8.8188154E-1,9.321753E-1,1.3918846E0,-6.0228426E-2,1.5423938E-3,-3.3038214E-2,3.1989075E-2,-4.575785E-2,2.4800707E-2,2.0338425E-2,6.736635E-2,-7.269107E-2,9.011857E-3,-1.8536929E-2,5.5164814E-2,2.4591895E-2,5.9014022E-2,7.073856E-2,1.1796863E-2],"categories":[],"categories_nodes":[],"categories_segments":[],"categories_sizes":[],"default_left":[0,0,0,0,0,0,0,0,0,0,0,0,0,0,0,0,0,0,0,0,0,0,0,0,0,0,0,0,0,0,0],"id":9,"left_children":[1,3,5,7,9,11,13,15,17,19,21,23,25,27,29,-1,-1,-1,-1,-1,-1,-1,-1,-1,-1,-1,-1,-1,-1,-1,-1],"loss_changes":[2.9345474E2,8.829981E1,1.8362213E1,6.401155E1,3.295369E1,2.5946457E1,5.5771484E0,2.1474396E1,3.7965225E1,1.1538062E1,1.2355953E1,8.252183E0,1.09963665E1,5.594944E0,1.8082733E0,0E0,0E0,0E0,0E0,0E0,0E0,0E0,0E0,0E0,0E0,0E0,0E0,0E0,0E0,0E0,0E0],"parents":[2147483647,0,0,1,1,2,2,3,3,4,4,5,5,6,6,7,7,8,8,9,9,10,10,11,11,12,12,13,13,14,14],"right_children":[2,4,6,8,10,12,14,16,18,20,22,24,26,28,30,-1,-1,-1,-1,-1,-1,-1,-1,-1,-1,-1,-1,-1,-1,-1,-1],"split_conditions":[1E0,1E0,1E0,2E0,1E0,1E0,2E0,2E0,1E0,1E0,2E0,1E0,1E0,1E0,2E0,-6.0228426E-2,1.5423938E-3,-3.3038214E-2,3.1989075E-2,-4.575785E-2,2.4800707E-2,2.0338425E-2,6.736635E-2,-7.269107E-2,9.011857E-3,-1.8536929E-2,5.5164814E-2,2.4591895E-2,5.9014022E-2,7.073856E-2,1.1796863E-2],"split_indices":[8,43,6,165,150,10,86,141,105,128,10,37,111,10,29,0,0,0,0,0,0,0,0,0,0,0,0,0,0,0,0],"split_type":[0,0,0,0,0,0,0,0,0,0,0,0,0,0,0,0,0,0,0,0,0,0,0,0,0,0,0,0,0,0,0],"sum_hessian":[5.606161E2,3.7654242E2,1.840737E2,2.842681E2,9.227431E1,4.8579533E1,1.3549417E2,1.9529738E2,8.897072E1,2.8236204E1,6.40381E1,1.1406155E1,3.7173378E1,5.5525883E1,7.9968285E1,1.8009554E2,1.5201842E1,4.9645126E1,3.9325596E1,2.1108257E1,7.127948E0,4.338254E1,2.0655561E1,6.4769826E0,4.929172E0,5.48251E0,3.1690866E1,2.1085567E1,3.4440315E1,7.8196175E1,1.7721144E0],"tree_param":{"num_deleted":"0","num_feature":"175","num_nodes":"31","size_leaf_vector":"1"}},{"base_weights":[-3.1086921E-3,-5.643512E-1,8.712937E-1,-8.49789E-1,3.4145042E-1,3.9597127E-1,1.2738835E0,-1.1148652E0,-2.083568E-1,3.102772E-3,1.3051412E0,-2.2718671E-1,7.516356E-1,8.9052063E-1,6.8822525E-2,-6.2486943E-2,1.227352E-2,-3.9478388E-2,1.8782131E-2,-3.235376E-2,3.560515E-2,6.916078E-2,1.5823314E-2,-4.7918584E-2,2.9483115E-2,2.1505583E-2,6.2218655E-2,4.631369E-3,6.993857E-2],"categories":[],"categories_nodes":[],"categories_segments":[],"categories_sizes":[],"default_left":[0,0,0,0,0,0,0,0,0,0,0,0,0,0,0,0,0,0,0,0,0,0,0,0,0,0,0,0,0],"id":10,"left_children":[1,3,5,7,9,11,13,15,17,19,21,23,25,27,-1,-1,-1,-1,-1,-1,-1,-1,-1,-1,-1,-1,-1,-1,-1],"loss_changes":[2.7208716E2,8.759751E1,4.0972214E1,4.3474228E1,2.6611269E1,2.2521755E1,3.370819E0,3.363617E1,2.622752E1,2.8772738E1,1.1993904E0,2.2909632E1,9.672974E0,1.1025454E1,0E0,0E0,0E0,0E0,0E0,0E0,0E0,0E0,0E0,0E0,0E0,0E0,0E0,0E0,0E0],"parents":[2147483647,0,0,1,1,2,2,3,3,4,4,5,5,6,6,7,7,8,8,9,9,10,10,11,11,12,12,13,13],"right_children":[2,4,6,8,10,12,14,16,18,20,22,24,26,28,-1,-1,-1,-1,-1,-1,-1,-1,-1,-1,-1,-1,-1,-1,-1],"split_conditions":[1E0,1E0,2E0,2E0,2E0,1E0,1E0,2E0,1E0,1E0,1E0,1E0,1E0,1E0,6.8822525E-2,-6.2486943E-2,1.227352E-2,-3.9478388E-2,1.8782131E-2,-3.235376E-2,3.560515E-2,6.916078E-2,1.5823314E-2,-4.7918584E-2,2.9483115E-2,2.1505583E-2,6.2218655E-2,4.631369E-3,6.993857E-2],"split_indices":[9,43,85,152,10,10,6,105,77,77,107,37,107,98,0,0,0,0,0,0,0,0,0,0,0,0,0,0,0],"split_type":[0,0,0,0,0,0,0,0,0,0,0,0,0,0,0,0,0,0,0,0,0,0,0,0,0,0,0,0,0],"sum_hessian":[5.524273E2,3.3668063E2,2.1574667E2,2.560542E2,8.062643E1,9.984594E1,1.1590074E2,1.8065797E2,7.539621E1,6.041737E1,2.0209059E1,3.6411224E1,6.3434715E1,2.650727E1,8.939347E1,1.6443591E2,1.6222067E1,3.76119E1,3.778431E1,3.1561613E1,2.8855759E1,1.836012E1,1.8489373E0,1.9121641E1,1.7289583E1,3.951987E1,2.3914843E1,1.077463E1,1.573264E1],"tree_param":{"num_deleted":"0","num_feature":"175","num_nodes":"29","size_leaf_vector":"1"}},{"base_weights":[3.211432E-3,-4.8655275E-1,9.846154E-1,-7.658249E-1,3.6798418E-1,3.776941E-1,1.1784307E0,-1.1317993E0,-2.0610997E-1,-7.0317227E-1,8.579342E-1,4.4757575E-2,6.1756786E-2,6.167525E-1,1.284044E0,-6.706577E-2,-2.9714106E-2,-6.035427E-2,7.910205E-3,-5.13344E-2,2.0010645E-2,-3.7429554E-3,5.097111E-2,-1.9180771E-2,3.2602463E-2,4.4200476E-2,-2.2254184E-2,6.488327E-2,1.3432409E-2],"categories":[],"categories_nodes":[],"categories_segments":[],"categories_sizes":[],"default_left":[0,0,0,0,0,0,0,0,0,0,0,0,0,0,0,0,0,0,0,0,0,0,0,0,0,0,0,0,0],"id":11,"left_children":[1,3,5,7,9,11,13,15,17,19,21,23,-1,25,27,-1,-1,-1,-1,-1,-1,-1,-1,-1,-1,-1,-1,-1,-1],"loss_changes":[2.6590524E2,8.835449E1,2.1218689E1,5.6809128E1,4.8663986E1,1.3090454E1,7.460724E0,1.8140137E1,4.078493E1,1.0866597E1,9.609402E0,9.149014E0,0E0,7.1880465E0,1.2582245E0,0E0,0E0,0E0,0E0,0E0,0E0,0E0,0E0,0E0,0E0,0E0,0E0,0E0,0E0],"parents":[2147483647,0,0,1,1,2,2,3,3,4,4,5,5,6,6,7,7,8,8,9,9,10,10,11,11,13,13,14,14],"right_children":[2,4,6,8,10,12,14,16,18,20,22,24,-1,26,28,-1,-1,-1,-1,-1,-1,-1,-1,-1,-1,-1,-1,-1,-1],"split_conditions":[1E0,1E0,1E0,1E0,1E0,2E0,1E0,2E0,1E0,1E0,2E0,1E0,6.1756786E-2,1E0,2E0,-6.706577E-2,-2.9714106E-2,-6.035427E-2,7.910205E-3,-5.13344E-2,2.0010645E-2,-3.7429554E-3,5.097111E-2,-1.9180771E-2,3.2602463E-2,4.4200476E-2,-2.2254184E-2,6.488327E-2,1.3432409E-2],"split_indices":[8,34,6,141,152,10,88,152,10,128,135,77,0,22,68,0,0,0,0,0,0,0,0,0,0,0,0,0,0],"split_type":[0,0,0,0,0,0,0,0,0,0,0,0,0,0,0,0,0,0,0,0,0,0,0,0,0,0,0,0,0],"sum_hessian":[5.5121594E2,3.680479E2,1.8316803E2,2.774711E2,9.057682E1,4.5048866E1,1.3811917E2,1.6715393E2,1.1031716E2,2.8290764E1,6.228606E1,3.320707E1,1.1841796E1,2.2942894E1,1.1517627E2,1.1919727E2,4.7956654E1,2.8819765E1,8.14974E1,2.1930258E1,6.3605056E0,9.271E0,5.301506E1,1.9687893E1,1.3519179E1,1.8463282E1,4.479612E0,1.1337735E2,1.7989252E0],"tree_param":{"num_deleted":"0","num_feature":"175","num_nodes":"29","size_leaf_vector":"1"}},{"base_weights":[2.9426266E-3,-4.972582E-1,8.13498E-1,-8.0716175E-1,4.2492348E-1,1.5335271E-1,1.0216209E0,-9.5107347E-1,5.862888E-1,-4.6149322E-1,8.417635E-1,-5.5689406E-1,7.26842E-1,5.960365E-1,1.1672852E0,-6.0254823E-2,-1.8862536E-2,-5.2198537E-2,5.1830556E-2,-4.0439364E-2,6.515839E-2,2.4080243E-2,6.807859E-2,-4.3314192E-2,5.5550702E-2,1.6540227E-3,5.2410867E-2,-1.41562745E-2,4.370882E-2,4.8215467E-2,6.887062E-2],"categories":[],"categories_nodes":[],"categories_segments":[],"categories_sizes":[],"default_left":[0,0,0,0,0,0,0,0,0,0,0,0,0,0,0,0,0,0,0,0,0,0,0,0,0,0,0,0,0,0,0],"id":12,"left_children":[1,3,5,7,9,11,13,15,17,19,21,23,25,27,29,-1,-1,-1,-1,-1,-1,-1,-1,-1,-1,-1,-1,-1,-1,-1,-1],"loss_changes":[2.2032077E2,9.63796E1,2.8334305E1,5.1064697E1,3.1861607E1,2.1130453E1,9.0673065E0,3.2876953E1,1.8845078E1,1.814653E1,1.0256756E1,1.2984729E1,6.338731E0,1.0567079E1,3.631424E0,0E0,0E0,0E0,0E0,0E0,0E0,0E0,0E0,0E0,0E0,0E0,0E0,0E0,0E0,0E0,0E0],"parents":[2147483647,0,0,1,1,2,2,3,3,4,4,5,5,6,6,7,7,8,8,9,9,10,10,11,11,12,12,13,13,14,14],"right_children":[2,4,6,8,10,12,14,16,18,20,22,24,26,28,30,-1,-1,-1,-1,-1,-1,-1,-1,-1,-1,-1,-1,-1,-1,-1,-1],"split_conditions":[1E0,1E0,1E0,2E0,1E0,1E0,1E0,2E0,1E0,2E0,2E0,2E0,1E0,1E0,1E0,-6.0254823E-2,-1.8862536E-2,-5.2198537E-2,5.1830556E-2,-4.0439364E-2,6.515839E-2,2.4080243E-2,6.807859E-2,-4.3314192E-2,5.5550702E-2,1.6540227E-3,5.2410867E-2,-1.41562745E-2,4.370882E-2,4.8215467E-2,6.887062E-2],"split_indices":[9,43,64,105,152,7,10,152,10,77,10,10,167,62,12,0,0,0,0,0,0,0,0,0,0,0,0,0,0,0,0],"split_type":[0,0,0,0,0,0,0,0,0,0,0,0,0,0,0,0,0,0,0,0,0,0,0,0,0,0,0,0,0,0,0],"sum_hessian":[5.4141315E2,3.350422E2,2.0637094E2,2.5086316E2,8.417903E1,4.9883175E1,1.5648776E2,2.2766774E2,2.3195427E1,2.688997E1,5.7289062E1,2.2297466E1,2.7585707E1,4.120167E1,1.15286095E2,1.5704573E2,7.062201E1,4.7351036E0,1.8460323E1,2.2920732E1,3.9692388E0,3.497943E1,2.2309631E1,1.9213974E1,3.0834923E0,9.082342E0,1.8503366E1,9.897886E0,3.1303783E1,6.1483852E1,5.3802246E1],"tree_param":{"num_deleted":"0","num_feature":"175","num_nodes":"31","size_leaf_vector":"1"}},{"base_weights":[3.566108E-2,-4.4593444E-1,7.9757196E-1,-7.149926E-1,3.8753787E-1,3.1929412E-1,1.106204E0,-1.0361698E0,5.7244476E-2,-4.3477705E-1,7.6493746E-1,-1.1752979E-2,9.473035E-1,8.4613544E-1,6.368141E-2,-5.902623E-2,1.5438439E-2,-5.0009813E-2,1.9795392E-2,-5.213488E-2,1.7699108E-2,1.50508005E-2,5.4943986E-2,-1.3686003E-2,5.4837454E-2,-1.8388245E-2,5.2486278E-2,4.3450356E-3,5.416989E-2],"categories":[],"categories_nodes":[],"categories_segments":[],"categories_sizes":[],"default_left":[0,0,0,0,0,0,0,0,0,0,0,0,0,0,0,0,0,0,0,0,0,0,0,0,0,0,0,0,0],"id":13,"left_children":[1,3,5,7,9,11,13,15,17,19,21,23,25,27,-1,-1,-1,-1,-1,-1,-1,-1,-1,-1,-1,-1,-1,-1,-1],"loss_changes":[1.9825821E2,7.452773E1,3.053305E1,6.222754E1,2.5609825E1,1.7364845E1,4.4420624E0,3.474411E1,2.7102142E1,1.2960667E1,8.374367E0,1.6459398E1,4.268528E0,9.385998E0,0E0,0E0,0E0,0E0,0E0,0E0,0E0,0E0,0E0,0E0,0E0,0E0,0E0,0E0,0E0],"parents":[2147483647,0,0,1,1,2,2,3,3,4,4,5,5,6,6,7,7,8,8,9,9,10,10,11,11,12,12,13,13],"right_children":[2,4,6,8,10,12,14,16,18,20,22,24,26,28,-1,-1,-1,-1,-1,-1,-1,-1,-1,-1,-1,-1,-1,-1,-1],"split_conditions":[1E0,1E0,1E0,2E0,1E0,1E0,2E0,2E0,2E0,1E0,2E0,2E0,1E0,1E0,6.368141E-2,-5.902623E-2,1.5438439E-2,-5.0009813E-2,1.9795392E-2,-5.213488E-2,1.7699108E-2,1.50508005E-2,5.4943986E-2,-1.3686003E-2,5.4837454E-2,-1.8388245E-2,5.2486278E-2,4.3450356E-3,5.416989E-2],"split_indices":[9,37,6,152,152,105,86,105,131,77,127,165,136,12,0,0,0,0,0,0,0,0,0,0,0,0,0,0,0],"split_type":[0,0,0,0,0,0,0,0,0,0,0,0,0,0,0,0,0,0,0,0,0,0,0,0,0,0,0,0,0],"sum_hessian":[5.383426E2,3.301029E2,2.0823972E2,2.4965308E2,8.044983E1,8.247116E1,1.25768555E2,1.7607912E2,7.357396E1,2.5259638E1,5.519019E1,5.4646328E1,2.782483E1,5.1627197E1,7.414136E1,1.5912245E2,1.6956665E1,1.737354E1,5.620042E1,1.4083282E1,1.1176356E1,2.3895426E1,3.1294764E1,4.4809727E1,9.836599E0,1.823317E0,2.6001513E1,1.2617549E1,3.9009647E1],"tree_param":{"num_deleted":"0","num_feature":"175","num_nodes":"29","size_leaf_vector":"1"}},{"base_weights":[4.075419E-3,-3.2928622E-1,1.0755979E0,-5.9569186E-1,4.4122988E-1,5.079272E-1,1.1922868E0,-9.001117E-1,5.4330993E-2,2.3698269E-1,1.1892233E0,-1.5574425E-1,8.922041E-1,1.5561868E-1,1.2303555E0,-5.8741916E-2,-1.5996099E-2,-2.0981273E-2,3.4369025E-2,2.272164E-3,6.761246E-2,6.2447596E-2,2.5681814E-2,-8.361318E-2,3.5969917E-2,-2.4947764E-2,5.3094335E-2,3.5461966E-2,-2.9190848E-2,6.2305667E-2,2.5876004E-2],"categories":[],"categories_nodes":[],"categories_segments":[],"categories_sizes":[],"default_left":[0,0,0,0,0,0,0,0,0,0,0,0,0,0,0,0,0,0,0,0,0,0,0,0,0,0,0,0,0,0,0],"id":14,"left_children":[1,3,5,7,9,11,13,15,17,19,21,23,25,27,29,-1,-1,-1,-1,-1,-1,-1,-1,-1,-1,-1,-1,-1,-1,-1,-1],"loss_changes":[1.8772957E2,8.254616E1,7.65506E0,5.907499E1,1.55399E1,6.006157E0,3.8615417E0,3.201436E1,2.9117163E1,1.7582851E1,2.4479294E-1,1.3529E1,4.0041447E0,2.3719027E0,4.662323E-1,0E0,0E0,0E0,0E0,0E0,0E0,0E0,0E0,0E0,0E0,0E0,0E0,0E0,0E0,0E0,0E0],"parents":[2147483647,0,0,1,1,2,2,3,3,4,4,5,5,6,6,7,7,8,8,9,9,10,10,11,11,12,12,13,13,14,14],"right_children":[2,4,6,8,10,12,14,16,18,20,22,24,26,28,30,-1,-1,-1,-1,-1,-1,-1,-1,-1,-1,-1,-1,-1,-1,-1,-1],"split_conditions":[1E0,1E0,1E0,2E0,2E0,1E0,1E0,1E0,1E0,2E0,1E0,2E0,1E0,1E0,2E0,-5.8741916E-2,-1.5996099E-2,-2.0981273E-2,3.4369025E-2,2.272164E-3,6.761246E-2,6.2447596E-2,2.5681814E-2,-8.361318E-2,3.5969917E-2,-2.4947764E-2,5.3094335E-2,3.5461966E-2,-2.9190848E-2,6.2305667E-2,2.5876004E-2],"split_indices":[6,34,64,165,165,167,164,44,105,77,107,161,136,68,39,0,0,0,0,0,0,0,0,0,0,0,0,0,0,0,0],"split_type":[0,0,0,0,0,0,0,0,0,0,0,0,0,0,0,0,0,0,0,0,0,0,0,0,0,0,0,0,0,0,0],"sum_hessian":[5.2356055E2,3.9985443E2,1.2370612E2,2.9729254E2,1.0256189E2,2.2005602E1,1.01700516E2,2.0220895E2,9.5083595E1,8.159765E1,2.0964241E1,8.28741E0,1.3718192E1,3.782597E0,9.791792E1,1.3653372E2,6.567523E1,5.4567047E1,4.0516544E1,7.052603E1,1.1071618E1,1.8481592E1,2.4826488E0,2.6991878E0,5.5882225E0,1.2803764E0,1.2437816E1,2.1864347E0,1.5961621E0,9.506826E1,2.84966E0],"tree_param":{"num_deleted":"0","num_feature":"175","num_nodes":"31","size_leaf_vector":"1"}},{"base_weights":[-4.1128177E-4,-4.5876333E-1,7.2781414E-1,-7.239685E-1,3.5189426E-1,1.350387E-1,9.8659647E-1,-1.0410535E0,-5.2526794E-2,-4.6253794E-1,6.988726E-1,-3.0211332E-1,7.2250867E-1,1.9828331E-1,1.0891831E0,-5.8173448E-2,4.9520116E-3,-2.703772E-2,3.0541105E-2,-3.449471E-2,6.268692E-2,1.876269E-2,6.175385E-2,-5.1939066E-2,1.8211447E-2,3.574225E-5,4.6610896E-2,-1.3708338E-2,6.804545E-2,-2.5867147E-2,5.548765E-2],"categories":[],"categories_nodes":[],"categories_segments":[],"categories_sizes":[],"default_left":[0,0,0,0,0,0,0,0,0,0,0,0,0,0,0,0,0,0,0,0,0,0,0,0,0,0,0,0,0,0,0],"id":15,"left_children":[1,3,5,7,9,11,13,15,17,19,21,23,25,27,29,-1,-1,-1,-1,-1,-1,-1,-1,-1,-1,-1,-1,-1,-1,-1,-1],"loss_changes":[1.7525168E2,6.9531204E1,3.0978592E1,5.1707848E1,2.2959917E1,1.6344303E1,1.1188568E1,2.3155533E1,2.5928452E1,1.0438006E1,9.353033E0,1.8397087E1,4.0991306E0,9.964266E0,4.690399E0,0E0,0E0,0E0,0E0,0E0,0E0,0E0,0E0,0E0,0E0,0E0,0E0,0E0,0E0,0E0,0E0],"parents":[2147483647,0,0,1,1,2,2,3,3,4,4,5,5,6,6,7,7,8,8,9,9,10,10,11,11,12,12,13,13,14,14],"right_children":[2,4,6,8,10,12,14,16,18,20,22,24,26,28,30,-1,-1,-1,-1,-1,-1,-1,-1,-1,-1,-1,-1,-1,-1,-1,-1],"split_conditions":[1E0,1E0,1E0,2E0,1E0,1E0,1E0,2E0,1E0,2E0,2E0,1E0,2E0,1E0,1E0,-5.8173448E-2,4.9520116E-3,-2.703772E-2,3.0541105E-2,-3.449471E-2,6.268692E-2,1.876269E-2,6.175385E-2,-5.1939066E-2,1.8211447E-2,3.574225E-5,4.6610896E-2,-1.3708338E-2,6.804545E-2,-2.5867147E-2,5.548765E-2],"split_indices":[9,43,165,150,150,37,111,105,105,77,165,12,74,23,163,0,0,0,0,0,0,0,0,0,0,0,0,0,0,0,0],"split_type":[0,0,0,0,0,0,0,0,0,0,0,0,0,0,0,0,0,0,0,0,0,0,0,0,0,0,0,0,0,0,0],"sum_hessian":[5.230454E2,3.2123013E2,2.0181529E2,2.4212599E2,7.910415E1,6.1792694E1,1.400226E2,1.6408649E2,7.8039505E1,2.353334E1,5.5570812E1,3.570752E1,2.6085175E1,1.6461231E1,1.2356137E2,1.4815782E2,1.5928667E1,4.505998E1,3.2979523E1,2.1308603E1,2.2247362E0,3.571521E1,1.98556E1,1.6693384E1,1.9014133E1,6.098451E0,1.9986725E1,1.2248184E1,4.213047E0,1.2567636E0,1.223046E2],"tree_param":{"num_deleted":"0","num_feature":"175","num_nodes":"31","size_leaf_vector":"1"}},{"base_weights":[2.1731483E-2,-2.9068166E-1,1.0176725E0,-6.016022E-1,3.048208E-1,6.5184593E-1,1.1691818E0,-9.183939E-1,7.980461E-2,1.6885247E-2,1.1169832E0,2.2473031E-1,1.0644373E0,1.1981711E0,2.744517E-1,-5.8379706E-2,-1.4513962E-2,-4.9145665E-2,1.965977E-2,-5.9817802E-2,1.9641547E-2,7.04049E-2,2.6717031E-2,-2.022524E-2,4.6597518E-2,3.1928513E-2,6.1012167E-2,1.5969122E-2,6.1914127E-2,-3.051035E-2,4.3859433E-2],"categories":[],"categories_nodes":[],"categories_segments":[],"categories_sizes":[],"default_left":[0,0,0,0,0,0,0,0,0,0,0,0,0,0,0,0,0,0,0,0,0,0,0,0,0,0,0,0,0,0,0],"id":16,"left_children":[1,3,5,7,9,11,13,15,17,19,21,23,25,27,29,-1,-1,-1,-1,-1,-1,-1,-1,-1,-1,-1,-1,-1,-1,-1,-1],"loss_changes":[1.5919801E2,7.230681E1,6.009224E0,5.5388756E1,3.138275E1,6.464182E0,1.8792496E0,2.7054214E1,2.7777805E1,4.614964E1,5.206337E0,9.25851E0,4.8685455E-1,2.5006409E0,2.651487E0,0E0,0E0,0E0,0E0,0E0,0E0,0E0,0E0,0E0,0E0,0E0,0E0,0E0,0E0,0E0,0E0],"parents":[2147483647,0,0,1,1,2,2,3,3,4,4,5,5,6,6,7,7,8,8,9,9,10,10,11,11,12,12,13,13,14,14],"right_children":[2,4,6,8,10,12,14,16,18,20,22,24,26,28,30,-1,-1,-1,-1,-1,-1,-1,-1,-1,-1,-1,-1,-1,-1,-1,-1],"split_conditions":[1E0,1E0,1E0,2E0,1E0,2E0,2E0,1E0,1E0,1E0,1E0,1E0,1E0,1E0,2E0,-5.8379706E-2,-1.4513962E-2,-4.9145665E-2,1.965977E-2,-5.9817802E-2,1.9641547E-2,7.04049E-2,2.6717031E-2,-2.022524E-2,4.6597518E-2,3.1928513E-2,6.1012167E-2,1.5969122E-2,6.1914127E-2,-3.051035E-2,4.3859433E-2],"split_indices":[6,44,10,165,27,85,36,43,25,10,82,43,158,111,131,0,0,0,0,0,0,0,0,0,0,0,0,0,0,0,0],"split_type":[0,0,0,0,0,0,0,0,0,0,0,0,0,0,0,0,0,0,0,0,0,0,0,0,0,0,0,0,0,0,0],"sum_hessian":[5.097013E2,3.8853217E2,1.2116912E2,2.5525143E2,1.3328075E2,3.7039E1,8.413013E1,1.7400655E2,8.124488E1,9.914995E1,3.4130795E1,1.8958155E1,1.8080847E1,8.116134E1,2.9687827E0,1.2396528E2,5.0041267E1,1.8015926E1,6.3228954E1,2.293914E1,7.621081E1,2.1814524E1,1.2316272E1,1.0258706E1,8.699448E0,6.208782E0,1.1872065E1,3.9340403E0,7.72273E1,1.1980169E0,1.7707658E0],"tree_param":{"num_deleted":"0","num_feature":"175","num_nodes":"31","size_leaf_vector":"1"}},{"base_weights":[5.0902642E-2,-3.361042E-1,8.4861755E-1,-5.647053E-1,2.9517987E-1,3.6613116E-1,1.0195711E0,-9.128236E-1,-3.6519855E-2,-4.1635826E-1,6.657362E-1,-8.613806E-2,8.5807306E-1,3.3841026E-1,1.076777E0,-5.1047076E-2,2.685376E-2,-6.039175E-2,1.333451E-2,-3.268673E-2,6.078068E-2,-1.0816042E-2,4.3339122E-2,1.8332958E-2,-5.6957733E-2,5.0719228E-2,-4.973529E-2,-2.1478053E-2,3.752486E-2,3.961063E-2,5.937272E-2],"categories":[],"categories_nodes":[],"categories_segments":[],"categories_sizes":[],"default_left":[0,0,0,0,0,0,0,0,0,0,0,0,0,0,0,0,0,0,0,0,0,0,0,0,0,0,0,0,0,0,0],"id":17,"left_children":[1,3,5,7,9,11,13,15,17,19,21,23,25,27,29,-1,-1,-1,-1,-1,-1,-1,-1,-1,-1,-1,-1,-1,-1,-1,-1],"loss_changes":[1.5642036E2,4.9413876E1,1.3277092E1,4.6095306E1,2.4370745E1,1.0054142E1,4.375366E0,2.424591E1,3.608747E1,1.31553955E1,1.091124E1,1.1994276E1,7.2580366E0,3.7663162E0,2.5789795E0,0E0,0E0,0E0,0E0,0E0,0E0,0E0,0E0,0E0,0E0,0E0,0E0,0E0,0E0,0E0,0E0],"parents":[2147483647,0,0,1,1,2,2,3,3,4,4,5,5,6,6,7,7,8,8,9,9,10,10,11,11,12,12,13,13,14,14],"right_children":[2,4,6,8,10,12,14,16,18,20,22,24,26,28,30,-1,-1,-1,-1,-1,-1,-1,-1,-1,-1,-1,-1,-1,-1,-1,-1],"split_conditions":[1E0,1E0,1E0,1E0,1E0,1E0,1E0,1E0,1E0,2E0,2E0,1E0,2E0,1E0,1E0,-5.1047076E-2,2.685376E-2,-6.039175E-2,1.333451E-2,-3.268673E-2,6.078068E-2,-1.0816042E-2,4.3339122E-2,1.8332958E-2,-5.6957733E-2,5.0719228E-2,-4.973529E-2,-2.1478053E-2,3.752486E-2,3.961063E-2,5.937272E-2],"split_indices":[8,34,6,105,152,77,50,12,167,29,135,39,151,120,165,0,0,0,0,0,0,0,0,0,0,0,0,0,0,0,0],"split_type":[0,0,0,0,0,0,0,0,0,0,0,0,0,0,0,0,0,0,0,0,0,0,0,0,0,0,0,0,0,0,0],"sum_hessian":[5.047482E2,3.402544E2,1.644938E2,2.4987494E2,9.037945E1,4.3856945E1,1.2063686E2,1.5017128E2,9.970365E1,3.0907537E1,5.947191E1,2.3279617E1,2.057733E1,9.882298E0,1.1075457E2,1.4002554E2,1.0145742E1,1.9888794E1,7.981486E1,2.7506094E1,3.401442E0,1.10251045E1,4.8446804E1,1.6735256E1,6.54436E0,1.9393671E1,1.183659E0,3.4361796E0,6.4461184E0,3.3298405E1,7.745616E1],"tree_param":{"num_deleted":"0","num_feature":"175","num_nodes":"31","size_leaf_vector":"1"}},{"base_weights":[-2.2703128E-2,-4.599317E-1,6.854719E-1,-6.9379E-1,2.3350193E-1,1.4520174E-1,8.954555E-1,-9.4779325E-1,-1.4783962E-1,-1.1527912E-1,1.1608282E0,-2.8407392E-1,7.73326E-1,-6.862347E-2,1.0253328E0,-5.5218946E-2,-5.8391755E-3,-5.416381E-2,1.03009045E-2,-2.5371078E-2,3.754822E-2,1.8394731E-2,5.9836823E-2,-6.74762E-2,1.5110242E-2,5.0391186E-2,-3.320155E-2,-3.745104E-2,3.211504E-2,3.8577173E-2,5.912438E-2],"categories":[],"categories_nodes":[],"categories_segments":[],"categories_sizes":[],"default_left":[0,0,0,0,0,0,0,0,0,0,0,0,0,0,0,0,0,0,0,0,0,0,0,0,0,0,0,0,0,0,0],"id":18,"left_children":[1,3,5,7,9,11,13,15,17,19,21,23,25,27,29,-1,-1,-1,-1,-1,-1,-1,-1,-1,-1,-1,-1,-1,-1,-1,-1],"loss_changes":[1.5331142E2,4.9800766E1,2.1313751E1,3.1637535E1,2.5343884E1,1.4806252E1,1.7089417E1,2.019751E1,2.4700365E1,1.993062E1,1.6887474E-1,2.0937786E1,8.162162E0,8.740112E0,3.8676987E0,0E0,0E0,0E0,0E0,0E0,0E0,0E0,0E0,0E0,0E0,0E0,0E0,0E0,0E0,0E0,0E0],"parents":[2147483647,0,0,1,1,2,2,3,3,4,4,5,5,6,6,7,7,8,8,9,9,10,10,11,11,12,12,13,13,14,14],"right_children":[2,4,6,8,10,12,14,16,18,20,22,24,26,28,30,-1,-1,-1,-1,-1,-1,-1,-1,-1,-1,-1,-1,-1,-1,-1,-1],"split_conditions":[1E0,1E0,1E0,2E0,2E0,1E0,1E0,1E0,2E0,1E0,1E0,1E0,1E0,1E0,1E0,-5.5218946E-2,-5.8391755E-3,-5.416381E-2,1.03009045E-2,-2.5371078E-2,3.754822E-2,1.8394731E-2,5.9836823E-2,-6.74762E-2,1.5110242E-2,5.0391186E-2,-3.320155E-2,-3.745104E-2,3.211504E-2,3.8577173E-2,5.912438E-2],"split_indices":[9,43,10,152,10,37,111,153,137,48,49,6,107,100,6,0,0,0,0,0,0,0,0,0,0,0,0,0,0,0,0],"split_type":[0,0,0,0,0,0,0,0,0,0,0,0,0,0,0,0,0,0,0,0,0,0,0,0,0,0,0,0,0,0,0],"sum_hessian":[4.9311874E2,3.0509998E2,1.8801877E2,2.2815494E2,7.6945045E1,5.3096767E1,1.34922E2,1.5520828E2,7.2946655E1,5.655105E1,2.0393993E1,3.1866295E1,2.1230473E1,1.607428E1,1.18847725E2,1.3032283E2,2.488546E1,1.9455076E1,5.349158E1,3.9213566E1,1.7337482E1,1.3707247E0,1.902327E1,1.0848807E1,2.1017488E1,1.8509563E1,2.720909E0,8.186101E0,7.888179E0,4.771011E1,7.113761E1],"tree_param":{"num_deleted":"0","num_feature":"175","num_nodes":"31","size_leaf_vector":"1"}},{"base_weights":[1.5419256E-2,-3.2628515E-1,7.4929184E-1,-5.595505E-1,3.248743E-1,4.3670553E-1,1.0380228E0,-8.4247094E-1,2.8269676E-2,-4.235892E-1,5.5086327E-1,1.6635323E-2,9.7840697E-1,7.731184E-1,1.2191347E0,-5.745069E-2,-1.833583E-2,-4.080452E-2,1.4998317E-2,-4.2172696E-2,3.907038E-2,3.1135413E-3,5.247478E-2,-3.057007E-2,1.8290326E-2,1.777908E-2,5.405521E-2,-1.0124058E-2,4.615824E-2,6.2476527E-2,1.1680686E-2],"categories":[],"categories_nodes":[],"categories_segments":[],"categories_sizes":[],"default_left":[0,0,0,0,0,0,0,0,0,0,0,0,0,0,0,0,0,0,0,0,0,0,0,0,0,0,0,0,0,0,0],"id":19,"left_children":[1,3,5,7,9,11,13,15,17,19,21,23,25,27,29,-1,-1,-1,-1,-1,-1,-1,-1,-1,-1,-1,-1,-1,-1,-1,-1],"loss_changes":[1.232937E2,5.1141502E1,1.36436E1,4.1164368E1,1.5307418E1,1.7442566E1,2.918129E0,2.3938522E1,1.8906244E1,1.1401789E1,1.6717247E1,9.923173E0,1.7578964E0,5.3702583E0,1.0878448E0,0E0,0E0,0E0,0E0,0E0,0E0,0E0,0E0,0E0,0E0,0E0,0E0,0E0,0E0,0E0,0E0],"parents":[2147483647,0,0,1,1,2,2,3,3,4,4,5,5,6,6,7,7,8,8,9,9,10,10,11,11,12,12,13,13,14,14],"right_children":[2,4,6,8,10,12,14,16,18,20,22,24,26,28,30,-1,-1,-1,-1,-1,-1,-1,-1,-1,-1,-1,-1,-1,-1,-1,-1],"split_conditions":[1E0,1E0,2E0,2E0,2E0,1E0,1E0,1E0,2E0,1E0,1E0,1E0,1E0,1E0,1E0,-5.745069E-2,-1.833583E-2,-4.080452E-2,1.4998317E-2,-4.2172696E-2,3.907038E-2,3.1135413E-3,5.247478E-2,-3.057007E-2,1.8290326E-2,1.777908E-2,5.405521E-2,-1.0124058E-2,4.615824E-2,6.2476527E-2,1.1680686E-2],"split_indices":[8,43,86,152,163,37,62,105,169,94,77,6,25,167,106,0,0,0,0,0,0,0,0,0,0,0,0,0,0,0,0],"split_type":[0,0,0,0,0,0,0,0,0,0,0,0,0,0,0,0,0,0,0,0,0,0,0,0,0,0,0,0,0,0,0],"sum_hessian":[4.8969043E2,3.3449765E2,1.5519278E2,2.4637811E2,8.811953E1,7.5724396E1,7.946839E1,1.6603265E2,8.034545E1,2.0233353E1,6.788618E1,4.3231003E1,3.2493397E1,3.4408848E1,4.505954E1,1.00112206E2,6.592045E1,1.9071789E1,6.1273666E1,1.5227554E1,5.0057974E0,3.485645E1,3.302973E1,1.5178746E1,2.8052256E1,5.231073E0,2.7262323E1,4.5400515E0,2.9868795E1,4.34515E1,1.6080396E0],"tree_param":{"num_deleted":"0","num_feature":"175","num_nodes":"31","size_leaf_vector":"1"}},{"base_weights":[5.3676334E-3,-3.3451238E-1,7.766966E-1,-7.365708E-1,9.969953E-2,3.2696772E-1,9.597214E-1,-1.0029562E0,-4.2627692E-2,-9.195343E-1,4.0672922E-1,-1.2639622E-1,6.738158E-1,-4.0339213E-2,9.910107E-1,-5.3066235E-2,4.289911E-2,-1.9896071E-2,5.033896E-2,-5.6809317E-2,4.682206E-2,-2.8955286E-2,3.148189E-2,-4.915822E-2,1.9797388E-2,1.0545405E-2,6.5239854E-2,1.4451988E-2,5.3453047E-2],"categories":[],"categories_nodes":[],"categories_segments":[],"categories_sizes":[],"default_left":[0,0,0,0,0,0,0,0,0,0,0,0,0,0,0,0,0,0,0,0,0,0,0,0,0,0,0,0,0],"id":20,"left_children":[1,3,5,7,9,11,13,15,17,19,21,23,25,-1,27,-1,-1,-1,-1,-1,-1,-1,-1,-1,-1,-1,-1,-1,-1],"loss_changes":[1.278266E2,5.9162197E1,1.1961731E1,3.246582E1,5.157224E1,7.106975E0,6.629753E0,1.4708939E1,1.8978046E1,1.641681E1,2.8146646E1,9.428093E0,7.160452E0,0E0,5.394188E0,0E0,0E0,0E0,0E0,0E0,0E0,0E0,0E0,0E0,0E0,0E0,0E0,0E0,0E0],"parents":[2147483647,0,0,1,1,2,2,3,3,4,4,5,5,6,6,7,7,8,8,9,9,10,10,11,11,12,12,14,14],"right_children":[2,4,6,8,10,12,14,16,18,20,22,24,26,-1,28,-1,-1,-1,-1,-1,-1,-1,-1,-1,-1,-1,-1,-1,-1],"split_conditions":[1E0,1E0,1E0,1E0,2E0,1E0,1E0,2E0,2E0,1E0,1E0,1E0,1E0,-4.0339213E-2,1E0,-5.3066235E-2,4.289911E-2,-1.9896071E-2,5.033896E-2,-5.6809317E-2,4.682206E-2,-2.8955286E-2,3.148189E-2,-4.915822E-2,1.9797388E-2,1.0545405E-2,6.5239854E-2,1.4451988E-2,5.3453047E-2],"split_indices":[8,77,10,34,131,110,137,174,10,102,167,12,41,0,111,0,0,0,0,0,0,0,0,0,0,0,0,0,0],"split_type":[0,0,0,0,0,0,0,0,0,0,0,0,0,0,0,0,0,0,0,0,0,0,0,0,0,0,0,0,0],"sum_hessian":[4.8560025E2,3.3746518E2,1.4813506E2,1.748586E2,1.626066E2,4.365424E1,1.0448081E2,1.2603281E2,4.8825787E1,3.718156E1,1.2542503E2,1.9197212E1,2.445703E1,1.3870549E0,1.0309376E2,1.2261661E2,3.4161973E0,3.6939976E1,1.1885814E1,3.364225E1,3.5393093E0,2.2835375E1,1.0258966E2,6.9368744E0,1.2260338E1,1.48770275E1,9.580001E0,1.0786343E1,9.230742E1],"tree_param":{"num_deleted":"0","num_feature":"175","num_nodes":"29","size_leaf_vector":"1"}},{"base_weights":[4.393497E-2,-3.103018E-1,6.302363E-1,-6.018076E-1,2.7530304E-1,3.237641E-1,9.9064225E-1,-8.806733E-1,7.3667794E-2,6.766378E-2,1.1543951E0,1.9968344E-2,7.1600795E-1,1.0312233E0,-1.3660887E-1,-5.102215E-2,1.1909981E-2,2.151417E-2,-4.106844E-2,-2.0587068E-2,3.2492742E-2,6.252875E-2,1.856205E-2,-1.2709145E-2,4.606528E-2,1.298803E-2,5.049565E-2,3.9942537E-2,6.096786E-2,-3.9575364E-2,3.6151476E-2],"categories":[],"categories_nodes":[],"categories_segments":[],"categories_sizes":[],"default_left":[0,0,0,0,0,0,0,0,0,0,0,0,0,0,0,0,0,0,0,0,0,0,0,0,0,0,0,0,0,0,0],"id":21,"left_children":[1,3,5,7,9,11,13,15,17,19,21,23,25,27,29,-1,-1,-1,-1,-1,-1,-1,-1,-1,-1,-1,-1,-1,-1,-1,-1],"loss_changes":[1.0026378E2,5.1551792E1,1.9759598E1,3.798124E1,1.8308386E1,1.1870402E1,3.9405365E0,2.2535454E1,1.942187E1,2.3306414E1,9.8073006E-1,1.4376704E1,5.5710278E0,2.5360718E0,2.6943314E0,0E0,0E0,0E0,0E0,0E0,0E0,0E0,0E0,0E0,0E0,0E0,0E0,0E0,0E0,0E0,0E0],"parents":[2147483647,0,0,1,1,2,2,3,3,4,4,5,5,6,6,7,7,8,8,9,9,10,10,11,11,12,12,13,13,14,14],"right_children":[2,4,6,8,10,12,14,16,18,20,22,24,26,28,30,-1,-1,-1,-1,-1,-1,-1,-1,-1,-1,-1,-1,-1,-1,-1,-1],"split_conditions":[1E0,2E0,2E0,1E0,1E0,1E0,1E0,2E0,1E0,1E0,2E0,1E0,1E0,1E0,1E0,-5.102215E-2,1.1909981E-2,2.151417E-2,-4.106844E-2,-2.0587068E-2,3.2492742E-2,6.252875E-2,1.856205E-2,-1.2709145E-2,4.606528E-2,1.298803E-2,5.049565E-2,3.9942537E-2,6.096786E-2,-3.9575364E-2,3.6151476E-2],"split_indices":[9,10,88,43,27,12,106,141,82,141,41,23,10,62,141,0,0,0,0,0,0,0,0,0,0,0,0,0,0,0,0],"split_type":[0,0,0,0,0,0,0,0,0,0,0,0,0,0,0,0,0,0,0,0,0,0,0,0,0,0,0,0,0,0,0],"sum_hessian":[4.8081644E2,3.00019E2,1.8079742E2,2.0028989E2,9.972913E1,9.873563E1,8.206179E1,1.4154865E2,5.8741238E1,8.154532E1,1.818382E1,5.623338E1,4.250225E1,7.929245E1,2.7693422E0,1.2590817E2,1.5640476E1,4.2376236E1,1.6365002E1,4.488091E1,3.6664406E1,1.566335E1,2.5204718E0,4.3668987E1,1.2564392E1,1.7390188E1,2.5112062E1,3.7822426E1,4.1470024E1,1.6168402E0,1.1525021E0],"tree_param":{"num_deleted":"0","num_feature":"175","num_nodes":"31","size_leaf_vector":"1"}},{"base_weights":[-1.4943313E-3,-2.6234645E-1,9.1313773E-1,-4.814779E-1,3.1299135E-1,5.097383E-1,1.070955E0,-7.3890066E-1,-7.20373E-2,-1.9403961E-1,6.1906624E-1,-5.238722E-2,7.3784554E-1,5.976715E-1,1.2142284E0,-4.3612342E-2,1.5366978E-2,-4.5613058E-2,9.629844E-3,-5.2903503E-2,5.924765E-3,-2.2523277E-3,4.0417265E-2,4.8059814E-2,6.1716563E-3,-1.09272655E-2,4.977669E-2,-1.8185584E-2,6.265997E-2],"categories":[],"categories_nodes":[],"categories_segments":[],"categories_sizes":[],"default_left":[0,0,0,0,0,0,0,0,0,0,0,0,0,0,0,0,0,0,0,0,0,0,0,0,0,0,0,0,0],"id":22,"left_children":[1,3,5,7,9,11,13,15,17,19,21,-1,23,25,27,-1,-1,-1,-1,-1,-1,-1,-1,-1,-1,-1,-1,-1,-1],"loss_changes":[1.1122504E2,4.588201E1,6.040222E0,2.7674896E1,1.5740756E1,1.17864275E1,4.2550507E0,2.2787552E1,2.3002579E1,1.0562599E1,7.956249E0,0E0,3.6724987E0,6.4000287E0,3.8634644E0,0E0,0E0,0E0,0E0,0E0,0E0,0E0,0E0,0E0,0E0,0E0,0E0,0E0,0E0],"parents":[2147483647,0,0,1,1,2,2,3,3,4,4,5,5,6,6,7,7,8,8,9,9,10,10,12,12,13,13,14,14],"right_children":[2,4,6,8,10,12,14,16,18,20,22,-1,24,26,28,-1,-1,-1,-1,-1,-1,-1,-1,-1,-1,-1,-1,-1,-1],"split_conditions":[1E0,1E0,1E0,1E0,2E0,1E0,1E0,1E0,1E0,1E0,2E0,-5.238722E-2,1E0,1E0,1E0,-4.3612342E-2,1.5366978E-2,-4.5613058E-2,9.629844E-3,-5.2903503E-2,5.924765E-3,-2.2523277E-3,4.0417265E-2,4.8059814E-2,6.1716563E-3,-1.09272655E-2,4.977669E-2,-1.8185584E-2,6.265997E-2],"split_indices":[12,34,10,105,103,8,99,7,10,64,163,0,68,7,103,0,0,0,0,0,0,0,0,0,0,0,0,0,0],"split_type":[0,0,0,0,0,0,0,0,0,0,0,0,0,0,0,0,0,0,0,0,0,0,0,0,0,0,0,0,0],"sum_hessian":[4.641846E2,3.6173215E2,1.0245246E2,2.620769E2,9.965525E1,2.9999693E1,7.2452774E1,1.6041586E2,1.0166105E2,3.76507E1,6.2004547E1,3.3733997E0,2.6626293E1,1.803807E1,5.44147E1,1.4242917E2,1.7986683E1,2.3763561E1,7.7897484E1,9.367624E0,2.8283075E1,1.3921383E1,4.8083164E1,1.9113688E1,7.5126066E0,6.058901E0,1.197917E1,1.1106713E0,5.3304028E1],"tree_param":{"num_deleted":"0","num_feature":"175","num_nodes":"29","size_leaf_vector":"1"}},{"base_weights":[-5.5474467E-3,-2.520151E-1,8.776139E-1,-5.3345686E-1,2.7034047E-1,5.382014E-1,1.1107147E0,-8.0739266E-1,6.7341596E-2,-1.531107E-1,6.243743E-1,2.3363535E-1,1.0517561E0,1.1409191E0,-5.283988E-3,-4.6367932E-2,7.3255426E-3,-4.0555667E-2,1.7288994E-2,-3.359407E-2,2.5904482E-2,-6.378396E-2,3.5251897E-2,-1.5071775E-2,4.8667908E-2,1.2565361E-2,6.1127532E-2,5.8154102E-2,6.214722E-3],"categories":[],"categories_nodes":[],"categories_segments":[],"categories_sizes":[],"default_left":[0,0,0,0,0,0,0,0,0,0,0,0,0,0,0,0,0,0,0,0,0,0,0,0,0,0,0,0,0],"id":23,"left_children":[1,3,5,7,9,11,13,15,17,19,21,23,25,27,-1,-1,-1,-1,-1,-1,-1,-1,-1,-1,-1,-1,-1,-1,-1],"loss_changes":[1.0178009E2,5.3884636E1,7.4739E0,3.9206734E1,1.9383385E1,6.5548143E0,2.30822E0,1.8842697E1,1.8728455E1,2.102699E1,1.166921E1,1.1604759E1,1.8665485E0,1.1664352E0,0E0,0E0,0E0,0E0,0E0,0E0,0E0,0E0,0E0,0E0,0E0,0E0,0E0,0E0,0E0],"parents":[2147483647,0,0,1,1,2,2,3,3,4,4,5,5,6,6,7,7,8,8,9,9,10,10,11,11,12,12,13,13],"right_children":[2,4,6,8,10,12,14,16,18,20,22,24,26,28,-1,-1,-1,-1,-1,-1,-1,-1,-1,-1,-1,-1,-1,-1,-1],"split_conditions":[1E0,1E0,2E0,2E0,2E0,1E0,2E0,2E0,1E0,1E0,1E0,1E0,2E0,2E0,-5.283988E-3,-4.6367932E-2,7.3255426E-3,-4.0555667E-2,1.7288994E-2,-3.359407E-2,2.5904482E-2,-6.378396E-2,3.5251897E-2,-1.5071775E-2,4.8667908E-2,1.2565361E-2,6.1127532E-2,5.8154102E-2,6.214722E-3],"split_indices":[6,44,86,165,88,27,29,77,25,43,53,149,95,156,0,0,0,0,0,0,0,0,0,0,0,0,0,0,0],"split_type":[0,0,0,0,0,0,0,0,0,0,0,0,0,0,0,0,0,0,0,0,0,0,0,0,0,0,0,0,0],"sum_hessian":[4.6557132E2,3.6454953E2,1.01021774E2,2.3689227E2,1.2765726E2,4.2478584E1,5.8543194E1,1.6246983E2,7.442245E1,5.838815E1,6.926911E1,2.7578163E1,1.4900422E1,5.718527E1,1.3579247E0,1.4434444E2,1.8125391E1,1.7451382E1,5.697107E1,3.2933125E1,2.5455023E1,2.2176237E0,6.705149E1,1.6346554E1,1.1231608E1,3.0548587E0,1.1845563E1,5.5824207E1,1.3610605E0],"tree_param":{"num_deleted":"0","num_feature":"175","num_nodes":"29","size_leaf_vector":"1"}},{"base_weights":[1.0900817E-2,-3.306523E-1,5.7926416E-1,-4.6359482E-1,7.70731E-1,3.11532E-1,9.3111116E-1,-7.7565676E-1,1.2144123E-1,-4.119777E-1,1.093578E0,-1.3687432E-1,5.9171146E-1,6.057429E-1,1.1809169E0,-5.2230746E-2,-6.94277E-3,-5.375422E-3,5.564342E-2,-4.5489263E-2,4.946481E-2,1.15141785E-2,6.45612E-2,-3.9517153E-2,2.461093E-2,-1.7624175E-2,3.872877E-2,-2.4964422E-4,4.0233243E-2,2.7205933E-2,6.338519E-2],"categories":[],"categories_nodes":[],"categories_segments":[],"categories_sizes":[],"default_left":[0,0,0,0,0,0,0,0,0,0,0,0,0,0,0,0,0,0,0,0,0,0,0,0,0,0,0,0,0,0,0],"id":24,"left_children":[1,3,5,7,9,11,13,15,17,19,21,23,25,27,29,-1,-1,-1,-1,-1,-1,-1,-1,-1,-1,-1,-1,-1,-1,-1,-1],"loss_changes":[8.997352E1,4.2749683E1,1.6097862E1,4.737294E1,1.2500713E1,1.2681598E1,5.353943E0,2.8803177E1,2.0763596E1,6.1274E0,3.9794083E0,1.6578335E1,1.0963179E1,4.193471E0,1.5864983E0,0E0,0E0,0E0,0E0,0E0,0E0,0E0,0E0,0E0,0E0,0E0,0E0,0E0,0E0,0E0,0E0],"parents":[2147483647,0,0,1,1,2,2,3,3,4,4,5,5,6,6,7,7,8,8,9,9,10,10,11,11,12,12,13,13,14,14],"right_children":[2,4,6,8,10,12,14,16,18,20,22,24,26,28,30,-1,-1,-1,-1,-1,-1,-1,-1,-1,-1,-1,-1,-1,-1,-1,-1],"split_conditions":[1E0,2E0,2E0,2E0,1E0,1E0,1E0,1E0,1E0,1E0,2E0,1E0,2E0,1E0,1E0,-5.2230746E-2,-6.94277E-3,-5.375422E-3,5.564342E-2,-4.5489263E-2,4.946481E-2,1.15141785E-2,6.45612E-2,-3.9517153E-2,2.461093E-2,-1.7624175E-2,3.872877E-2,-2.4964422E-4,4.0233243E-2,2.7205933E-2,6.338519E-2],"split_indices":[9,105,70,10,10,10,62,37,34,37,137,37,132,6,59,0,0,0,0,0,0,0,0,0,0,0,0,0,0,0,0],"split_type":[0,0,0,0,0,0,0,0,0,0,0,0,0,0,0,0,0,0,0,0,0,0,0,0,0,0,0,0,0,0,0],"sum_hessian":[4.6149274E2,2.8852457E2,1.7296815E2,2.5796588E2,3.0558706E1,9.929596E1,7.3672195E1,1.6801811E2,8.9947754E1,6.493719E0,2.4064987E1,3.8381195E1,6.091476E1,3.3484276E1,4.018792E1,1.17676216E2,5.03419E1,7.379734E1,1.6150412E1,5.0503197E0,1.4433994E0,4.8864937E0,1.9178493E1,1.8700146E1,1.9681051E1,9.732848E0,5.118191E1,8.466155E0,2.501812E1,5.6920547E0,3.4495865E1],"tree_param":{"num_deleted":"0","num_feature":"175","num_nodes":"31","size_leaf_vector":"1"}},{"base_weights":[-1.3223216E-2,-2.4915157E-1,8.546928E-1,-4.804495E-1,3.026903E-1,1.0737266E-1,1.0129664E0,-7.902498E-1,7.789154E-2,-6.770779E-1,4.5498428E-1,-7.4835515E-1,6.711073E-1,1.0328888E0,-5.7035275E-3,-4.3093197E-2,3.0133894E-2,-1.5463098E-2,2.9777536E-2,-5.038774E-2,4.36843E-2,8.4562255E-3,4.3990377E-2,-6.1210852E-2,4.374673E-2,5.594739E-2,3.4231434E-4,5.315134E-2,8.850278E-3],"categories":[],"categories_nodes":[],"categories_segments":[],"categories_sizes":[],"default_left":[0,0,0,0,0,0,0,0,0,0,0,0,0,0,0,0,0,0,0,0,0,0,0,0,0,0,0,0,0],"id":25,"left_children":[1,3,5,7,9,11,13,15,17,19,21,23,25,27,-1,-1,-1,-1,-1,-1,-1,-1,-1,-1,-1,-1,-1,-1,-1],"loss_changes":[9.392158E1,4.6172295E1,1.1487282E1,4.408073E1,1.6291054E1,9.307543E0,1.9317169E0,1.6855019E1,1.8566933E1,8.476044E0,1.1181969E1,7.0359917E0,3.4226465E0,1.8620224E0,0E0,0E0,0E0,0E0,0E0,0E0,0E0,0E0,0E0,0E0,0E0,0E0,0E0,0E0,0E0],"parents":[2147483647,0,0,1,1,2,2,3,3,4,4,5,5,6,6,7,7,8,8,9,9,10,10,11,11,12,12,13,13],"right_children":[2,4,6,8,10,12,14,16,18,20,22,24,26,28,-1,-1,-1,-1,-1,-1,-1,-1,-1,-1,-1,-1,-1,-1,-1],"split_conditions":[1E0,1E0,1E0,2E0,1E0,1E0,2E0,2E0,1E0,2E0,1E0,1E0,2E0,2E0,-5.7035275E-3,-4.3093197E-2,3.0133894E-2,-1.5463098E-2,2.9777536E-2,-5.038774E-2,4.36843E-2,8.4562255E-3,4.3990377E-2,-6.1210852E-2,4.374673E-2,5.594739E-2,3.4231434E-4,5.315134E-2,8.850278E-3],"split_indices":[6,43,88,166,111,10,151,44,141,43,44,81,62,29,0,0,0,0,0,0,0,0,0,0,0,0,0,0,0],"split_type":[0,0,0,0,0,0,0,0,0,0,0,0,0,0,0,0,0,0,0,0,0,0,0,0,0,0,0,0,0],"sum_hessian":[4.566376E2,3.5959946E2,9.703813E1,2.5348404E2,1.0611543E2,1.7253016E1,7.978512E1,1.6275993E2,9.07241E1,1.3811925E1,9.2303505E1,6.721912E0,1.0531103E1,7.848135E1,1.3037604E0,1.5516382E2,7.5961237E0,5.2135166E1,3.8588932E1,1.1672992E1,2.138933E0,5.601178E1,3.6291725E1,5.3882165E0,1.3336957E0,5.881401E0,4.649702E0,7.557802E1,2.9033356E0],"tree_param":{"num_deleted":"0","num_feature":"175","num_nodes":"29","size_leaf_vector":"1"}},{"base_weights":[4.910572E-2,-1.7148928E-1,8.334174E-1,-4.414972E-1,2.3282461E-1,2.423983E-1,1.071355E0,-6.964034E-1,1.255279E-1,-7.5637066E-1,4.6179697E-1,-7.251677E-1,5.35611E-1,2.9871988E-1,1.1242145E0,-4.3115303E-2,1.9920982E-2,-6.0892054E-3,5.237813E-2,-4.4656854E-2,2.7857935E-2,-1.3289957E-2,3.578638E-2,-5.832399E-2,2.8176785E-2,-3.4523706E-3,4.5708317E-2,-2.5887374E-2,4.694101E-2,5.954839E-2,4.2629954E-3],"categories":[],"categories_nodes":[],"categories_segments":[],"categories_sizes":[],"default_left":[0,0,0,0,0,0,0,0,0,0,0,0,0,0,0,0,0,0,0,0,0,0,0,0,0,0,0,0,0,0,0],"id":26,"left_children":[1,3,5,7,9,11,13,15,17,19,21,23,25,27,29,-1,-1,-1,-1,-1,-1,-1,-1,-1,-1,-1,-1,-1,-1,-1,-1],"loss_changes":[7.6895676E1,3.7991234E1,1.345874E1,3.0215103E1,3.1974049E1,8.698982E0,2.4928207E0,2.648973E1,1.5061557E1,5.2804585E0,2.1252956E1,4.7734127E0,5.340528E0,3.515611E0,4.369179E0,0E0,0E0,0E0,0E0,0E0,0E0,0E0,0E0,0E0,0E0,0E0,0E0,0E0,0E0,0E0,0E0],"parents":[2147483647,0,0,1,1,2,2,3,3,4,4,5,5,6,6,7,7,8,8,9,9,10,10,11,11,12,12,13,13,14,14],"right_children":[2,4,6,8,10,12,14,16,18,20,22,24,26,28,30,-1,-1,-1,-1,-1,-1,-1,-1,-1,-1,-1,-1,-1,-1,-1,-1],"split_conditions":[1E0,1E0,1E0,1E0,1E0,1E0,1E0,1E0,2E0,1E0,2E0,1E0,2E0,1E0,2E0,-4.3115303E-2,1.9920982E-2,-6.0892054E-3,5.237813E-2,-4.4656854E-2,2.7857935E-2,-1.3289957E-2,3.578638E-2,-5.832399E-2,2.8176785E-2,-3.4523706E-3,4.5708317E-2,-2.5887374E-2,4.694101E-2,5.954839E-2,4.2629954E-3],"split_indices":[12,105,10,43,167,6,49,6,10,6,137,27,161,154,116,0,0,0,0,0,0,0,0,0,0,0,0,0,0,0,0],"split_type":[0,0,0,0,0,0,0,0,0,0,0,0,0,0,0,0,0,0,0,0,0,0,0,0,0,0,0,0,0,0,0],"sum_hessian":[4.4261847E2,3.4606564E2,9.655285E1,2.0744095E2,1.3862468E2,2.8293257E1,6.825959E1,1.4294972E2,6.449123E1,2.5623585E1,1.1300109E2,6.237405E0,2.2055853E1,4.7968183E0,6.346277E1,1.24322975E2,1.8626755E1,5.1535957E1,1.2955272E1,2.3497086E1,2.126499E0,2.9222399E1,8.3778694E1,4.716945E0,1.5204598E0,8.806701E0,1.3249152E1,2.192001E0,2.6048172E0,5.9493946E1,3.968823E0],"tree_param":{"num_deleted":"0","num_feature":"175","num_nodes":"31","size_leaf_vector":"1"}},{"base_weights":[-1.8006859E-3,-3.6934924E-1,5.8781207E-1,-5.927479E-1,1.7780784E-1,1.7647406E-1,7.817289E-1,-8.3223814E-1,-2.7778175E-2,-8.794258E-2,8.1581616E-1,-6.586853E-1,4.489872E-1,5.3369712E-2,8.9874905E-1,-4.8449215E-2,-5.2186633E-3,-5.58589E-2,1.5699513E-2,-3.4747746E-2,1.8420447E-2,6.8431506E-3,5.818071E-2,-7.128563E-2,3.1349037E-3,5.387153E-3,4.4407252E-2,-6.827676E-2,2.557297E-2,-2.1761594E-2,4.6168078E-2],"categories":[],"categories_nodes":[],"categories_segments":[],"categories_sizes":[],"default_left":[0,0,0,0,0,0,0,0,0,0,0,0,0,0,0,0,0,0,0,0,0,0,0,0,0,0,0,0,0,0,0],"id":27,"left_children":[1,3,5,7,9,11,13,15,17,19,21,23,25,27,29,-1,-1,-1,-1,-1,-1,-1,-1,-1,-1,-1,-1,-1,-1,-1,-1],"loss_changes":[9.693881E1,3.3786453E1,1.3563389E1,2.6481766E1,1.3746889E1,1.3114835E1,9.877007E0,1.3588463E1,2.2448746E1,1.627865E1,5.4641333E0,7.9811683E0,6.3576317E0,1.1866408E1,3.6937943E0,0E0,0E0,0E0,0E0,0E0,0E0,0E0,0E0,0E0,0E0,0E0,0E0,0E0,0E0,0E0,0E0],"parents":[2147483647,0,0,1,1,2,2,3,3,4,4,5,5,6,6,7,7,8,8,9,9,10,10,11,11,12,12,13,13,14,14],"right_children":[2,4,6,8,10,12,14,16,18,20,22,24,26,28,30,-1,-1,-1,-1,-1,-1,-1,-1,-1,-1,-1,-1,-1,-1,-1,-1],"split_conditions":[1E0,1E0,1E0,2E0,1E0,2E0,1E0,1E0,1E0,1E0,2E0,1E0,1E0,2E0,1E0,-4.8449215E-2,-5.2186633E-3,-5.58589E-2,1.5699513E-2,-3.4747746E-2,1.8420447E-2,6.8431506E-3,5.818071E-2,-7.128563E-2,3.1349037E-3,5.387153E-3,4.4407252E-2,-6.827676E-2,2.557297E-2,-2.1761594E-2,4.6168078E-2],"split_indices":[9,44,10,152,27,74,111,170,25,77,111,6,37,146,137,0,0,0,0,0,0,0,0,0,0,0,0,0,0,0,0],"split_type":[0,0,0,0,0,0,0,0,0,0,0,0,0,0,0,0,0,0,0,0,0,0,0,0,0,0,0,0,0,0,0],"sum_hessian":[4.453159E2,2.7454535E2,1.7077052E2,1.948903E2,7.965506E1,5.5324917E1,1.1544561E2,1.3653862E2,5.835168E1,5.6841118E1,2.2813942E1,1.3262578E1,4.206234E1,1.6181906E1,9.92637E1,1.1466491E2,2.1873713E1,1.3392803E1,4.4958878E1,2.4169458E1,3.267166E1,8.199945E0,1.46139965E1,5.9547243E0,7.307853E0,2.4370655E1,1.7691685E1,3.4658163E0,1.2716089E1,1.4960356E0,9.776767E1],"tree_param":{"num_deleted":"0","num_feature":"175","num_nodes":"31","size_leaf_vector":"1"}},{"base_weights":[1.7157864E-2,-2.8639385E-1,5.1908237E-1,-9.5050764E-1,-8.919789E-2,1.9982412E-1,9.112249E-1,-1.0286084E0,6.6716E-2,-8.085434E-1,1.3498868E-1,-1.4331512E-1,7.4831647E-1,9.446227E-1,-1.2173987E-2,-5.736027E-2,1.4036278E-2,-4.934934E-2,9.501918E-3,-1.169361E-3,5.8303203E-2,-2.1243818E-2,4.047736E-2,4.2641457E-2,-4.284188E-2,-8.630411E-3,4.8370805E-2],"categories":[],"categories_nodes":[],"categories_segments":[],"categories_sizes":[],"default_left":[0,0,0,0,0,0,0,0,0,0,0,0,0,0,0,0,0,0,0,0,0,0,0,0,0,0,0],"id":28,"left_children":[1,3,5,7,9,11,13,15,-1,17,19,21,23,25,-1,-1,-1,-1,-1,-1,-1,-1,-1,-1,-1,-1,-1],"loss_changes":[6.606702E1,3.5306664E1,2.0275166E1,1.2394936E1,3.389089E1,1.7300747E1,3.0471535E0,9.684349E0,0E0,9.082008E0,2.6246471E1,1.5646006E1,6.6555595E0,1.9801674E0,0E0,0E0,0E0,0E0,0E0,0E0,0E0,0E0,0E0,0E0,0E0,0E0,0E0],"parents":[2147483647,0,0,1,1,2,2,3,3,4,4,5,5,6,6,7,7,9,9,10,10,11,11,12,12,13,13],"right_children":[2,4,6,8,10,12,14,16,-1,18,20,22,24,26,-1,-1,-1,-1,-1,-1,-1,-1,-1,-1,-1,-1,-1],"split_conditions":[1E0,1E0,2E0,2E0,2E0,1E0,1E0,1E0,6.6716E-2,2E0,2E0,2E0,2E0,1E0,-1.2173987E-2,-5.736027E-2,1.4036278E-2,-4.934934E-2,9.501918E-3,-1.169361E-3,5.8303203E-2,-2.1243818E-2,4.047736E-2,4.2641457E-2,-4.284188E-2,-8.630411E-3,4.8370805E-2],"split_indices":[9,10,86,78,135,34,106,47,0,159,105,167,82,160,0,0,0,0,0,0,0,0,0,0,0,0,0],"split_type":[0,0,0,0,0,0,0,0,0,0,0,0,0,0,0,0,0,0,0,0,0,0,0,0,0,0,0],"sum_hessian":[4.316486E2,2.6924512E2,1.6240349E2,6.0768772E1,2.0847635E2,9.035313E1,7.205036E1,5.9291847E1,1.4769266E0,4.891539E1,1.5956096E2,5.603567E1,3.4317455E1,7.0201836E1,1.8485277E0,5.44809E1,4.810948E0,4.15094E1,7.405989E0,1.3916254E2,2.0398417E1,4.3682144E1,1.2353529E1,3.2659653E1,1.6577992E0,1.2721857E0,6.892965E1],"tree_param":{"num_deleted":"0","num_feature":"175","num_nodes":"27","size_leaf_vector":"1"}},{"base_weights":[-1.9224748E-2,-3.4150517E-1,5.041851E-1,-1.0152365E0,-1.3703312E-1,2.3374915E-1,9.011042E-1,-1.120673E0,-6.242962E-2,-8.718214E-1,9.6816674E-2,-1.740516E-1,5.938018E-1,6.601823E-1,1.0947855E0,-5.8452874E-2,3.1657588E-2,2.3767836E-2,-5.8343835E-2,-5.2392133E-2,2.6895786E-2,-1.6096158E-2,2.3911415E-2,-3.0311754E-2,3.605685E-2,3.6289025E-2,-2.6918877E-2,-3.1652064E-3,4.0755775E-2,5.710258E-2,2.1475472E-2],"categories":[],"categories_nodes":[],"categories_segments":[],"categories_sizes":[],"default_left":[0,0,0,0,0,0,0,0,0,0,0,0,0,0,0,0,0,0,0,0,0,0,0,0,0,0,0,0,0,0,0],"id":29,"left_children":[1,3,5,7,9,11,13,15,17,19,21,23,25,27,29,-1,-1,-1,-1,-1,-1,-1,-1,-1,-1,-1,-1,-1,-1,-1,-1],"loss_changes":[7.2593475E1,3.654812E1,1.739494E1,6.143509E0,3.5389362E1,1.4624902E1,2.3622742E0,5.460724E0,4.8438277E0,1.289724E1,2.5190594E1,1.8678307E1,8.2731285E0,3.6366425E0,6.1419296E-1,0E0,0E0,0E0,0E0,0E0,0E0,0E0,0E0,0E0,0E0,0E0,0E0,0E0,0E0,0E0,0E0],"parents":[2147483647,0,0,1,1,2,2,3,3,4,4,5,5,6,6,7,7,8,8,9,9,10,10,11,11,12,12,13,13,14,14],"right_children":[2,4,6,8,10,12,14,16,18,20,22,24,26,28,30,-1,-1,-1,-1,-1,-1,-1,-1,-1,-1,-1,-1,-1,-1,-1,-1],"split_conditions":[1E0,2E0,2E0,1E0,1E0,1E0,1E0,1E0,1E0,1E0,1E0,1E0,2E0,1E0,1E0,-5.8452874E-2,3.1657588E-2,2.3767836E-2,-5.8343835E-2,-5.2392133E-2,2.6895786E-2,-1.6096158E-2,2.3911415E-2,-3.0311754E-2,3.605685E-2,3.6289025E-2,-2.6918877E-2,-3.1652064E-3,4.0755775E-2,5.710258E-2,2.1475472E-2],"split_indices":[9,169,88,94,10,41,62,129,99,47,77,46,82,10,114,0,0,0,0,0,0,0,0,0,0,0,0,0,0,0,0],"split_type":[0,0,0,0,0,0,0,0,0,0,0,0,0,0,0,0,0,0,0,0,0,0,0,0,0,0,0,0,0,0,0],"sum_hessian":[4.2832928E2,2.6531424E2,1.6301505E2,6.0849888E1,2.0446434E2,9.79006E1,6.511445E1,5.462858E1,6.2213106E0,4.8703403E1,1.5576094E2,4.6148613E1,5.175198E1,3.0983004E1,3.4131447E1,5.3486416E1,1.1421614E0,4.5670724E0,1.6542385E0,4.3525475E1,5.1779265E0,7.432158E1,8.143936E1,3.1340622E1,1.4807993E1,4.667053E1,5.081453E0,5.569008E0,2.5413996E1,3.1198233E1,2.9332132E0],"tree_param":{"num_deleted":"0","num_feature":"175","num_nodes":"31","size_leaf_vector":"1"}},{"base_weights":[4.859504E-2,-1.5300019E-1,7.9840064E-1,-2.9128575E-1,5.6435096E-1,2.8743858E-3,8.77236E-1,-5.46966E-1,2.2014578E-1,-8.407124E-1,7.146625E-1,-1.0048506E0,5.8528507E-1,3.1475583E-1,9.46746E-1,-4.28586E-2,-8.1870024E-4,4.5993165E-3,8.575442E-2,-5.5238236E-2,1.9057296E-3,-1.4066756E-2,4.6513584E-2,-9.373184E-2,3.2622255E-2,-1.5859902E-2,5.19408E-2,-4.551905E-2,3.1878397E-2,5.609868E-3,4.896989E-2],"categories":[],"categories_nodes":[],"categories_segments":[],"categories_sizes":[],"default_left":[0,0,0,0,0,0,0,0,0,0,0,0,0,0,0,0,0,0,0,0,0,0,0,0,0,0,0,0,0,0,0],"id":30,"left_children":[1,3,5,7,9,11,13,15,17,19,21,23,25,27,29,-1,-1,-1,-1,-1,-1,-1,-1,-1,-1,-1,-1,-1,-1,-1,-1],"loss_changes":[6.5170044E1,3.3890892E1,5.7262497E0,3.7479263E1,1.2277544E1,6.0107503E0,2.9512825E0,3.1383999E1,1.8222948E1,1.3886223E0,1.1103325E1,6.6317177E0,2.9847422E0,4.7878504E0,1.8920746E0,0E0,0E0,0E0,0E0,0E0,0E0,0E0,0E0,0E0,0E0,0E0,0E0,0E0,0E0,0E0,0E0],"parents":[2147483647,0,0,1,1,2,2,3,3,4,4,5,5,6,6,7,7,8,8,9,9,10,10,11,11,12,12,13,13,14,14],"right_children":[2,4,6,8,10,12,14,16,18,20,22,24,26,28,30,-1,-1,-1,-1,-1,-1,-1,-1,-1,-1,-1,-1,-1,-1,-1,-1],"split_conditions":[1E0,1E0,1E0,2E0,2E0,1E0,1E0,1E0,2E0,1E0,2E0,1E0,1E0,2E0,1E0,-4.28586E-2,-8.1870024E-4,4.5993165E-3,8.575442E-2,-5.5238236E-2,1.9057296E-3,-1.4066756E-2,4.6513584E-2,-9.373184E-2,3.2622255E-2,-1.5859902E-2,5.19408E-2,-4.551905E-2,3.1878397E-2,5.609868E-3,4.896989E-2],"split_indices":[7,128,50,165,124,120,85,44,30,149,131,78,167,108,164,0,0,0,0,0,0,0,0,0,0,0,0,0,0,0,0],"split_type":[0,0,0,0,0,0,0,0,0,0,0,0,0,0,0,0,0,0,0,0,0,0,0,0,0,0,0,0,0,0,0],"sum_hessian":[4.293326E2,3.389873E2,9.034531E1,2.846991E2,5.4288208E1,8.2392845E0,8.2106026E1,1.8976186E2,9.493723E1,4.8025365E0,4.9485672E1,2.752097E0,5.4871874E0,9.638527E0,7.24675E1,1.1936225E2,7.03996E1,8.841874E1,6.51849E0,3.4952607E0,1.3072757E0,8.751881E0,4.073379E1,1.7188588E0,1.0332379E0,1.9357779E0,3.5514092E0,1.6304572E0,8.00807E0,2.895576E0,6.957192E1],"tree_param":{"num_deleted":"0","num_feature":"175","num_nodes":"31","size_leaf_vector":"1"}},{"base_weights":[-3.7817407E-2,-2.5133106E-1,7.6584464E-1,-8.248424E-1,-5.8082003E-2,-2.725971E-1,8.143286E-1,-1.0202023E0,-9.382025E-2,-4.445045E-1,3.1931067E-1,-6.557329E-2,5.6337756E-1,4.793433E-1,9.448072E-1,-5.4753847E-2,5.263121E-2,-2.0443482E-2,5.254947E-2,-2.9143224E-2,3.6116216E-2,-2.8259827E-2,2.9410908E-2,7.357569E-3,3.4164075E-2,-2.5144933E-2,3.407828E-2,3.3696227E-2,5.5075612E-2],"categories":[],"categories_nodes":[],"categories_segments":[],"categories_sizes":[],"default_left":[0,0,0,0,0,0,0,0,0,0,0,0,0,0,0,0,0,0,0,0,0,0,0,0,0,0,0,0,0],"id":31,"left_children":[1,3,5,7,9,11,13,15,17,19,21,-1,23,25,27,-1,-1,-1,-1,-1,-1,-1,-1,-1,-1,-1,-1,-1,-1],"loss_changes":[7.181514E1,3.6585617E1,4.6456757E0,1.1790615E1,3.6353146E1,4.7932463E0,3.2271042E0,1.1330399E1,7.157432E0,2.0295105E1,3.0349846E1,0E0,6.346583E-2,5.4338927E0,1.7860336E0,0E0,0E0,0E0,0E0,0E0,0E0,0E0,0E0,0E0,0E0,0E0,0E0,0E0,0E0],"parents":[2147483647,0,0,1,1,2,2,3,3,4,4,5,5,6,6,7,7,8,8,9,9,10,10,12,12,13,13,14,14],"right_children":[2,4,6,8,10,12,14,16,18,20,22,-1,24,26,28,-1,-1,-1,-1,-1,-1,-1,-1,-1,-1,-1,-1,-1,-1],"split_conditions":[1E0,1E0,1E0,1E0,1E0,1E0,1E0,2E0,1E0,1E0,2E0,-6.557329E-2,1E0,2E0,2E0,-5.4753847E-2,5.263121E-2,-2.0443482E-2,5.254947E-2,-2.9143224E-2,3.6116216E-2,-2.8259827E-2,2.9410908E-2,7.357569E-3,3.4164075E-2,-2.5144933E-2,3.407828E-2,3.3696227E-2,5.5075612E-2],"split_indices":[6,10,161,153,77,77,10,48,23,76,137,0,42,95,49,0,0,0,0,0,0,0,0,0,0,0,0,0,0],"split_type":[0,0,0,0,0,0,0,0,0,0,0,0,0,0,0,0,0,0,0,0,0,0,0,0,0,0,0,0,0],"sum_hessian":[4.1639896E2,3.2953635E2,8.686261E1,8.223038E1,2.4730597E2,3.668447E0,8.319416E1,6.457708E1,1.7653297E1,1.22103294E2,1.25202675E2,1.3821088E0,2.286338E0,2.4631083E1,5.856308E1,6.2781006E1,1.7960758E0,1.434769E1,3.3056076E0,1.09606834E2,1.249646E1,2.8932917E1,9.626976E1,1.0094495E0,1.2768886E0,3.9513881E0,2.0679693E1,2.3405153E1,3.5157925E1],"tree_param":{"num_deleted":"0","num_feature":"175","num_nodes":"29","size_leaf_vector":"1"}},{"base_weights":[3.747806E-2,-1.3692808E-1,7.1300805E-1,-4.1125357E-1,3.5130656E-1,2.8571096E-1,9.278755E-1,-6.538853E-1,7.6487914E-2,-2.8877747E-1,5.846365E-1,-2.3577915E-1,8.389332E-1,9.687716E-1,-7.1248584E-3,-4.601403E-2,-5.593446E-3,-4.5075558E-2,1.9528694E-2,-4.433E-2,3.017047E-2,-6.963068E-2,3.2664087E-2,-5.4454476E-2,1.0941214E-2,4.8648287E-3,5.1957127E-2,1.0669564E-2,5.1931895E-2,-3.950329E-2,3.45857E-2],"categories":[],"categories_nodes":[],"categories_segments":[],"categories_sizes":[],"default_left":[0,0,0,0,0,0,0,0,0,0,0,0,0,0,0,0,0,0,0,0,0,0,0,0,0,0,0,0,0,0,0],"id":32,"left_children":[1,3,5,7,9,11,13,15,17,19,21,23,25,27,29,-1,-1,-1,-1,-1,-1,-1,-1,-1,-1,-1,-1,-1,-1,-1,-1],"loss_changes":[4.9125576E1,4.4555477E1,7.5896378E0,2.5228458E1,1.8064766E1,8.873165E0,2.1666374E0,2.0427364E1,2.233819E1,1.7965618E1,1.2873533E1,6.5458007E0,2.098031E0,2.6346893E0,2.3847182E0,0E0,0E0,0E0,0E0,0E0,0E0,0E0,0E0,0E0,0E0,0E0,0E0,0E0,0E0,0E0,0E0],"parents":[2147483647,0,0,1,1,2,2,3,3,4,4,5,5,6,6,7,7,8,8,9,9,10,10,11,11,12,12,13,13,14,14],"right_children":[2,4,6,8,10,12,14,16,18,20,22,24,26,28,30,-1,-1,-1,-1,-1,-1,-1,-1,-1,-1,-1,-1,-1,-1,-1,-1],"split_conditions":[1E0,1E0,1E0,2E0,1E0,1E0,2E0,1E0,1E0,1E0,1E0,2E0,2E0,1E0,2E0,-4.601403E-2,-5.593446E-3,-4.5075558E-2,1.9528694E-2,-4.433E-2,3.017047E-2,-6.963068E-2,3.2664087E-2,-5.4454476E-2,1.0941214E-2,4.8648287E-3,5.1957127E-2,1.0669564E-2,5.1931895E-2,-3.950329E-2,3.45857E-2],"split_indices":[6,44,10,165,10,77,36,34,25,34,137,161,74,111,131,0,0,0,0,0,0,0,0,0,0,0,0,0,0,0,0],"split_type":[0,0,0,0,0,0,0,0,0,0,0,0,0,0,0,0,0,0,0,0,0,0,0,0,0,0,0,0,0,0,0],"sum_hessian":[4.151379E2,3.3058566E2,8.455223E1,2.1176082E2,1.1882486E2,2.9070585E1,5.5481647E1,1.411859E2,7.057492E1,3.1680225E1,8.714463E1,1.5259839E1,1.3810745E1,5.312202E1,2.3596272E0,9.41931E1,4.6992798E1,1.6701044E1,5.387388E1,1.8973213E1,1.2707012E1,2.2768009E0,8.4867836E1,4.818887E0,1.0440952E1,3.2516413E0,1.0559104E1,4.8406124E0,4.8281406E1,1.0512846E0,1.3083427E0],"tree_param":{"num_deleted":"0","num_feature":"175","num_nodes":"31","size_leaf_vector":"1"}},{"base_weights":[6.3315436E-2,-1.16582744E-1,7.5455624E-1,-2.1623993E-1,8.6312413E-1,2.84438E-1,9.8528457E-1,-4.3616062E-1,2.2037147E-1,1.7140996E-1,1.2012146E0,-4.6800565E-2,4.5181924E-1,1.5765029E-1,1.0558026E0,-3.34653E-2,2.542449E-3,-7.4554585E-2,1.4757061E-2,-2.5435776E-2,4.816046E-2,7.132494E-2,1.6950589E-2,-1.7179487E-2,3.8154032E-2,-2.946873E-2,4.356436E-2,5.6104522E-2,3.3958142E-3],"categories":[],"categories_nodes":[],"categories_segments":[],"categories_sizes":[],"default_left":[0,0,0,0,0,0,0,0,0,0,0,0,0,0,0,0,0,0,0,0,0,0,0,0,0,0,0,0,0],"id":33,"left_children":[1,3,5,7,9,11,13,15,17,19,21,-1,23,25,27,-1,-1,-1,-1,-1,-1,-1,-1,-1,-1,-1,-1,-1,-1],"loss_changes":[5.2043854E1,3.2639915E1,9.093189E0,2.914254E1,7.018133E0,6.521693E0,3.1929626E0,2.2914188E1,1.3491965E1,6.57954E0,3.5143204E0,0E0,6.929204E0,3.5494685E0,3.3856812E0,0E0,0E0,0E0,0E0,0E0,0E0,0E0,0E0,0E0,0E0,0E0,0E0,0E0,0E0],"parents":[2147483647,0,0,1,1,2,2,3,3,4,4,5,5,6,6,7,7,8,8,9,9,10,10,12,12,13,13,14,14],"right_children":[2,4,6,8,10,12,14,16,18,20,22,-1,24,26,28,-1,-1,-1,-1,-1,-1,-1,-1,-1,-1,-1,-1,-1,-1],"split_conditions":[1E0,2E0,1E0,1E0,2E0,1E0,1E0,2E0,1E0,1E0,1E0,-4.6800565E-2,1E0,1E0,2E0,-3.34653E-2,2.542449E-3,-7.4554585E-2,1.4757061E-2,-2.5435776E-2,4.816046E-2,7.132494E-2,1.6950589E-2,-1.7179487E-2,3.8154032E-2,-2.946873E-2,4.356436E-2,5.6104522E-2,3.3958142E-3],"split_indices":[12,105,10,44,74,8,49,165,89,41,66,0,88,155,116,0,0,0,0,0,0,0,0,0,0,0,0,0,0],"split_type":[0,0,0,0,0,0,0,0,0,0,0,0,0,0,0,0,0,0,0,0,0,0,0,0,0,0,0,0,0],"sum_hessian":[4.1680984E2,3.3139444E2,8.541539E1,3.0150427E2,2.9890163E1,2.8854986E1,5.6560406E1,2.005091E2,1.00995186E2,1.0307858E1,1.9582306E1,2.92626E0,2.5928726E1,4.6948566E0,5.1865547E1,1.3534248E2,6.516661E1,3.4346383E0,9.756055E1,5.737276E0,4.570583E0,1.5006732E1,4.5755734E0,7.2634854E0,1.8665241E1,2.3788433E0,2.3160133E0,4.8476868E1,3.38868E0],"tree_param":{"num_deleted":"0","num_feature":"175","num_nodes":"29","size_leaf_vector":"1"}},{"base_weights":[1.8574756E-2,-2.5602305E-1,4.7437218E-1,-4.6257547E-1,2.881693E-1,1.7474078E-1,8.411831E-1,-5.3161806E-1,1.6036454E0,-3.4688365E-1,5.845863E-1,-1.4142814E-1,5.803532E-1,-1.9533796E-2,8.711753E-1,-4.396664E-2,-1.0715271E-2,2.6251543E-2,8.953227E-2,-3.3377156E-2,5.8007624E-2,-2.7443752E-2,3.288224E-2,-4.0134605E-2,1.4693163E-2,9.789569E-3,5.0568324E-2,3.419484E-2,5.3177875E-2],"categories":[],"categories_nodes":[],"categories_segments":[],"categories_sizes":[],"default_left":[0,0,0,0,0,0,0,0,0,0,0,0,0,0,0,0,0,0,0,0,0,0,0,0,0,0,0,0,0],"id":34,"left_children":[1,3,5,7,9,11,13,15,17,19,21,23,25,-1,27,-1,-1,-1,-1,-1,-1,-1,-1,-1,-1,-1,-1,-1,-1],"loss_changes":[5.0800217E1,2.8608618E1,1.6622684E1,2.7103584E1,1.3438864E1,1.1013685E1,2.865139E0,1.9541077E1,3.1019688E-1,1.1890787E1,4.3615646E0,1.425573E1,6.02351E0,0E0,1.6873894E0,0E0,0E0,0E0,0E0,0E0,0E0,0E0,0E0,0E0,0E0,0E0,0E0,0E0,0E0],"parents":[2147483647,0,0,1,1,2,2,3,3,4,4,5,5,6,6,7,7,8,8,9,9,10,10,11,11,12,12,14,14],"right_children":[2,4,6,8,10,12,14,16,18,20,22,24,26,-1,28,-1,-1,-1,-1,-1,-1,-1,-1,-1,-1,-1,-1,-1,-1],"split_conditions":[1E0,1E0,2E0,2E0,1E0,1E0,1E0,1E0,2E0,2E0,1E0,1E0,1E0,-1.9533796E-2,1E0,-4.396664E-2,-1.0715271E-2,2.6251543E-2,8.953227E-2,-3.3377156E-2,5.8007624E-2,-2.7443752E-2,3.288224E-2,-4.0134605E-2,1.4693163E-2,9.789569E-3,5.0568324E-2,3.419484E-2,5.3177875E-2],"split_indices":[9,43,85,174,150,43,146,77,64,29,89,116,42,0,12,0,0,0,0,0,0,0,0,0,0,0,0,0,0],"split_type":[0,0,0,0,0,0,0,0,0,0,0,0,0,0,0,0,0,0,0,0,0,0,0,0,0,0,0,0,0],"sum_hessian":[4.0390866E2,2.5232956E2,1.5157912E2,1.8301483E2,6.931472E1,8.424199E1,6.733713E1,1.7781584E2,5.198992E0,2.2003496E1,4.7311222E1,4.7706665E1,3.653532E1,1.3146579E0,6.602247E1,8.3998344E1,9.3817505E1,1.3307703E0,3.8682218E0,1.8602417E1,3.401079E0,2.4704673E0,4.4840755E1,1.8602709E1,2.9103954E1,2.0076649E1,1.6458673E1,3.5763058E1,3.0259407E1],"tree_param":{"num_deleted":"0","num_feature":"175","num_nodes":"29","size_leaf_vector":"1"}},{"base_weights":[2.7986422E-2,-1.2012452E-1,6.679086E-1,-6.933793E-1,6.183184E-2,2.2081982E-1,8.8229793E-1,-1.0751034E0,-1.4481288E-1,-6.048247E-1,2.7588347E-1,-4.210854E-1,9.73473E-1,5.4033494E-1,1.0624032E0,-5.658679E-2,2.4965774E-2,-4.267686E-2,1.532182E-2,-4.0817745E-2,4.8123794E-3,-2.8368344E-3,3.13729E-2,-6.662654E-2,9.833148E-3,9.95312E-3,5.467791E-2,-3.3844856E-3,4.9383517E-2,5.5818904E-2,-8.264075E-3],"categories":[],"categories_nodes":[],"categories_segments":[],"categories_sizes":[],"default_left":[0,0,0,0,0,0,0,0,0,0,0,0,0,0,0,0,0,0,0,0,0,0,0,0,0,0,0,0,0,0,0],"id":35,"left_children":[1,3,5,7,9,11,13,15,17,19,21,23,25,27,29,-1,-1,-1,-1,-1,-1,-1,-1,-1,-1,-1,-1,-1,-1,-1,-1],"loss_changes":[3.9153984E1,3.5050808E1,7.246727E0,1.6794273E1,3.6651825E1,1.3211166E1,2.6372375E0,4.8070526E0,1.1253359E1,9.340443E0,2.2748247E1,8.706783E0,9.4457245E-1,5.5128136E0,2.3790321E0,0E0,0E0,0E0,0E0,0E0,0E0,0E0,0E0,0E0,0E0,0E0,0E0,0E0,0E0,0E0,0E0],"parents":[2147483647,0,0,1,1,2,2,3,3,4,4,5,5,6,6,7,7,8,8,9,9,10,10,11,11,12,12,13,13,14,14],"right_children":[2,4,6,8,10,12,14,16,18,20,22,24,26,28,30,-1,-1,-1,-1,-1,-1,-1,-1,-1,-1,-1,-1,-1,-1,-1,-1],"split_conditions":[1E0,1E0,1E0,1E0,2E0,1E0,1E0,2E0,2E0,2E0,1E0,1E0,2E0,2E0,2E0,-5.658679E-2,2.4965774E-2,-4.267686E-2,1.532182E-2,-4.0817745E-2,4.8123794E-3,-2.8368344E-3,3.13729E-2,-6.662654E-2,9.833148E-3,9.95312E-3,5.467791E-2,-3.3844856E-3,4.9383517E-2,5.5818904E-2,-8.264075E-3],"split_indices":[6,10,10,43,137,77,12,139,103,62,77,59,74,59,39,0,0,0,0,0,0,0,0,0,0,0,0,0,0,0,0],"split_type":[0,0,0,0,0,0,0,0,0,0,0,0,0,0,0,0,0,0,0,0,0,0,0,0,0,0,0,0,0,0,0],"sum_hessian":[4.112596E2,3.3462292E2,7.663669E1,7.994499E1,2.5467793E2,2.5496382E1,5.1140312E1,4.657534E1,3.336965E1,6.1454468E1,1.9322346E2,1.3998339E1,1.1498042E1,1.902257E1,3.211774E1,4.522959E1,1.3457496E0,1.2634549E1,2.0735102E1,4.7083744E1,1.4370722E1,9.9719124E1,9.350434E1,5.187484E0,8.810855E0,1.9003916E0,9.597651E0,8.422827E0,1.0599743E1,3.0852003E1,1.2657375E0],"tree_param":{"num_deleted":"0","num_feature":"175","num_nodes":"31","size_leaf_vector":"1"}},{"base_weights":[-2.4912154E-2,-1.9126041E-1,6.362482E-1,-5.8235353E-1,1.8657538E-1,-5.626438E-1,7.548966E-1,-8.21393E-1,-2.2425395E-2,-4.5463324E-1,3.8530558E-1,-1.2557375E0,4.9136785E-1,1.9345726E-1,9.81496E-1,-4.6137527E-2,4.2885672E-2,2.367479E-2,-3.9052345E-2,-4.0118996E-2,2.2877855E-2,-1.808285E-2,2.7341967E-2,2.8524834E-3,-8.571868E-2,-2.3138754E-3,3.9747395E-2,-4.433178E-2,2.3191864E-2,5.3670745E-2,-4.7957315E-3],"categories":[],"categories_nodes":[],"categories_segments":[],"categories_sizes":[],"default_left":[0,0,0,0,0,0,0,0,0,0,0,0,0,0,0,0,0,0,0,0,0,0,0,0,0,0,0,0,0,0,0],"id":36,"left_children":[1,3,5,7,9,11,13,15,17,19,21,23,25,27,29,-1,-1,-1,-1,-1,-1,-1,-1,-1,-1,-1,-1,-1,-1,-1,-1],"loss_changes":[4.320042E1,4.646627E1,1.1657814E1,2.064679E1,2.0604382E1,6.230672E0,9.006306E0,1.9201828E1,1.8135252E1,1.2545067E1,1.50304165E1,3.058374E0,6.516661E-1,6.845041E0,5.1788483E0,0E0,0E0,0E0,0E0,0E0,0E0,0E0,0E0,0E0,0E0,0E0,0E0,0E0,0E0,0E0,0E0],"parents":[2147483647,0,0,1,1,2,2,3,3,4,4,5,5,6,6,7,7,8,8,9,9,10,10,11,11,12,12,13,13,14,14],"right_children":[2,4,6,8,10,12,14,16,18,20,22,24,26,28,30,-1,-1,-1,-1,-1,-1,-1,-1,-1,-1,-1,-1,-1,-1,-1,-1],"split_conditions":[1E0,1E0,1E0,2E0,2E0,2E0,1E0,2E0,1E0,1E0,1E0,2E0,2E0,2E0,2E0,-4.6137527E-2,4.2885672E-2,2.367479E-2,-3.9052345E-2,-4.0118996E-2,2.2877855E-2,-1.808285E-2,2.7341967E-2,2.8524834E-3,-8.571868E-2,-2.3138754E-3,3.9747395E-2,-4.433178E-2,2.3191864E-2,5.3670745E-2,-4.7957315E-3],"split_indices":[12,77,49,165,132,158,10,34,143,9,167,74,99,74,116,0,0,0,0,0,0,0,0,0,0,0,0,0,0,0,0],"split_type":[0,0,0,0,0,0,0,0,0,0,0,0,0,0,0,0,0,0,0,0,0,0,0,0,0,0,0,0,0,0,0],"sum_hessian":[3.9068585E2,3.1271686E2,7.7968994E1,1.5339664E2,1.5932022E2,6.684354E0,7.1284645E1,1.0717534E2,4.62213E1,3.7390625E1,1.21929596E2,3.9171424E0,2.7672112E0,2.1030834E1,5.025381E1,1.0149891E2,5.6764245E0,2.8177277E1,1.8044022E1,2.7157848E1,1.0232777E1,2.1459225E1,1.0047037E2,1.2408829E0,2.6762595E0,1.3044928E0,1.4627185E0,3.7542863E0,1.7276548E1,4.630686E1,3.946948E0],"tree_param":{"num_deleted":"0","num_feature":"175","num_nodes":"31","size_leaf_vector":"1"}},{"base_weights":[-5.9447126E-3,-1.7603572E-1,6.9039685E-1,-3.0387196E-1,4.5137614E-1,3.4599745E-1,9.474061E-1,-9.1334397E-1,-1.2702677E-1,-6.4174056E-1,7.26862E-1,2.6620435E-2,8.551459E-1,4.932573E-2,-6.317743E-3,-5.5597227E-2,-1.8079186E-2,-3.103936E-2,2.3674439E-3,-4.4788547E-2,2.257593E-2,-5.9511214E-2,4.5342498E-2,-2.4225561E-2,3.1259086E-2,3.916834E-3,5.578647E-2],"categories":[],"categories_nodes":[],"categories_segments":[],"categories_sizes":[],"default_left":[0,0,0,0,0,0,0,0,0,0,0,0,0,0,0,0,0,0,0,0,0,0,0,0,0,0,0],"id":37,"left_children":[1,3,5,7,9,11,13,15,17,19,21,23,25,-1,-1,-1,-1,-1,-1,-1,-1,-1,-1,-1,-1,-1,-1],"loss_changes":[4.6314274E1,2.5341019E1,6.4670334E0,2.8084919E1,1.6604963E1,5.567911E0,1.9465218E0,6.0285034E0,1.759062E1,3.5478606E0,1.6010849E1,7.082604E0,2.5888138E0,0E0,0E0,0E0,0E0,0E0,0E0,0E0,0E0,0E0,0E0,0E0,0E0,0E0,0E0],"parents":[2147483647,0,0,1,1,2,2,3,3,4,4,5,5,6,6,7,7,8,8,9,9,10,10,11,11,12,12],"right_children":[2,4,6,8,10,12,14,16,18,20,22,24,26,-1,-1,-1,-1,-1,-1,-1,-1,-1,-1,-1,-1,-1,-1],"split_conditions":[1E0,1E0,2E0,1E0,1E0,1E0,2E0,1E0,2E0,1E0,1E0,1E0,2E0,4.932573E-2,-6.317743E-3,-5.5597227E-2,-1.8079186E-2,-3.103936E-2,2.3674439E-3,-4.4788547E-2,2.257593E-2,-5.9511214E-2,4.5342498E-2,-2.4225561E-2,3.1259086E-2,3.916834E-3,5.578647E-2],"split_indices":[6,153,86,165,156,43,29,22,160,172,111,151,95,0,0,0,0,0,0,0,0,0,0,0,0,0,0],"split_type":[0,0,0,0,0,0,0,0,0,0,0,0,0,0,0,0,0,0,0,0,0,0,0,0,0,0,0],"sum_hessian":[3.8900488E2,3.1323914E2,7.576577E1,2.6064743E2,5.2591694E1,3.338082E1,4.238495E1,5.7683784E1,2.0296365E2,1.0318564E1,4.227313E1,2.1159954E1,1.2220865E1,4.0973854E1,1.4110966E0,4.1669865E1,1.601392E1,5.2302975E1,1.5066068E2,8.519589E0,1.7989752E0,3.1464865E0,3.912664E1,1.151632E1,9.643635E0,3.3964732E0,8.824392E0],"tree_param":{"num_deleted":"0","num_feature":"175","num_nodes":"27","size_leaf_vector":"1"}},{"base_weights":[1.803705E-2,-1.3947308E-1,6.7489564E-1,-3.4203002E-1,3.2068053E-1,-1.4308195E-1,7.830965E-1,-6.2407374E-1,4.357452E-2,-1.3474591E-1,5.887754E-1,-5.8197296E-1,4.6512246E-2,3.1156692E-1,9.267382E-1,-4.07952E-2,-5.7095042E-3,-3.2784346E-2,1.1501691E-2,-3.5975136E-2,9.851285E-3,1.0727336E-2,4.8592437E-2,-7.007696E-2,1.3956944E-2,-3.7889488E-2,2.6026899E-2,2.3791758E-2,5.2765127E-2],"categories":[],"categories_nodes":[],"categories_segments":[],"categories_sizes":[],"default_left":[0,0,0,0,0,0,0,0,0,0,0,0,0,0,0,0,0,0,0,0,0,0,0,0,0,0,0,0,0],"id":38,"left_children":[1,3,5,7,9,11,13,15,17,19,21,23,-1,25,27,-1,-1,-1,-1,-1,-1,-1,-1,-1,-1,-1,-1,-1,-1],"loss_changes":[4.070073E1,2.9693378E1,6.8457565E0,2.4048271E1,1.1987278E1,5.1267166E0,4.27285E0,1.2390404E1,1.2438101E1,7.310663E0,8.618866E0,5.7011395E0,0E0,4.245247E0,2.4610481E0,0E0,0E0,0E0,0E0,0E0,0E0,0E0,0E0,0E0,0E0,0E0,0E0,0E0,0E0],"parents":[2147483647,0,0,1,1,2,2,3,3,4,4,5,5,6,6,7,7,8,8,9,9,10,10,11,11,13,13,14,14],"right_children":[2,4,6,8,10,12,14,16,18,20,22,24,-1,26,28,-1,-1,-1,-1,-1,-1,-1,-1,-1,-1,-1,-1,-1,-1],"split_conditions":[1E0,1E0,1E0,1E0,2E0,1E0,1E0,1E0,2E0,1E0,1E0,1E0,4.6512246E-2,1E0,1E0,-4.07952E-2,-5.7095042E-3,-3.2784346E-2,1.1501691E-2,-3.5975136E-2,9.851285E-3,1.0727336E-2,4.8592437E-2,-7.007696E-2,1.3956944E-2,-3.7889488E-2,2.6026899E-2,2.3791758E-2,5.2765127E-2],"split_indices":[12,34,49,141,103,47,88,48,131,150,42,120,0,136,99,0,0,0,0,0,0,0,0,0,0,0,0,0,0],"split_type":[0,0,0,0,0,0,0,0,0,0,0,0,0,0,0,0,0,0,0,0,0,0,0,0,0,0,0,0,0],"sum_hessian":[3.9147882E2,3.1639676E2,7.508208E1,2.1986859E2,9.652816E1,8.733808E0,6.6348274E1,1.2662934E2,9.323925E1,3.5952023E1,6.057614E1,6.523917E0,2.2098904E0,1.623221E1,5.0116062E1,9.157608E1,3.505326E1,1.9098682E1,7.414057E1,1.2591131E1,2.3360891E1,3.1430952E1,2.914519E1,3.0210402E0,3.5028772E0,2.2241895E0,1.400802E1,1.2162089E1,3.795397E1],"tree_param":{"num_deleted":"0","num_feature":"175","num_nodes":"29","size_leaf_vector":"1"}},{"base_weights":[1.9314282E-2,-1.8234222E-1,3.9513677E-1,-3.5505226E-1,4.3353555E-1,1.6266744E-1,8.3997303E-1,-5.956121E-1,6.92521E-2,-1.01182826E-1,7.532504E-1,-3.5728824E-1,4.5351937E-1,-3.0432206E-1,9.9224293E-1,-3.9317828E-2,1.0483463E-2,-2.6383742E-3,7.2107896E-2,-2.8588329E-2,2.8345933E-2,1.2768857E-2,4.8763823E-2,-4.135379E-2,7.217972E-3,-4.429895E-3,3.557546E-2,1.5341624E-2,-5.5625238E-2,2.3875676E-2,5.659451E-2],"categories":[],"categories_nodes":[],"categories_segments":[],"categories_sizes":[],"default_left":[0,0,0,0,0,0,0,0,0,0,0,0,0,0,0,0,0,0,0,0,0,0,0,0,0,0,0,0,0,0,0],"id":39,"left_children":[1,3,5,7,9,11,13,15,17,19,21,23,25,27,29,-1,-1,-1,-1,-1,-1,-1,-1,-1,-1,-1,-1,-1,-1,-1,-1],"loss_changes":[2.8529112E1,2.6219551E1,1.3455305E1,1.9631807E1,9.328303E0,1.3404364E1,8.120586E0,1.8995274E1,1.1859571E1,6.968031E0,3.5079002E0,7.6537514E0,7.9783E0,3.3222537E0,2.3230247E0,0E0,0E0,0E0,0E0,0E0,0E0,0E0,0E0,0E0,0E0,0E0,0E0,0E0,0E0,0E0,0E0],"parents":[2147483647,0,0,1,1,2,2,3,3,4,4,5,5,6,6,7,7,8,8,9,9,10,10,11,11,12,12,13,13,14,14],"right_children":[2,4,6,8,10,12,14,16,18,20,22,24,26,28,30,-1,-1,-1,-1,-1,-1,-1,-1,-1,-1,-1,-1,-1,-1,-1,-1],"split_conditions":[1E0,1E0,1E0,2E0,2E0,2E0,2E0,1E0,2E0,1E0,1E0,1E0,1E0,1E0,1E0,-3.9317828E-2,1.0483463E-2,-2.6383742E-3,7.2107896E-2,-2.8588329E-2,2.8345933E-2,1.2768857E-2,4.8763823E-2,-4.135379E-2,7.217972E-3,-4.429895E-3,3.557546E-2,1.5341624E-2,-5.5625238E-2,2.3875676E-2,5.659451E-2],"split_indices":[44,7,30,10,49,49,131,128,30,41,10,173,62,168,64,0,0,0,0,0,0,0,0,0,0,0,0,0,0,0,0],"split_type":[0,0,0,0,0,0,0,0,0,0,0,0,0,0,0,0,0,0,0,0,0,0,0,0,0,0,0,0,0,0,0],"sum_hessian":[3.7448712E2,2.4405074E2,1.304364E2,1.9093149E2,5.3119244E1,8.6564095E1,4.3872307E1,1.2159138E2,6.934011E1,2.0132109E1,3.2987133E1,3.0970228E1,5.5593864E1,5.0351357E0,3.8837173E1,9.832496E1,2.326642E1,6.456348E1,4.776636E0,1.1896727E1,8.235382E0,1.08368E1,2.2150333E1,1.5657982E1,1.5312246E1,1.8137625E1,3.7456238E1,3.2202773E0,1.8148582E0,9.231171E0,2.9606003E1],"tree_param":{"num_deleted":"0","num_feature":"175","num_nodes":"31","size_leaf_vector":"1"}},{"base_weights":[4.5928016E-2,-1.4737138E-1,5.219705E-1,-3.58416E-1,3.7527314E-1,-1.210387E-2,6.7078704E-1,-5.8115715E-1,1.3111183E-1,-1.3000934E-1,6.380427E-1,-7.641789E-1,3.6151087E-1,-3.081939E-2,7.089608E-1,-4.304179E-2,-5.105898E-3,-4.308861E-2,1.736204E-2,-1.8235108E-2,5.4676212E-2,-6.0672136E-3,4.0337157E-2,-7.7500515E-2,-3.5642453E-3,-1.4791652E-2,3.326185E-2,2.4311518E-2,4.7127526E-2],"categories":[],"categories_nodes":[],"categories_segments":[],"categories_sizes":[],"default_left":[0,0,0,0,0,0,0,0,0,0,0,0,0,0,0,0,0,0,0,0,0,0,0,0,0,0,0,0,0],"id":40,"left_children":[1,3,5,7,9,11,13,15,17,19,21,23,25,-1,27,-1,-1,-1,-1,-1,-1,-1,-1,-1,-1,-1,-1,-1,-1],"loss_changes":[3.5081795E1,3.0062704E1,8.757097E0,2.1207188E1,1.0510475E1,7.2927217E0,4.668026E0,1.7781307E1,1.3479319E1,8.353E0,6.738619E0,4.577052E0,3.6631482E0,0E0,3.9168549E0,0E0,0E0,0E0,0E0,0E0,0E0,0E0,0E0,0E0,0E0,0E0,0E0,0E0,0E0],"parents":[2147483647,0,0,1,1,2,2,3,3,4,4,5,5,6,6,7,7,8,8,9,9,10,10,11,11,12,12,14,14],"right_children":[2,4,6,8,10,12,14,16,18,20,22,24,26,-1,28,-1,-1,-1,-1,-1,-1,-1,-1,-1,-1,-1,-1,-1,-1],"split_conditions":[1E0,1E0,2E0,1E0,1E0,1E0,1E0,2E0,1E0,2E0,2E0,1E0,2E0,-3.081939E-2,2E0,-4.304179E-2,-5.105898E-3,-4.308861E-2,1.736204E-2,-1.8235108E-2,5.4676212E-2,-6.0672136E-3,4.0337157E-2,-7.7500515E-2,-3.5642453E-3,-1.4791652E-2,3.326185E-2,2.4311518E-2,4.7127526E-2],"split_indices":[8,34,95,44,152,10,160,152,165,77,135,88,89,0,88,0,0,0,0,0,0,0,0,0,0,0,0,0,0],"split_type":[0,0,0,0,0,0,0,0,0,0,0,0,0,0,0,0,0,0,0,0,0,0,0,0,0,0,0,0,0],"sum_hessian":[3.7941028E2,2.7033133E2,1.0907895E2,1.9279475E2,7.7536575E1,2.3970835E1,8.510811E1,1.3237523E2,6.0419525E1,2.670003E1,5.083655E1,7.6089287E0,1.6361906E1,2.0150762E0,8.309303E1,8.307584E1,4.929939E1,1.026686E1,5.0152668E1,2.2991776E1,3.708254E0,9.291696E0,4.1544853E1,2.985723E0,4.6232057E0,5.1790524E0,1.1182854E1,4.411267E1,3.8980366E1],"tree_param":{"num_deleted":"0","num_feature":"175","num_nodes":"29","size_leaf_vector":"1"}},{"base_weights":[6.4591262E-3,-1.4648457E-1,6.46132E-1,-3.445475E-1,3.0295113E-1,2.5568658E-1,8.68983E-1,-1.0198324E0,-1.7645839E-1,-7.0166546E-1,4.5023564E-1,-1.488072E-1,8.358187E-1,-2.0366365E-2,9.1913223E-1,-5.414429E-2,2.2563903E-2,-4.1982044E-2,3.3267387E-4,-5.0393432E-2,3.702926E-2,9.128891E-3,3.877994E-2,-1.020925E-1,8.7715415E-3,5.187279E-2,-8.779187E-3,3.147396E-2,-3.1028582E-2,2.8176982E-2,5.2411247E-2],"categories":[],"categories_nodes":[],"categories_segments":[],"categories_sizes":[],"default_left":[0,0,0,0,0,0,0,0,0,0,0,0,0,0,0,0,0,0,0,0,0,0,0,0,0,0,0,0,0,0,0],"id":41,"left_children":[1,3,5,7,9,11,13,15,17,19,21,23,25,27,29,-1,-1,-1,-1,-1,-1,-1,-1,-1,-1,-1,-1,-1,-1,-1,-1],"loss_changes":[3.6681084E1,2.7042526E1,6.072653E0,2.3715673E1,1.4091436E1,6.625553E0,2.0542946E0,4.361206E0,2.0621979E1,6.176088E0,6.9824944E0,1.0898441E1,2.534051E0,1.7224528E0,1.393547E0,0E0,0E0,0E0,0E0,0E0,0E0,0E0,0E0,0E0,0E0,0E0,0E0,0E0,0E0,0E0,0E0],"parents":[2147483647,0,0,1,1,2,2,3,3,4,4,5,5,6,6,7,7,8,8,9,9,10,10,11,11,12,12,13,13,14,14],"right_children":[2,4,6,8,10,12,14,16,18,20,22,24,26,28,30,-1,-1,-1,-1,-1,-1,-1,-1,-1,-1,-1,-1,-1,-1,-1,-1],"split_conditions":[1E0,1E0,1E0,1E0,1E0,1E0,1E0,1E0,2E0,2E0,1E0,2E0,1E0,1E0,2E0,-5.414429E-2,2.2563903E-2,-4.1982044E-2,3.3267387E-4,-5.0393432E-2,3.702926E-2,9.128891E-3,3.877994E-2,-1.020925E-1,8.7715415E-3,5.187279E-2,-8.779187E-3,3.147396E-2,-3.1028582E-2,2.8176982E-2,5.2411247E-2],"split_indices":[6,43,10,10,111,44,103,80,169,43,42,144,145,148,131,0,0,0,0,0,0,0,0,0,0,0,0,0,0,0,0],"split_type":[0,0,0,0,0,0,0,0,0,0,0,0,0,0,0,0,0,0,0,0,0,0,0,0,0,0,0,0,0,0,0],"sum_hessian":[3.7296472E2,3.0161948E2,7.134523E1,2.0951929E2,9.2100204E1,2.670469E1,4.4640537E1,4.0748436E1,1.6877084E2,1.1294853E1,8.080535E1,1.6172207E1,1.0532484E1,2.4145565E0,4.2225983E1,3.9326748E1,1.4216887E0,3.574101E1,1.3302983E2,9.565246E0,1.7296073E0,4.5190693E1,3.5614662E1,1.5902508E0,1.4581957E1,8.760248E0,1.7722362E0,1.1359184E0,1.2786382E0,1.2675641E1,2.955034E1],"tree_param":{"num_deleted":"0","num_feature":"175","num_nodes":"31","size_leaf_vector":"1"}},{"base_weights":[1.4207121E-3,-2.7143845E-1,4.6274233E-1,-8.229106E-1,-1.1935755E-1,2.2624515E-1,8.134829E-1,-1.0569648E0,-1.0332665E-1,-2.9955342E-1,4.0839294E-1,4.812643E-2,8.572119E-1,5.2365494E-1,1.0550593E0,-5.5862095E-2,2.6070822E-3,-2.588123E-2,5.68098E-2,-4.134703E-2,-4.311821E-3,-7.4440725E-3,4.151642E-2,-1.4727409E-2,2.4658103E-2,-1.23159075E-2,5.4816335E-2,-4.4345795E-3,3.406906E-2,2.156686E-2,5.6413736E-2],"categories":[],"categories_nodes":[],"categories_segments":[],"categories_sizes":[],"default_left":[0,0,0,0,0,0,0,0,0,0,0,0,0,0,0,0,0,0,0,0,0,0,0,0,0,0,0,0,0,0,0],"id":42,"left_children":[1,3,5,7,9,11,13,15,17,19,21,23,25,27,29,-1,-1,-1,-1,-1,-1,-1,-1,-1,-1,-1,-1,-1,-1,-1,-1],"loss_changes":[4.6906643E1,1.9539776E1,1.1303726E1,8.386822E0,1.7687737E1,9.410773E0,3.3256264E0,2.595745E0,7.5152674E0,1.5484175E1,1.1277742E1,1.0309085E1,5.1399145E0,2.6841507E0,8.478737E-1,0E0,0E0,0E0,0E0,0E0,0E0,0E0,0E0,0E0,0E0,0E0,0E0,0E0,0E0,0E0,0E0],"parents":[2147483647,0,0,1,1,2,2,3,3,4,4,5,5,6,6,7,7,8,8,9,9,10,10,11,11,12,12,13,13,14,14],"right_children":[2,4,6,8,10,12,14,16,18,20,22,24,26,28,30,-1,-1,-1,-1,-1,-1,-1,-1,-1,-1,-1,-1,-1,-1,-1,-1],"split_conditions":[1E0,1E0,2E0,1E0,1E0,1E0,1E0,1E0,2E0,2E0,2E0,1E0,2E0,1E0,2E0,-5.5862095E-2,2.6070822E-3,-2.588123E-2,5.68098E-2,-4.134703E-2,-4.311821E-3,-7.4440725E-3,4.151642E-2,-1.4727409E-2,2.4658103E-2,-1.23159075E-2,5.4816335E-2,-4.4345795E-3,3.406906E-2,2.156686E-2,5.6413736E-2],"split_indices":[9,10,70,78,43,23,62,21,77,124,127,12,18,10,18,0,0,0,0,0,0,0,0,0,0,0,0,0,0,0,0],"split_type":[0,0,0,0,0,0,0,0,0,0,0,0,0,0,0,0,0,0,0,0,0,0,0,0,0,0,0,0,0,0,0],"sum_hessian":[3.7064435E2,2.3315256E2,1.3749178E2,4.9445053E1,1.837075E2,8.310251E1,5.4389267E1,3.695583E1,1.24892235E1,1.3727017E2,4.6437332E1,6.564697E1,1.7455536E1,2.6165375E1,2.822389E1,3.5043945E1,1.9118857E0,9.797056E0,2.6921673E0,3.8704304E1,9.856587E1,2.0288412E1,2.614892E1,3.727986E1,2.8367113E1,3.1033323E0,1.4352203E1,5.448838E0,2.0716536E1,3.6889608E0,2.453493E1],"tree_param":{"num_deleted":"0","num_feature":"175","num_nodes":"31","size_leaf_vector":"1"}},{"base_weights":[3.2296266E-2,-1.13596514E-1,6.560292E-1,-2.0237264E-1,7.5562906E-1,2.1856721E-1,8.976056E-1,-4.4860846E-1,1.3078631E-1,4.850347E-2,1.1014771E0,-1.3287582E-1,8.206543E-1,-8.862564E-2,9.888508E-1,-2.5568848E-2,6.0691305E-2,-2.3777334E-2,1.5311536E-2,-2.4971137E-2,4.5904424E-2,5.9475517E-4,6.632512E-2,-3.235889E-2,2.5317797E-2,-9.924743E-3,5.3005483E-2,-3.9385404E-2,3.88858E-2,3.339951E-2,5.814426E-2],"categories":[],"categories_nodes":[],"categories_segments":[],"categories_sizes":[],"default_left":[0,0,0,0,0,0,0,0,0,0,0,0,0,0,0,0,0,0,0,0,0,0,0,0,0,0,0,0,0,0,0],"id":43,"left_children":[1,3,5,7,9,11,13,15,17,19,21,23,25,27,29,-1,-1,-1,-1,-1,-1,-1,-1,-1,-1,-1,-1,-1,-1,-1,-1],"loss_changes":[3.4192986E1,2.3666636E1,7.330553E0,2.2804348E1,6.903887E0,5.750254E0,4.1876907E0,1.7280682E1,1.2762968E1,5.408995E0,4.6570625E0,6.144906E0,2.642387E0,3.5052364E0,1.5565491E0,0E0,0E0,0E0,0E0,0E0,0E0,0E0,0E0,0E0,0E0,0E0,0E0,0E0,0E0,0E0,0E0],"parents":[2147483647,0,0,1,1,2,2,3,3,4,4,5,5,6,6,7,7,8,8,9,9,10,10,11,11,12,12,13,13,14,14],"right_children":[2,4,6,8,10,12,14,16,18,20,22,24,26,28,30,-1,-1,-1,-1,-1,-1,-1,-1,-1,-1,-1,-1,-1,-1,-1,-1],"split_conditions":[1E0,2E0,1E0,1E0,2E0,1E0,1E0,2E0,2E0,1E0,2E0,1E0,2E0,2E0,2E0,-2.5568848E-2,6.0691305E-2,-2.3777334E-2,1.5311536E-2,-2.4971137E-2,4.5904424E-2,5.9475517E-4,6.632512E-2,-3.235889E-2,2.5317797E-2,-9.924743E-3,5.3005483E-2,-3.9385404E-2,3.88858E-2,3.339951E-2,5.814426E-2],"split_indices":[12,105,165,42,74,37,49,37,135,27,89,151,95,158,136,0,0,0,0,0,0,0,0,0,0,0,0,0,0,0,0],"split_type":[0,0,0,0,0,0,0,0,0,0,0,0,0,0,0,0,0,0,0,0,0,0,0,0,0,0,0,0,0,0,0],"sum_hessian":[3.7393582E2,3.0371417E2,7.0221664E1,2.7626566E2,2.7448502E1,2.5659868E1,4.4561794E1,1.5865681E2,1.1760884E2,9.389944E0,1.8058558E1,1.6694477E1,8.965392E0,3.77611E0,4.0785686E1,1.5355156E2,5.1052523E0,2.6009594E1,9.159925E1,6.021481E0,3.368463E0,3.2713583E0,1.47872E1,9.24437E0,7.450106E0,1.7382514E0,7.2271404E0,2.1400175E0,1.6360925E0,1.6044083E1,2.4741602E1],"tree_param":{"num_deleted":"0","num_feature":"175","num_nodes":"31","size_leaf_vector":"1"}},{"base_weights":[3.3827595E-2,-1.9363E-1,4.2112973E-1,-4.3913862E-1,2.137732E-1,1.4810136E-1,7.8095293E-1,-6.005753E-1,5.3672206E-1,-3.5757083E-1,4.2886502E-1,-2.0291813E-1,4.9802837E-1,-4.5659262E-1,8.3860105E-1,-4.5067362E-2,-3.7630002E-3,-1.9115528E-2,4.6951767E-2,-4.034276E-2,6.9689505E-2,-7.40176E-3,3.3414975E-2,-2.1676844E-2,4.005466E-2,3.1672053E-2,-3.4864444E-2,-6.9350906E-2,3.095485E-2,1.3830261E-2,4.662658E-2],"categories":[],"categories_nodes":[],"categories_segments":[],"categories_sizes":[],"default_left":[0,0,0,0,0,0,0,0,0,0,0,0,0,0,0,0,0,0,0,0,0,0,0,0,0,0,0,0,0,0,0],"id":44,"left_children":[1,3,5,7,9,11,13,15,17,19,21,23,25,27,29,-1,-1,-1,-1,-1,-1,-1,-1,-1,-1,-1,-1,-1,-1,-1,-1],"loss_changes":[3.223939E1,2.3164753E1,1.3183989E1,2.304817E1,1.0894764E1,9.70715E0,4.532936E0,1.9563663E1,8.12525E0,2.0364054E1,8.932991E0,9.551723E0,6.8276377E0,4.098062E0,2.694744E0,0E0,0E0,0E0,0E0,0E0,0E0,0E0,0E0,0E0,0E0,0E0,0E0,0E0,0E0,0E0,0E0],"parents":[2147483647,0,0,1,1,2,2,3,3,4,4,5,5,6,6,7,7,8,8,9,9,10,10,11,11,12,12,13,13,14,14],"right_children":[2,4,6,8,10,12,14,16,18,20,22,24,26,28,30,-1,-1,-1,-1,-1,-1,-1,-1,-1,-1,-1,-1,-1,-1,-1,-1],"split_conditions":[1E0,2E0,1E0,2E0,2E0,2E0,1E0,1E0,2E0,1E0,1E0,1E0,2E0,2E0,2E0,-4.5067362E-2,-3.7630002E-3,-1.9115528E-2,4.6951767E-2,-4.034276E-2,6.9689505E-2,-7.40176E-3,3.3414975E-2,-2.1676844E-2,4.005466E-2,3.1672053E-2,-3.4864444E-2,-6.9350906E-2,3.095485E-2,1.3830261E-2,4.662658E-2],"split_indices":[9,165,77,105,103,49,89,43,74,76,25,23,82,59,18,0,0,0,0,0,0,0,0,0,0,0,0,0,0,0,0],"split_type":[0,0,0,0,0,0,0,0,0,0,0,0,0,0,0,0,0,0,0,0,0,0,0,0,0,0,0,0,0,0,0],"sum_hessian":[3.6403683E2,2.2966032E2,1.3437651E2,1.4325458E2,8.640573E1,7.7205635E1,5.717087E1,1.2324991E2,2.0004675E1,2.3450972E1,6.295476E1,3.875238E1,3.845325E1,2.236615E0,5.4934258E1,7.792039E1,4.5329525E1,6.1060076E0,1.3898667E1,1.9092411E1,4.358562E0,1.8576864E1,4.4377895E1,3.1975815E1,6.776566E0,3.496255E1,3.490702E0,1.0440952E0,1.1925198E0,8.431644E0,4.6502613E1],"tree_param":{"num_deleted":"0","num_feature":"175","num_nodes":"31","size_leaf_vector":"1"}},{"base_weights":[8.915115E-3,-1.9508365E-1,3.7478814E-1,-4.150777E-1,2.2302453E-1,-3.9393118E-1,5.144973E-1,-7.614082E-1,9.721292E-3,-5.2662736E-1,4.2129984E-1,-7.823916E-1,7.372367E-1,1.5408434E-1,6.947881E-1,-4.4917565E-2,2.08889E-2,-2.0613285E-2,3.2524135E-2,-5.4303486E-2,5.2987374E-2,5.755976E-3,5.8231443E-2,-4.9593102E-2,4.2215582E-2,-1.2342917E-2,5.2860986E-2,-1.2874392E-2,3.199108E-2,-4.4941925E-2,3.6979638E-2],"categories":[],"categories_nodes":[],"categories_segments":[],"categories_sizes":[],"default_left":[0,0,0,0,0,0,0,0,0,0,0,0,0,0,0,0,0,0,0,0,0,0,0,0,0,0,0,0,0,0,0],"id":45,"left_children":[1,3,5,7,9,11,13,15,17,19,21,23,25,27,29,-1,-1,-1,-1,-1,-1,-1,-1,-1,-1,-1,-1,-1,-1,-1,-1],"loss_changes":[2.674973E1,2.1260021E1,1.3980358E1,2.2242907E1,1.2111382E1,9.495123E0,6.975107E0,1.3822063E1,1.8889194E1,1.6394173E1,1.4389595E1,6.150647E0,2.0568469E0,7.686935E0,5.8317413E0,0E0,0E0,0E0,0E0,0E0,0E0,0E0,0E0,0E0,0E0,0E0,0E0,0E0,0E0,0E0,0E0],"parents":[2147483647,0,0,1,1,2,2,3,3,4,4,5,5,6,6,7,7,8,8,9,9,10,10,11,11,12,12,13,13,14,14],"right_children":[2,4,6,8,10,12,14,16,18,20,22,24,26,28,30,-1,-1,-1,-1,-1,-1,-1,-1,-1,-1,-1,-1,-1,-1,-1,-1],"split_conditions":[1E0,2E0,1E0,1E0,2E0,1E0,1E0,1E0,1E0,1E0,1E0,2E0,1E0,2E0,1E0,-4.4917565E-2,2.08889E-2,-2.0613285E-2,3.2524135E-2,-5.4303486E-2,5.2987374E-2,5.755976E-3,5.8231443E-2,-4.9593102E-2,4.2215582E-2,-1.2342917E-2,5.2860986E-2,-1.2874392E-2,3.199108E-2,-4.4941925E-2,3.6979638E-2],"split_indices":[9,152,111,141,64,23,10,21,29,151,44,44,68,85,164,0,0,0,0,0,0,0,0,0,0,0,0,0,0,0,0],"split_type":[0,0,0,0,0,0,0,0,0,0,0,0,0,0,0,0,0,0,0,0,0,0,0,0,0,0,0,0,0,0,0],"sum_hessian":[3.56415E2,2.2912773E2,1.27287285E2,1.5013771E2,7.899001E1,1.9295933E1,1.07991356E2,8.227119E1,6.786652E1,1.6175735E1,6.281428E1,1.45928545E1,4.703078E0,3.662676E1,7.136459E1,7.3924255E1,8.34693E0,4.1133675E1,2.6732853E1,1.2191664E1,3.9840705E0,4.5307007E1,1.7507275E1,1.3273845E1,1.3190093E0,1.2100732E0,3.4930043E0,2.0081402E1,1.6545357E1,1.4302901E0,6.99343E1],"tree_param":{"num_deleted":"0","num_feature":"175","num_nodes":"31","size_leaf_vector":"1"}},{"base_weights":[6.20913E-2,-9.777847E-2,4.4756904E-1,-6.4692855E-1,6.667127E-2,1.832446E-1,7.6268166E-1,-7.389777E-1,6.181587E-2,-2.1530074E-1,4.628509E-1,2.4013087E-2,9.247559E-1,4.071426E-1,9.747443E-1,-4.6429675E-2,9.401481E-3,-2.2029288E-2,1.4926027E-2,-1.8897131E-2,3.2093763E-2,-9.024753E-3,3.9042573E-2,7.1862782E-3,4.9671855E-2,3.6481097E-2,-5.7810782E-3,-4.6632476E-3,5.1553853E-2],"categories":[],"categories_nodes":[],"categories_segments":[],"categories_sizes":[],"default_left":[0,0,0,0,0,0,0,0,0,0,0,0,0,0,0,0,0,0,0,0,0,0,0,0,0,0,0,0,0],"id":46,"left_children":[1,3,5,7,9,11,13,15,-1,17,19,21,23,25,27,-1,-1,-1,-1,-1,-1,-1,-1,-1,-1,-1,-1,-1,-1],"loss_changes":[2.243603E1,2.331162E1,8.74732E0,1.1222975E1,2.2351164E1,6.984335E0,3.2490635E0,1.0251017E1,0E0,1.3680639E1,1.2756805E1,7.8609915E0,4.1850567E-1,3.419542E0,1.8753719E0,0E0,0E0,0E0,0E0,0E0,0E0,0E0,0E0,0E0,0E0,0E0,0E0,0E0,0E0],"parents":[2147483647,0,0,1,1,2,2,3,3,4,4,5,5,6,6,7,7,9,9,10,10,11,11,12,12,13,13,14,14],"right_children":[2,4,6,8,10,12,14,16,-1,18,20,22,24,26,28,-1,-1,-1,-1,-1,-1,-1,-1,-1,-1,-1,-1,-1,-1],"split_conditions":[1E0,2E0,1E0,2E0,1E0,2E0,2E0,1E0,6.181587E-2,1E0,1E0,2E0,2E0,1E0,1E0,-4.6429675E-2,9.401481E-3,-2.2029288E-2,1.4926027E-2,-1.8897131E-2,3.2093763E-2,-9.024753E-3,3.9042573E-2,7.1862782E-3,